~o
<STREAMINFO> 1 39
<VECSIZE> 39<NULLD><MFCC_D_A_Z_0><DIAGC>
~s "silst"
<NUMMIXES> 8
<MIXTURE> 1 1.460754e-01
<MEAN> 39
 -4.347115e+00 2.258063e-01 -1.203782e+00 1.482453e+00 1.033360e+00 1.340198e+00 3.217343e+00 2.566400e+00 1.592194e+00 2.847274e-01 7.912157e-01 1.680093e+00 -3.673114e+00 -1.133963e-01 -8.709298e-04 2.810546e-02 1.078337e-01 1.015337e-01 9.543268e-02 1.632284e-01 1.463782e-01 1.026786e-01 6.386320e-02 3.482478e-02 1.673268e-02 -8.705052e-02 -4.079194e-02 -5.776995e-04 5.055364e-03 2.585598e-02 7.631650e-02 8.144490e-02 1.095695e-01 1.333104e-01 1.180884e-01 7.830098e-02 3.506984e-02 -7.595849e-03 -3.074090e-02
<VARIANCE> 39
 8.212687e+00 1.797947e+01 1.687676e+01 1.243122e+01 1.524097e+01 1.638235e+01 1.956312e+01 1.830073e+01 1.671406e+01 1.457717e+01 1.210367e+01 1.366499e+01 4.827715e+00 2.832778e-01 4.971691e-01 5.673819e-01 6.476154e-01 8.566951e-01 9.779598e-01 1.207266e+00 1.217272e+00 1.065196e+00 9.400039e-01 9.058209e-01 8.417392e-01 1.420689e-01 5.092857e-02 1.025778e-01 1.255886e-01 1.466892e-01 1.914433e-01 2.162773e-01 2.430722e-01 2.477846e-01 2.163741e-01 1.921040e-01 1.768668e-01 1.670562e-01 2.474765e-02
<GCONST> 7.497891e+01
<MIXTURE> 2 1.849418e-01
<MEAN> 39
 -6.947892e+00 1.057310e-01 -1.758411e+00 1.984224e+00 1.531525e+00 2.067925e+00 6.160140e+00 6.039411e+00 5.532771e+00 4.401945e+00 3.955106e+00 2.674381e+00 -5.742727e+00 -8.935081e-02 -5.425628e-02 -2.708284e-02 2.794885e-02 8.750822e-02 1.077913e-01 1.591053e-01 1.695557e-01 1.374677e-01 9.050233e-02 5.090532e-02 -3.228587e-03 -5.056780e-02 1.298360e-02 1.054927e-02 4.023364e-02 6.371343e-02 9.555239e-02 1.083592e-01 5.128925e-02 -5.070303e-02 -1.949652e-01 -2.922603e-01 -2.878873e-01 -1.849230e-01 1.048891e-02
<VARIANCE> 39
 1.960449e+00 3.387537e+00 4.945508e+00 4.224077e+00 5.692256e+00 4.789541e+00 5.659004e+00 6.159576e+00 5.982799e+00 4.586517e+00 5.029478e+00 6.431935e+00 2.220494e+00 8.296076e-02 1.799841e-01 2.857493e-01 3.656181e-01 5.056056e-01 5.879466e-01 6.992242e-01 7.504336e-01 7.620277e-01 7.391231e-01 7.265687e-01 7.071728e-01 3.211679e-02 1.405531e-02 3.050245e-02 4.754344e-02 6.218277e-02 7.784295e-02 8.801724e-02 1.017331e-01 1.093416e-01 1.060981e-01 9.682772e-02 1.084201e-01 1.248623e-01 4.814572e-03
<GCONST> 4.077639e+01
<MIXTURE> 3 4.388290e-02
<MEAN> 39
 9.985312e-01 5.547181e-01 1.832357e-01 -1.920472e+00 -1.212940e+00 -1.343712e+00 -3.152746e+00 -2.202794e+00 -7.388173e-01 -7.517927e-01 2.146756e-01 1.713540e+00 1.013618e+00 1.227332e+00 -5.518176e-02 7.982754e-02 -4.933150e-01 -1.801786e-01 -2.699240e-01 -1.192435e+00 -8.901466e-01 -7.737043e-01 -3.985603e-01 -8.788905e-02 -3.397111e-03 1.037805e+00 -3.031069e-01 -4.855024e-02 -3.391441e-02 2.627171e-01 2.487320e-01 2.904505e-01 5.180872e-01 4.328627e-01 1.896497e-01 1.360301e-01 7.418471e-02 -8.629701e-02 -2.486538e-01
<VARIANCE> 39
 2.309028e+01 3.421468e+01 3.132256e+01 4.028634e+01 3.506161e+01 3.127605e+01 4.480210e+01 4.761866e+01 3.185006e+01 2.840441e+01 2.275164e+01 2.449258e+01 1.754362e+01 2.715048e+00 2.263380e+00 2.570613e+00 3.480868e+00 2.721815e+00 2.816002e+00 4.902408e+00 4.360700e+00 2.729483e+00 2.300059e+00 2.127654e+00 2.193582e+00 1.809114e+00 3.513190e-01 4.369968e-01 3.650565e-01 4.974596e-01 4.434588e-01 4.885919e-01 6.351557e-01 5.916567e-01 4.195596e-01 4.323884e-01 3.896695e-01 3.852262e-01 2.295788e-01
<GCONST> 1.180640e+02
<MIXTURE> 4 6.749835e-02
<MEAN> 39
 -7.319476e+00 2.657667e-01 -7.691817e-01 2.695688e+00 2.548244e+00 3.324330e+00 6.876185e+00 6.270651e+00 4.525948e+00 2.271385e+00 1.264318e+00 7.771702e-01 -5.988131e+00 9.090583e-01 1.763884e-01 3.220478e-01 -4.081528e-01 -5.127432e-01 -5.775084e-01 -1.201184e+00 -1.019252e+00 -6.566675e-01 -4.535251e-01 -3.761394e-01 -1.007748e-01 7.348468e-01 5.267829e-01 6.256694e-02 9.421535e-02 -2.524347e-01 -2.506160e-01 -3.018991e-01 -5.548614e-01 -4.214081e-01 -2.862878e-01 -1.854923e-01 -1.066654e-01 -1.833335e-04 4.220910e-01
<VARIANCE> 39
 2.319510e+00 4.013796e+00 4.355988e+00 5.207557e+00 7.423396e+00 7.190917e+00 9.717057e+00 9.098536e+00 8.941576e+00 7.977256e+00 8.371260e+00 6.810162e+00 2.153236e+00 1.293168e+00 1.609984e+00 1.638453e+00 2.544414e+00 2.230227e+00 2.086911e+00 2.885348e+00 2.465933e+00 1.771548e+00 1.654805e+00 1.427988e+00 1.153929e+00 7.592983e-01 1.855880e-01 2.218698e-01 2.336632e-01 3.688175e-01 3.109889e-01 3.284851e-01 4.158167e-01 3.389478e-01 2.717630e-01 2.693102e-01 2.609171e-01 2.046313e-01 1.187992e-01
<GCONST> 8.397048e+01
<MIXTURE> 5 1.592529e-01
<MEAN> 39
 -7.408312e+00 6.486502e-01 -9.545334e-02 3.480667e+00 3.734337e+00 3.698985e+00 6.505293e+00 4.955613e+00 2.409661e+00 7.048526e-02 -3.384092e-01 -2.016671e-01 -6.058701e+00 -1.008819e-01 -7.611270e-02 -2.213232e-02 6.622591e-02 1.587976e-01 2.566362e-01 3.295950e-01 3.335259e-01 3.263001e-01 3.025198e-01 2.145674e-01 8.904182e-02 -5.221358e-02 9.818398e-03 -4.611412e-02 -9.061667e-02 -1.337108e-01 -1.435641e-01 -9.257065e-02 -2.425573e-02 8.754593e-02 1.981743e-01 2.658284e-01 2.324178e-01 1.636405e-01 1.712568e-02
<VARIANCE> 39
 2.615066e+00 3.515499e+00 3.870943e+00 3.692061e+00 4.967572e+00 4.426267e+00 5.474153e+00 5.751990e+00 5.996940e+00 5.314148e+00 5.992248e+00 6.368791e+00 2.027153e+00 7.869780e-02 1.458713e-01 2.433176e-01 3.474608e-01 4.612839e-01 5.416656e-01 6.276642e-01 6.753600e-01 7.188711e-01 7.346849e-01 7.049088e-01 6.286802e-01 2.725359e-02 1.559547e-02 3.035607e-02 4.637136e-02 5.952260e-02 7.399247e-02 8.563276e-02 1.020188e-01 1.112970e-01 1.151584e-01 1.104009e-01 1.221489e-01 1.302637e-01 5.327871e-03
<GCONST> 3.983978e+01
<MIXTURE> 6 1.032716e-01
<MEAN> 39
 -7.414108e+00 6.197195e-01 -6.468149e-01 3.352262e+00 3.470807e+00 4.949052e+00 9.513885e+00 8.982340e+00 7.031855e+00 4.178227e+00 2.398576e+00 9.195707e-01 -6.371856e+00 -7.080702e-02 -3.912977e-02 9.937439e-03 9.342635e-02 1.538118e-01 2.168243e-01 2.851857e-01 2.912400e-01 1.943886e-01 1.143821e-01 6.115060e-02 3.164843e-02 -3.820647e-02 7.708779e-02 7.252020e-03 -1.482370e-02 -8.316890e-02 -1.535694e-01 -2.608956e-01 -4.131570e-01 -4.601351e-01 -3.887782e-01 -2.640108e-01 -1.035202e-01 1.227940e-02 5.724164e-02
<VARIANCE> 39
 2.487241e+00 3.919969e+00 5.468643e+00 5.249841e+00 8.428331e+00 6.453024e+00 5.878598e+00 6.160332e+00 6.618379e+00 5.865178e+00 6.571726e+00 6.472606e+00 1.856652e+00 9.500183e-02 1.995768e-01 3.066728e-01 3.837281e-01 4.976417e-01 5.823465e-01 7.154950e-01 7.766002e-01 7.534688e-01 7.176163e-01 6.789351e-01 6.679326e-01 3.680362e-02 2.813314e-02 5.244656e-02 7.263034e-02 8.976012e-02 1.125093e-01 1.172729e-01 1.221649e-01 1.297662e-01 1.270550e-01 1.286192e-01 1.456022e-01 1.425497e-01 1.182884e-02
<GCONST> 4.783573e+01
<MIXTURE> 7 1.533042e-01
<MEAN> 39
 -7.163843e+00 -1.016410e-01 -1.497950e+00 1.684752e+00 1.634365e+00 1.557285e+00 4.743062e+00 4.002746e+00 2.404980e+00 9.589051e-01 1.051366e+00 1.190864e+00 -5.648742e+00 2.488541e-04 3.778659e-02 5.398095e-02 4.773242e-02 8.009002e-03 -4.213266e-02 -9.492979e-02 -1.406911e-01 -1.622070e-01 -1.854280e-01 -1.709251e-01 -9.722786e-02 -7.375531e-03 -6.509587e-04 3.389282e-03 3.987122e-02 8.636566e-02 1.445026e-01 2.099517e-01 2.314804e-01 2.235794e-01 2.056617e-01 1.669805e-01 1.020116e-01 3.130852e-02 2.627545e-03
<VARIANCE> 39
 1.963327e+00 2.744164e+00 3.653877e+00 3.460034e+00 4.289447e+00 4.204713e+00 5.947775e+00 6.488182e+00 6.066980e+00 4.823409e+00 5.697893e+00 6.346319e+00 2.078211e+00 6.547853e-02 1.407132e-01 2.268242e-01 3.012511e-01 3.765420e-01 5.085849e-01 6.062248e-01 6.713158e-01 7.063409e-01 6.614113e-01 6.854048e-01 6.575683e-01 2.200228e-02 1.264330e-02 2.695891e-02 4.060403e-02 5.666977e-02 6.623183e-02 8.160003e-02 9.584572e-02 1.163641e-01 1.144201e-01 9.798653e-02 1.052989e-01 1.158961e-01 4.038019e-03
<GCONST> 3.665880e+01
<MIXTURE> 8 1.417012e-01
<MEAN> 39
 -7.680187e+00 -6.422973e-02 -1.082867e+00 2.847182e+00 3.665581e+00 4.604670e+00 8.422366e+00 7.194305e+00 4.599216e+00 2.234732e+00 1.509055e+00 8.677481e-01 -6.068055e+00 3.545139e-02 1.884980e-02 -2.756106e-02 -8.408016e-02 -1.743316e-01 -2.669965e-01 -3.183402e-01 -3.301174e-01 -3.323110e-01 -2.885059e-01 -1.831420e-01 -7.800402e-02 1.697578e-02 3.610909e-02 2.584714e-02 1.830889e-02 -3.778369e-02 -1.331744e-01 -2.111678e-01 -2.447883e-01 -1.898728e-01 -8.680831e-02 -2.431324e-02 2.819671e-04 1.811904e-02 2.032251e-02
<VARIANCE> 39
 1.682409e+00 2.380179e+00 3.212137e+00 2.884497e+00 3.881645e+00 3.376465e+00 4.101190e+00 4.359210e+00 4.798115e+00 4.188426e+00 5.234179e+00 5.367858e+00 1.860040e+00 7.566960e-02 1.466521e-01 2.243056e-01 3.144063e-01 4.329756e-01 4.987989e-01 5.388367e-01 5.979114e-01 6.391017e-01 6.391201e-01 6.843011e-01 6.771322e-01 2.507436e-02 1.286476e-02 2.505223e-02 3.816574e-02 5.433021e-02 6.813511e-02 7.249987e-02 8.161042e-02 9.541333e-02 1.040625e-01 9.682902e-02 1.077968e-01 1.150370e-01 4.242145e-03
<GCONST> 3.370109e+01
~h "a"
<BEGINHMM>
<NUMSTATES> 5
<STATE> 2
<NUMMIXES> 8
<MIXTURE> 1 9.633727e-02
<MEAN> 39
 2.829804e+00 -1.976990e+00 -6.916966e+00 -1.277757e+01 -8.711040e+00 1.531586e-02 4.685998e+00 6.819345e+00 5.000127e+00 1.650038e+00 -3.162576e+00 -1.316597e+00 2.641270e+00 3.373036e+00 -1.121081e+00 -1.624967e+00 -3.336077e+00 -2.217818e+00 -1.048120e+00 -6.026339e-01 6.667556e-01 -2.397097e-02 3.201846e-02 -8.401757e-01 -3.362022e-01 3.022023e+00 -2.850663e-01 -2.132614e-02 3.220453e-01 1.115845e+00 8.024538e-01 -2.355543e-02 -9.304142e-02 -1.628726e-01 -3.073263e-01 -3.224877e-02 4.583403e-01 2.589359e-01 -2.297309e-01
<VARIANCE> 39
 1.534859e+01 1.232827e+01 1.631616e+01 2.249424e+01 3.671073e+01 3.819907e+01 3.173780e+01 3.430389e+01 2.232504e+01 1.885176e+01 1.412325e+01 1.535326e+01 1.329846e+01 1.720846e+00 1.824399e+00 1.737287e+00 3.345790e+00 3.487082e+00 3.161466e+00 3.714832e+00 3.020075e+00 2.204105e+00 2.542375e+00 2.013980e+00 1.469020e+00 1.543506e+00 3.516995e-01 2.862015e-01 2.530127e-01 5.201588e-01 4.259038e-01 4.577115e-01 4.144373e-01 4.393673e-01 3.561867e-01 3.171259e-01 2.477374e-01 2.485390e-01 3.148528e-01
<GCONST> 1.082511e+02
<MIXTURE> 2 1.243899e-01
<MEAN> 39
 4.502872e+00 2.946215e+00 -4.201854e+00 -7.386617e+00 -4.603593e+00 -5.269464e-01 -1.927649e+00 -3.143718e+00 -7.640366e-01 2.186157e+00 3.730222e+00 3.856939e+00 1.846833e+00 1.360608e-01 1.297627e-01 -5.913779e-01 -4.234790e-01 5.210244e-02 3.042356e-01 3.596765e-01 2.316185e-01 1.407941e-01 2.110213e-01 3.289631e-01 1.187978e-01 -5.869358e-02 -4.823891e-01 -1.139713e-01 3.635680e-01 6.534789e-01 4.542864e-01 1.274592e-01 3.078944e-01 2.574178e-01 -7.462664e-03 -2.238915e-01 -3.609344e-01 -3.293843e-01 -2.848928e-01
<VARIANCE> 39
 1.705852e+01 1.140049e+01 2.123716e+01 2.281130e+01 2.662114e+01 2.560820e+01 2.545220e+01 3.426495e+01 3.557729e+01 2.283331e+01 1.779431e+01 1.585941e+01 8.781856e+00 6.385766e-01 5.860132e-01 1.103325e+00 1.541788e+00 1.526416e+00 1.283201e+00 2.023422e+00 1.296292e+00 1.368564e+00 1.172211e+00 1.194643e+00 1.020500e+00 3.125491e-01 1.785611e-01 2.108613e-01 2.152070e-01 2.940377e-01 2.984481e-01 3.155252e-01 3.028384e-01 3.687629e-01 3.576130e-01 3.393623e-01 2.843234e-01 2.208961e-01 6.857628e-02
<GCONST> 9.348311e+01
<MIXTURE> 3 8.769021e-02
<MEAN> 39
 8.734141e+00 -7.372678e+00 -9.297589e+00 -1.276345e+01 -1.053003e+01 -3.631612e+00 5.220771e+00 8.999086e+00 2.490481e+00 6.350455e-01 -2.777732e+00 -9.015417e-01 8.873599e+00 1.006315e+00 -8.140296e-01 -3.429318e-01 7.436782e-02 2.443970e-01 -1.845280e-01 -2.790713e-01 -1.854502e-01 -6.235327e-01 2.950624e-01 6.517680e-01 2.487193e-01 1.072315e+00 -8.969838e-01 7.390845e-01 6.355010e-01 1.024623e+00 9.280549e-01 4.416958e-01 -1.976809e-01 -5.631367e-01 -8.543285e-02 1.237177e-01 3.673302e-01 4.733973e-02 -9.487504e-01
<VARIANCE> 39
 3.911114e+00 1.977319e+01 1.625818e+01 1.460792e+01 1.958195e+01 2.693717e+01 3.505310e+01 4.898153e+01 3.028885e+01 2.231922e+01 1.674432e+01 1.732611e+01 6.337048e+00 1.201939e+00 2.098975e+00 1.302396e+00 2.262503e+00 1.973828e+00 2.241982e+00 1.847397e+00 2.486198e+00 2.290744e+00 1.353455e+00 1.128919e+00 1.050660e+00 1.295833e+00 1.494805e-01 3.080710e-01 2.789451e-01 5.046942e-01 4.049160e-01 3.621551e-01 6.573864e-01 3.494551e-01 3.046845e-01 3.050906e-01 2.378211e-01 3.215105e-01 1.130319e-01
<GCONST> 1.002683e+02
<MIXTURE> 4 1.492421e-01
<MEAN> 39
 1.015742e+01 -2.780103e+00 -7.262900e+00 -1.168831e+01 -1.022049e+01 -1.762033e+00 -2.930942e-01 -6.514363e+00 -6.406065e+00 5.737742e+00 5.685868e+00 1.131099e+00 8.320351e+00 3.770067e-01 9.055624e-02 -1.141955e+00 -5.667665e-01 3.025765e-01 1.148439e+00 8.400639e-01 -3.776809e-01 -7.731503e-01 2.272587e-01 1.030074e+00 2.698928e-01 1.695042e-02 -9.868267e-01 2.855108e-01 7.569227e-01 9.841591e-01 9.216028e-01 2.444809e-01 1.320206e-03 2.966864e-01 3.477961e-01 -7.125063e-01 -6.566842e-01 -1.641318e-02 -7.444797e-01
<VARIANCE> 39
 5.472523e+00 1.876289e+01 1.552008e+01 1.497610e+01 2.984133e+01 2.255790e+01 2.856380e+01 3.577977e+01 3.223568e+01 2.013016e+01 2.146312e+01 1.754350e+01 7.484665e+00 6.711109e-01 9.635147e-01 1.813931e+00 1.913770e+00 2.314538e+00 2.234760e+00 2.533302e+00 2.088552e+00 2.295085e+00 2.101570e+00 1.879549e+00 1.159276e+00 3.638323e-01 1.178917e-01 2.555886e-01 2.377332e-01 2.500010e-01 3.465679e-01 4.077289e-01 3.582992e-01 5.273059e-01 4.002412e-01 3.280011e-01 3.023046e-01 2.856383e-01 7.949852e-02
<GCONST> 9.811719e+01
<MIXTURE> 5 9.334694e-02
<MEAN> 39
 1.108815e+01 -4.152672e-02 -7.723088e+00 -1.006731e+01 -1.304347e+01 -9.450184e+00 -1.637661e+00 6.984738e-01 4.684628e+00 7.019783e+00 -4.250022e-01 -3.477570e+00 7.696827e+00 1.149670e+00 -9.171301e-01 -1.835829e+00 -1.357689e+00 -1.256946e+00 -1.426024e-01 8.621352e-01 4.961571e-01 5.277021e-01 1.143057e+00 8.225094e-02 -5.258613e-01 8.936163e-01 -9.404241e-01 7.161854e-02 6.012509e-01 7.721487e-01 1.109140e+00 1.012630e+00 4.577969e-01 1.876170e-02 -4.286893e-01 -6.704698e-01 -6.625964e-02 2.506176e-01 -6.417806e-01
<VARIANCE> 39
 8.769399e+00 2.993813e+01 1.314722e+01 9.939479e+00 1.577440e+01 1.866388e+01 2.377358e+01 2.571896e+01 2.780661e+01 2.262754e+01 1.324997e+01 1.678195e+01 1.181710e+01 9.356604e-01 1.281632e+00 1.493207e+00 1.631770e+00 2.348450e+00 2.277342e+00 2.541201e+00 2.664828e+00 1.873641e+00 2.487799e+00 1.012215e+00 1.516856e+00 4.790971e-01 1.690434e-01 2.399928e-01 2.143701e-01 2.329665e-01 3.397821e-01 2.715131e-01 4.520954e-01 4.449959e-01 3.123512e-01 3.360476e-01 2.270885e-01 2.739685e-01 9.918919e-02
<GCONST> 9.690294e+01
<MIXTURE> 6 1.831696e-01
<MEAN> 39
 9.933829e+00 2.020313e+00 -9.253502e+00 -1.150446e+01 -9.095045e+00 -3.777765e+00 -1.899863e-02 -8.313903e-01 1.640402e-01 4.281739e+00 1.902888e+00 -1.464920e-01 5.647039e+00 2.021901e-02 -1.886325e-02 -3.151452e-01 -3.470804e-01 -2.206242e-01 2.014780e-01 5.222629e-01 1.707310e-01 7.226840e-02 1.169311e-01 6.407949e-02 -6.256352e-02 -2.302959e-02 -2.233260e-01 2.079427e-01 5.032511e-01 5.690904e-01 3.947000e-01 5.065081e-02 -2.390370e-01 -2.533045e-01 -2.029183e-01 -3.504686e-01 -1.623767e-01 -2.480508e-02 -1.820054e-01
<VARIANCE> 39
 6.179358e+00 8.858590e+00 1.414559e+01 7.952265e+00 2.359402e+01 2.391127e+01 3.458734e+01 2.418588e+01 2.372701e+01 1.564900e+01 1.601921e+01 1.284041e+01 4.159507e+00 1.267848e-01 5.156823e-01 7.953585e-01 6.319602e-01 1.226224e+00 9.677591e-01 1.164479e+00 1.094455e+00 9.845424e-01 1.088912e+00 9.789076e-01 9.002751e-01 1.224173e-01 4.008156e-02 8.092524e-02 1.423742e-01 1.288366e-01 1.742042e-01 1.865762e-01 1.916373e-01 1.923840e-01 1.440847e-01 1.864182e-01 1.884330e-01 1.648487e-01 2.412911e-02
<GCONST> 7.370763e+01
<MIXTURE> 7 1.486941e-01
<MEAN> 39
 1.203659e+01 -4.508512e+00 -1.028371e+01 -1.084066e+01 -1.113533e+01 -3.888441e+00 6.535539e-01 -3.712463e+00 -6.910411e-01 6.907882e+00 1.247222e+00 -2.700392e+00 1.000647e+01 -8.424078e-02 6.322032e-02 -3.164705e-01 -3.971085e-01 -4.089129e-01 5.802962e-01 9.523077e-01 1.416079e-01 9.919786e-02 1.631279e-01 -3.882982e-01 -4.821172e-01 -1.466072e-01 -3.683547e-01 5.605313e-01 6.491767e-01 4.921493e-01 6.618004e-01 1.701600e-01 -3.095821e-01 -9.683765e-02 -2.427663e-01 -6.860394e-01 -2.690275e-01 1.585452e-01 -3.952669e-01
<VARIANCE> 39
 5.335266e+00 1.381120e+01 1.764491e+01 1.199548e+01 1.841272e+01 1.669181e+01 2.211862e+01 3.172178e+01 2.829053e+01 2.448773e+01 1.880098e+01 1.889626e+01 5.398648e+00 1.508847e-01 1.061365e+00 1.083198e+00 9.588000e-01 1.253213e+00 1.304857e+00 1.589732e+00 2.006394e+00 1.336539e+00 1.543899e+00 1.266216e+00 9.209401e-01 2.189008e-01 8.091048e-02 1.165615e-01 2.129890e-01 1.665482e-01 2.149370e-01 2.566071e-01 2.760668e-01 3.516557e-01 3.245056e-01 3.439032e-01 2.267611e-01 2.294702e-01 4.410474e-02
<GCONST> 8.542746e+01
<MIXTURE> 8 1.171285e-01
<MEAN> 39
 1.079282e+01 -7.081836e+00 -9.941319e+00 -1.146594e+01 -1.076261e+01 -5.059251e+00 3.595153e+00 4.103169e+00 2.640650e-01 3.989524e+00 -2.671253e-01 -2.147325e+00 1.020421e+01 2.164191e-01 3.024298e-01 -2.776956e-02 4.248327e-01 7.548022e-01 1.430343e-01 -1.078023e+00 -1.308020e+00 -9.345236e-01 -3.920924e-01 5.798851e-01 4.182664e-01 -2.024931e-02 -1.529759e-01 4.263572e-01 3.005106e-01 2.702884e-01 3.560322e-01 8.426777e-02 -4.132090e-01 -4.547948e-01 -1.670322e-01 -2.133184e-01 1.494214e-02 1.034590e-01 -2.434758e-01
<VARIANCE> 39
 6.657472e+00 1.793909e+01 1.589956e+01 1.549375e+01 2.158661e+01 2.365949e+01 2.515355e+01 5.217878e+01 2.434007e+01 1.646537e+01 2.298588e+01 1.832667e+01 5.975817e+00 1.639052e-01 8.736975e-01 7.999142e-01 1.172767e+00 1.151005e+00 1.604929e+00 2.043456e+00 2.145110e+00 1.608011e+00 1.430578e+00 1.505880e+00 1.444531e+00 1.767047e-01 4.655787e-02 1.879717e-01 1.539309e-01 2.008708e-01 2.701470e-01 2.351647e-01 2.972071e-01 2.844780e-01 2.630657e-01 2.061917e-01 2.507574e-01 2.357636e-01 5.138054e-02
<GCONST> 8.701509e+01
<STATE> 3
<NUMMIXES> 8
<MIXTURE> 1 1.143565e-01
<MEAN> 39
 4.104188e+00 4.379414e+00 -4.111249e+00 -6.693466e+00 -4.560390e+00 -1.038616e+00 -3.522578e-01 -2.105698e+00 -1.122532e+00 1.466533e+00 3.852162e+00 3.860499e+00 8.974633e-01 -8.844997e-01 4.777949e-02 5.558579e-01 1.240346e+00 1.092473e+00 5.551565e-01 6.293762e-01 5.341929e-01 4.271189e-02 -5.870852e-01 -5.442835e-01 -3.479286e-01 -6.609326e-01 -3.518433e-01 -1.535341e-01 3.304953e-01 3.625343e-01 1.802680e-01 9.583820e-02 1.896971e-01 2.006009e-01 8.824658e-02 -6.266746e-03 -2.355049e-01 -1.900856e-01 -1.578772e-01
<VARIANCE> 39
 1.397226e+01 6.450779e+00 1.315210e+01 1.928428e+01 2.250395e+01 2.239889e+01 1.903832e+01 2.413818e+01 2.922716e+01 1.603740e+01 1.523308e+01 1.363738e+01 6.032734e+00 4.520667e-01 5.793821e-01 9.823558e-01 1.140749e+00 1.363640e+00 1.116000e+00 1.401938e+00 1.458875e+00 1.669896e+00 1.771137e+00 1.143995e+00 1.102771e+00 2.302546e-01 7.888913e-02 9.828006e-02 1.849696e-01 1.900737e-01 2.372136e-01 2.510207e-01 2.340460e-01 2.099905e-01 3.130009e-01 2.756166e-01 1.891919e-01 1.486988e-01 3.410040e-02
<GCONST> 8.366753e+01
<MIXTURE> 2 1.466239e-01
<MEAN> 39
 8.843060e+00 2.949813e+00 -8.236930e+00 -1.117225e+01 -8.599027e+00 -9.139060e-01 3.034732e+00 1.423531e+00 2.094263e+00 2.794144e+00 -7.257320e-01 -1.516236e+00 4.640929e+00 -8.078380e-01 7.764407e-01 9.475809e-01 5.695245e-01 5.475354e-01 4.629902e-01 2.009708e-01 2.917632e-01 1.181922e-01 -2.104350e-01 1.340194e-01 -3.849252e-02 -7.684875e-01 -1.270533e-01 -7.762209e-02 1.012879e-01 2.489072e-01 1.638260e-01 -5.117643e-02 -1.759074e-02 1.075276e-01 -1.341736e-02 -8.466261e-02 -7.097799e-03 3.283815e-02 -5.939207e-02
<VARIANCE> 39
 3.711757e+00 1.245298e+01 1.193611e+01 9.521297e+00 1.227822e+01 2.404177e+01 2.907765e+01 4.045858e+01 2.342005e+01 1.850651e+01 1.907209e+01 1.390683e+01 3.077703e+00 1.463037e-01 3.799024e-01 5.654280e-01 9.334932e-01 9.799467e-01 1.088498e+00 8.957587e-01 9.971567e-01 8.544552e-01 1.096059e+00 9.045145e-01 9.876859e-01 1.154657e-01 2.668642e-02 5.651712e-02 1.105653e-01 1.229843e-01 1.411994e-01 1.977873e-01 1.710188e-01 1.367382e-01 1.518885e-01 1.737615e-01 1.663376e-01 1.677428e-01 2.135931e-02
<GCONST> 7.067528e+01
<MIXTURE> 3 1.612618e-01
<MEAN> 39
 1.090819e+01 4.384504e-01 -8.700577e+00 -1.095303e+01 -1.011141e+01 -4.441366e+00 -1.213991e+00 -2.724907e+00 3.886648e-01 4.083449e+00 -1.183556e+00 -3.247663e+00 7.287143e+00 -7.583625e-01 1.471272e+00 1.139495e+00 1.068555e+00 1.276282e+00 8.031408e-01 2.747042e-01 3.541392e-02 -2.925393e-01 -8.994739e-01 -3.195648e-01 -8.989320e-02 -1.043331e+00 -4.481577e-01 5.289745e-02 3.760516e-01 4.042124e-01 4.085448e-01 2.918633e-01 3.530166e-01 3.996051e-01 6.039216e-02 -2.050999e-01 5.166375e-02 1.693405e-01 -3.001024e-01
<VARIANCE> 39
 5.793840e+00 1.587523e+01 1.302298e+01 1.354429e+01 2.291169e+01 2.741190e+01 2.313042e+01 3.544630e+01 2.816813e+01 2.957523e+01 1.689673e+01 1.583970e+01 5.071196e+00 2.694533e-01 5.919344e-01 7.710084e-01 1.134073e+00 1.433057e+00 1.514832e+00 1.735394e+00 1.654631e+00 1.669304e+00 1.763747e+00 1.487045e+00 1.559812e+00 2.188092e-01 4.976311e-02 1.310796e-01 2.045633e-01 2.163686e-01 2.795473e-01 2.974678e-01 2.838803e-01 2.924659e-01 2.794816e-01 3.836682e-01 2.555991e-01 2.808988e-01 4.230926e-02
<GCONST> 8.756802e+01
<MIXTURE> 4 8.937491e-02
<MEAN> 39
 1.181406e+01 -1.528380e+00 -1.147313e+01 -1.268007e+01 -9.956257e+00 -1.444787e+00 2.774164e+00 -1.771927e+00 -9.679677e-01 5.214542e+00 -1.259452e+00 -4.782501e+00 8.497995e+00 -1.242431e-01 5.499106e-01 1.748140e-01 -2.839092e-02 2.169033e-01 2.908732e-01 1.013522e-01 9.199876e-02 1.196503e-01 -2.554426e-01 -1.517143e-01 9.556316e-02 -2.808351e-01 -4.839106e-02 5.580395e-02 1.194835e-01 1.160357e-01 8.778841e-02 -8.087995e-02 -1.647292e-01 -2.210653e-02 7.211595e-02 -5.460633e-02 8.687112e-02 2.218607e-01 -4.340335e-02
<VARIANCE> 39
 4.724655e+00 9.804891e+00 1.040321e+01 1.418857e+01 2.214164e+01 9.867785e+00 2.014991e+01 7.140356e+01 1.759152e+01 3.479398e+01 2.183606e+01 1.214786e+01 3.854560e+00 8.760845e-02 3.019156e-01 3.040557e-01 3.896479e-01 4.493180e-01 6.016008e-01 8.779594e-01 9.253682e-01 8.964041e-01 1.012871e+00 1.112545e+00 8.886901e-01 7.076473e-02 1.310319e-02 6.182070e-02 6.426226e-02 6.721520e-02 1.156447e-01 9.978752e-02 1.470807e-01 1.427230e-01 1.660395e-01 2.212000e-01 1.780785e-01 9.889450e-02 1.054375e-02
<GCONST> 6.369048e+01
<MIXTURE> 5 1.064881e-01
<MEAN> 39
 8.746430e+00 -2.302643e+00 -4.563506e+00 -1.025175e+01 -8.610640e+00 4.055081e+00 2.405777e+00 -9.560740e+00 -8.358213e+00 5.347835e+00 6.546649e+00 1.574719e+00 7.443959e+00 -1.248945e+00 1.326485e+00 3.618698e-01 9.156138e-01 1.724185e+00 1.034248e+00 5.478216e-01 3.219683e-01 -1.066444e-01 -1.120085e+00 -1.788810e-01 1.919805e-01 -1.457331e+00 -4.293724e-01 1.447430e-01 2.431718e-03 2.902965e-01 1.918725e-01 -8.129749e-01 -2.499659e-01 8.444102e-01 6.945606e-01 -3.124524e-01 -3.890418e-01 5.981764e-02 -3.827562e-01
<VARIANCE> 39
 8.330101e+00 1.486994e+01 1.396118e+01 1.765623e+01 3.897205e+01 2.382213e+01 4.047573e+01 2.758747e+01 4.308679e+01 2.251054e+01 3.076888e+01 1.776493e+01 7.579618e+00 4.787703e-01 8.747900e-01 1.062850e+00 1.309210e+00 1.748969e+00 2.303664e+00 1.869527e+00 2.359842e+00 2.261982e+00 1.609992e+00 1.264380e+00 1.172963e+00 3.428691e-01 1.141480e-01 1.537279e-01 3.147278e-01 2.729559e-01 3.617172e-01 4.357627e-01 6.122645e-01 3.315509e-01 5.020574e-01 3.953655e-01 4.019815e-01 2.419211e-01 6.569672e-02
<GCONST> 9.740613e+01
<MIXTURE> 6 1.484527e-01
<MEAN> 39
 1.040182e+01 -2.993999e+00 -8.372869e+00 -9.162505e+00 -5.698352e+00 -4.034290e+00 -3.997125e+00 -4.883840e+00 -5.745243e+00 1.442249e+00 3.843098e+00 2.660751e+00 8.377629e+00 -1.694872e-01 7.129084e-01 4.095130e-01 1.275696e+00 1.623341e+00 5.215498e-01 -1.018128e+00 -1.428299e+00 -1.016803e+00 -1.043380e+00 -1.461192e-01 1.025079e-01 -4.422812e-01 -3.312620e-01 2.838300e-01 4.405037e-01 3.964804e-01 8.378634e-02 2.474735e-01 4.069360e-01 2.801057e-01 3.264289e-01 -1.301073e-01 -4.450145e-01 -3.256394e-01 -3.260548e-01
<VARIANCE> 39
 7.389736e+00 2.159653e+01 1.982918e+01 1.875953e+01 2.752453e+01 2.257092e+01 2.278086e+01 5.030927e+01 3.484828e+01 2.332477e+01 2.367264e+01 1.790568e+01 8.771444e+00 1.606210e-01 6.589156e-01 8.464035e-01 1.337170e+00 1.483810e+00 1.675424e+00 1.804165e+00 1.668675e+00 1.479960e+00 2.195425e+00 1.889626e+00 1.425994e+00 1.984763e-01 7.124250e-02 1.570134e-01 2.086798e-01 2.430613e-01 2.270284e-01 2.558939e-01 3.955601e-01 3.394647e-01 3.590993e-01 3.533492e-01 2.728348e-01 2.073820e-01 5.469883e-02
<GCONST> 9.133884e+01
<MIXTURE> 7 1.089139e-01
<MEAN> 39
 6.307384e+00 9.831433e-01 -6.722378e+00 -1.275907e+01 -8.731322e+00 1.222517e+00 3.497199e+00 4.224998e+00 5.160920e+00 3.786673e+00 -7.961853e-01 -1.728447e-01 3.815756e+00 -9.209763e-02 2.381255e-01 2.012469e-02 3.678029e-01 2.913638e-01 -1.577159e-01 -4.275984e-01 -3.299026e-01 -2.098889e-01 -2.574621e-01 2.290515e-01 2.293189e-01 -2.019881e-01 -6.432418e-02 4.158975e-02 6.960770e-02 2.732777e-01 1.485079e-01 -1.909212e-01 -1.663560e-01 -1.401808e-01 -1.758199e-01 -1.250439e-01 -1.699887e-03 -6.485905e-03 -7.221185e-02
<VARIANCE> 39
 7.113159e+00 1.133687e+01 1.388853e+01 1.588007e+01 4.065616e+01 4.683037e+01 2.403226e+01 5.532342e+01 2.813662e+01 2.021635e+01 1.228025e+01 1.051477e+01 4.788114e+00 3.012529e-01 4.206921e-01 6.793035e-01 7.372038e-01 1.022555e+00 1.707504e+00 1.286938e+00 1.371659e+00 1.023900e+00 8.795815e-01 8.869234e-01 5.778174e-01 1.448484e-01 4.894533e-02 7.980977e-02 1.321075e-01 1.618152e-01 2.207551e-01 2.768941e-01 2.523668e-01 3.044207e-01 2.098929e-01 1.720032e-01 1.155608e-01 9.707666e-02 3.152820e-02
<GCONST> 7.862114e+01
<MIXTURE> 8 1.245275e-01
<MEAN> 39
 1.150299e+01 -5.612010e+00 -1.175945e+01 -9.441694e+00 -1.048192e+01 -5.949333e+00 5.257738e+00 9.009285e+00 4.062647e+00 -3.430452e-01 -4.710489e+00 -1.958015e+00 9.160518e+00 -3.744882e-02 4.645984e-01 2.562364e-02 -4.968061e-02 6.317524e-02 6.710275e-02 -1.046127e-01 -2.910034e-01 -1.180488e-01 1.416361e-02 -1.654249e-02 -5.401517e-02 -2.338082e-01 -7.513985e-02 1.707749e-01 1.033233e-01 -4.390223e-02 8.367857e-02 1.358041e-01 -7.600423e-02 -1.337114e-01 -5.165303e-02 2.275710e-02 3.560653e-02 -5.365513e-02 -9.960619e-02
<VARIANCE> 39
 3.600493e+00 3.578500e+01 7.737541e+00 5.720309e+00 1.142221e+01 1.123342e+01 3.058143e+01 4.636180e+01 2.395955e+01 1.970637e+01 1.412343e+01 1.023161e+01 4.984808e+00 7.924031e-02 4.784166e-01 3.384142e-01 3.962045e-01 5.466328e-01 6.373435e-01 5.639352e-01 6.683190e-01 5.258239e-01 7.203138e-01 5.462245e-01 4.197833e-01 9.366963e-02 1.493850e-02 7.561581e-02 6.735656e-02 7.027388e-02 1.101020e-01 1.297397e-01 1.191445e-01 1.348986e-01 1.141506e-01 1.203643e-01 7.530738e-02 6.880378e-02 1.537125e-02
<GCONST> 5.880695e+01
<STATE> 4
<NUMMIXES> 8
<MIXTURE> 1 1.405639e-01
<MEAN> 39
 5.603963e+00 6.234844e+00 -3.481675e+00 -5.227423e+00 -4.711528e+00 -1.117152e+00 2.397681e+00 2.057072e-01 -7.030313e-01 -7.168844e-01 -1.480627e+00 -1.168718e+00 1.304538e+00 -1.211259e+00 3.579217e-01 1.229594e+00 1.453227e+00 1.074208e+00 7.698951e-01 1.108598e+00 1.027293e+00 3.946771e-01 -2.668695e-01 -4.232952e-01 -3.334734e-01 -9.039772e-01 2.061888e-02 -3.112154e-01 -1.362691e-01 -1.721213e-01 -1.624768e-01 -1.261016e-01 -1.294361e-01 -1.956493e-02 1.005348e-01 2.629975e-01 2.345581e-01 1.767312e-01 1.362800e-01
<VARIANCE> 39
 8.714387e+00 6.429963e+00 9.829219e+00 1.100084e+01 1.380804e+01 1.488794e+01 1.666440e+01 2.250191e+01 2.289373e+01 1.702949e+01 1.212299e+01 1.644321e+01 4.910022e+00 1.935377e-01 5.258328e-01 6.570163e-01 1.054898e+00 1.154754e+00 1.093848e+00 1.362334e+00 1.326727e+00 1.438822e+00 1.436430e+00 1.089510e+00 1.106888e+00 1.414416e-01 3.014682e-02 6.499425e-02 7.733295e-02 1.238682e-01 1.589950e-01 1.832569e-01 2.154470e-01 2.161195e-01 2.003335e-01 2.311623e-01 1.528210e-01 1.547750e-01 1.911978e-02
<GCONST> 7.336278e+01
<MIXTURE> 2 1.393508e-01
<MEAN> 39
 9.027122e+00 1.596643e+00 -6.201888e+00 -6.416184e+00 -3.091995e+00 -2.873312e-01 -2.328919e+00 -7.409311e+00 -7.076942e+00 -8.926033e-01 5.008389e-01 -5.924764e-01 5.602918e+00 -1.241135e+00 1.082120e+00 1.197550e+00 1.560529e+00 1.362902e+00 1.027597e+00 1.034009e+00 9.751288e-01 6.676111e-01 -7.425611e-01 -4.466812e-01 3.736782e-02 -1.275866e+00 -2.613261e-01 -2.685839e-01 1.732547e-01 -6.598446e-02 -4.052271e-01 -2.081843e-01 3.341641e-01 5.594147e-01 5.590296e-01 3.877284e-01 1.402934e-01 2.137460e-01 -3.642440e-02
<VARIANCE> 39
 8.365010e+00 1.296415e+01 1.747778e+01 1.273759e+01 2.458634e+01 1.634199e+01 2.000288e+01 3.238055e+01 3.426921e+01 2.118091e+01 2.682499e+01 1.946056e+01 7.560982e+00 3.211150e-01 8.204646e-01 1.094817e+00 1.209221e+00 1.927924e+00 1.564584e+00 1.772107e+00 1.748957e+00 2.279343e+00 2.155865e+00 1.845331e+00 1.770993e+00 2.644871e-01 5.470543e-02 1.496842e-01 2.059029e-01 1.834992e-01 2.879767e-01 2.874798e-01 3.020159e-01 2.801181e-01 3.333906e-01 3.101864e-01 2.921273e-01 2.195965e-01 4.019134e-02
<GCONST> 9.046278e+01
<MIXTURE> 3 1.254204e-01
<MEAN> 39
 -3.360859e+00 1.673223e+00 -4.502733e+00 -4.422870e+00 -4.047244e+00 -5.441496e-02 6.932179e+00 7.806922e+00 5.683606e+00 1.975318e+00 3.128756e-01 -8.283379e-03 -3.888941e+00 -5.137267e-01 -1.851542e-01 3.480126e-01 6.500391e-01 5.523067e-01 2.235572e-01 5.947208e-02 -5.183119e-02 2.579881e-02 8.671068e-02 1.178855e-01 1.009645e-01 -2.835773e-01 6.925685e-02 1.775712e-02 5.230058e-03 2.475727e-02 6.804050e-02 5.640750e-02 -3.615399e-02 -4.867137e-02 -1.790417e-02 -1.166209e-02 2.497353e-02 3.523276e-02 4.404183e-02
<VARIANCE> 39
 3.860863e+00 6.765103e+00 7.192904e+00 7.284259e+00 7.639964e+00 7.673745e+00 1.177514e+01 1.071579e+01 9.914579e+00 8.362907e+00 8.931202e+00 9.381148e+00 2.509071e+00 8.037014e-02 1.291130e-01 2.586055e-01 3.722982e-01 5.006889e-01 5.317789e-01 5.404509e-01 6.162635e-01 8.201919e-01 7.624473e-01 6.532996e-01 7.170542e-01 3.253070e-02 1.484051e-02 2.456283e-02 4.244807e-02 6.964333e-02 9.372497e-02 1.183400e-01 1.254173e-01 1.241361e-01 1.598316e-01 1.388270e-01 1.333379e-01 1.436497e-01 6.283426e-03
<GCONST> 4.835075e+01
<MIXTURE> 4 1.580729e-01
<MEAN> 39
 4.449401e+00 1.735053e+00 -5.546771e+00 -7.326612e+00 -3.421182e+00 2.638888e+00 3.644107e+00 -1.813393e+00 -2.021001e+00 2.665337e+00 4.016483e+00 1.511916e+00 2.166227e+00 -1.614483e+00 6.080176e-01 3.235588e-02 5.022495e-01 5.812942e-01 -4.822533e-01 4.866621e-01 1.516996e+00 8.458545e-01 -4.722321e-01 1.835896e-01 7.372922e-01 -1.500565e+00 7.486884e-02 -3.591706e-01 -3.762733e-02 -1.778406e-01 -4.903367e-01 -5.053207e-01 -3.228942e-01 -1.156563e-01 -1.253495e-02 1.090588e-01 -1.204609e-01 -6.798948e-02 2.125060e-01
<VARIANCE> 39
 7.812505e+00 1.063553e+01 1.456339e+01 1.828428e+01 2.536822e+01 1.621356e+01 2.101364e+01 3.422989e+01 3.464976e+01 1.856758e+01 2.115329e+01 1.762074e+01 5.022376e+00 3.411597e-01 6.466225e-01 1.159785e+00 1.107753e+00 1.680074e+00 1.930866e+00 1.848840e+00 1.470677e+00 1.991044e+00 1.779093e+00 1.346262e+00 1.252165e+00 2.115419e-01 5.307352e-02 1.163748e-01 2.198110e-01 1.808447e-01 2.514247e-01 2.799026e-01 2.813528e-01 2.815775e-01 3.698796e-01 3.434820e-01 2.675178e-01 2.257112e-01 4.898587e-02
<GCONST> 8.804267e+01
<MIXTURE> 5 1.064267e-01
<MEAN> 39
 1.270867e+00 3.232852e+00 -7.129962e+00 -9.726335e+00 -8.582356e+00 -3.662153e+00 3.084970e+00 4.543751e+00 3.770437e+00 2.022816e+00 1.516131e+00 1.131759e+00 -1.034285e+00 -7.670143e-01 -8.408470e-02 4.084771e-01 5.574101e-01 3.248254e-01 -6.548469e-02 7.526854e-02 2.494474e-01 1.674517e-01 1.015664e-01 2.466702e-01 5.482241e-02 -5.029383e-01 5.908973e-02 -4.087384e-02 1.483217e-01 2.703942e-01 2.806821e-01 2.878488e-01 1.447117e-01 -2.050954e-02 -3.192167e-02 -3.432483e-02 -1.438218e-01 -1.301394e-01 8.104277e-02
<VARIANCE> 39
 5.591119e+00 7.637940e+00 9.997375e+00 8.334966e+00 9.207856e+00 1.283806e+01 1.669817e+01 1.874285e+01 1.643755e+01 1.237075e+01 1.410022e+01 1.438976e+01 3.043378e+00 9.868578e-02 1.819186e-01 3.508091e-01 5.092412e-01 6.835729e-01 7.260407e-01 9.414091e-01 9.549289e-01 9.205867e-01 8.751337e-01 8.395103e-01 7.904830e-01 4.282354e-02 1.698198e-02 3.524086e-02 6.371199e-02 7.217447e-02 9.638597e-02 1.277544e-01 1.564914e-01 1.607691e-01 1.769976e-01 2.062437e-01 1.827552e-01 1.748104e-01 1.282049e-02
<GCONST> 5.979372e+01
<MIXTURE> 6 9.247772e-02
<MEAN> 39
 7.253594e+00 -4.221708e-01 -6.210386e+00 -6.669827e+00 -3.051179e+00 -2.678876e+00 -3.411703e+00 -6.003767e-01 4.587956e-01 2.419918e+00 1.077666e+00 -2.918459e-01 5.123195e+00 -5.211099e-01 1.555080e-01 9.058493e-01 1.371801e+00 9.962928e-01 2.378085e-01 -1.587970e-01 -5.282717e-01 -6.452649e-01 -6.802644e-01 -3.389871e-01 1.180482e-02 -3.717986e-01 -1.652288e-01 -1.465198e-01 2.519564e-01 8.150124e-03 -2.171987e-01 1.335354e-01 3.428918e-01 7.392851e-02 -1.321103e-02 -1.095518e-01 -1.186802e-01 3.044910e-03 -4.804884e-03
<VARIANCE> 39
 2.311075e+01 2.658471e+01 3.151524e+01 2.843032e+01 3.918330e+01 3.588345e+01 3.614059e+01 5.684892e+01 3.750633e+01 2.539986e+01 2.400200e+01 2.369263e+01 1.689977e+01 6.819127e-01 1.385479e+00 1.647805e+00 1.848816e+00 1.579166e+00 1.649040e+00 2.230676e+00 1.818702e+00 1.838566e+00 1.887622e+00 1.631713e+00 1.607095e+00 2.850860e-01 1.067279e-01 2.281621e-01 2.640108e-01 2.742467e-01 2.918277e-01 2.387560e-01 3.180169e-01 3.002935e-01 3.761296e-01 2.626236e-01 3.705507e-01 2.312853e-01 5.142196e-02
<GCONST> 1.010774e+02
<MIXTURE> 7 1.388854e-01
<MEAN> 39
 -1.939519e+00 1.765142e+00 -3.705060e+00 -3.177856e+00 -9.918014e-01 1.667660e+00 4.494601e+00 4.312506e+00 3.623060e+00 2.919300e+00 3.481123e+00 3.143738e+00 -2.723797e+00 -9.032137e-01 -2.451804e-01 4.273422e-01 7.237411e-01 2.807402e-01 1.870584e-02 4.280941e-01 4.958267e-01 2.375842e-01 -6.166900e-02 -2.730981e-01 -1.812241e-01 -5.456513e-01 1.338094e-01 -4.439024e-02 2.999405e-02 -1.182847e-01 -1.298689e-01 -1.186808e-01 -1.715968e-01 -2.057278e-01 -1.625399e-01 -8.376202e-02 -1.510817e-01 -1.450031e-01 1.422049e-01
<VARIANCE> 39
 5.110341e+00 7.367852e+00 1.250521e+01 1.166534e+01 1.103204e+01 1.366345e+01 1.390854e+01 1.497921e+01 1.295300e+01 9.015848e+00 7.403387e+00 8.572962e+00 2.440698e+00 2.656696e-01 4.254597e-01 6.726186e-01 7.245011e-01 8.642238e-01 1.004869e+00 9.836592e-01 8.863032e-01 8.995417e-01 9.311304e-01 7.794818e-01 8.173884e-01 1.256191e-01 4.419138e-02 6.800041e-02 1.120322e-01 1.323734e-01 1.170736e-01 1.535586e-01 1.652244e-01 1.661568e-01 1.729149e-01 1.877820e-01 1.474325e-01 1.562564e-01 2.627240e-02
<GCONST> 6.609676e+01
<MIXTURE> 8 9.879958e-02
<MEAN> 39
 2.720783e+00 3.826927e+00 -6.662837e+00 -8.059545e+00 -6.516875e+00 -1.259797e+00 5.634139e+00 5.978292e+00 3.902937e+00 3.351296e-01 -1.137770e+00 -5.537539e-01 -2.774224e-01 -1.024341e+00 -6.046561e-02 9.523302e-02 5.500065e-02 -3.290978e-01 -6.856323e-01 -1.570985e-01 9.846091e-02 4.926194e-02 -2.216353e-02 3.121743e-01 3.704308e-01 -7.466705e-01 1.460682e-01 -2.139284e-01 5.495001e-02 -6.665336e-02 -1.698851e-01 -1.771188e-01 -3.659571e-01 -3.467541e-01 -7.821766e-02 1.396095e-01 1.077725e-01 3.015471e-02 2.146780e-01
<VARIANCE> 39
 4.487031e+00 9.800314e+00 1.278314e+01 9.695485e+00 1.229608e+01 1.402699e+01 1.445517e+01 1.904704e+01 1.895176e+01 1.153456e+01 1.108469e+01 9.487980e+00 2.988608e+00 2.074832e-01 2.998772e-01 4.440438e-01 5.645911e-01 7.476915e-01 9.236705e-01 1.110061e+00 8.093453e-01 1.031891e+00 1.083569e+00 9.887713e-01 8.628953e-01 1.047002e-01 3.443481e-02 8.119994e-02 1.136346e-01 1.154220e-01 1.596992e-01 2.142546e-01 3.241516e-01 1.785235e-01 2.253665e-01 1.831392e-01 1.658031e-01 1.517266e-01 2.896368e-02
<GCONST> 6.839491e+01
<TRANSP> 5
 0.000000e+00 1.000000e+00 0.000000e+00 0.000000e+00 0.000000e+00
 0.000000e+00 6.191218e-01 3.808782e-01 0.000000e+00 0.000000e+00
 0.000000e+00 0.000000e+00 6.501824e-01 3.498177e-01 0.000000e+00
 0.000000e+00 0.000000e+00 0.000000e+00 7.046867e-01 2.953133e-01
 0.000000e+00 0.000000e+00 0.000000e+00 0.000000e+00 0.000000e+00
<ENDHMM>
~h "b"
<BEGINHMM>
<NUMSTATES> 5
<STATE> 2
<NUMMIXES> 8
<MIXTURE> 1 1.429893e-01
<MEAN> 39
 -2.773221e+00 5.610967e+00 4.986197e+00 7.172780e+00 6.460914e+00 4.454513e+00 6.142218e+00 4.963693e+00 2.802746e+00 1.377367e+00 1.061918e+00 5.000013e-02 -3.198547e+00 -2.298779e-01 8.066134e-03 6.810604e-02 6.781557e-02 8.658696e-03 7.333205e-02 2.871508e-01 3.813648e-01 3.935758e-01 2.112872e-01 1.322185e-01 1.206183e-01 -1.668772e-01 6.864043e-02 8.090517e-03 1.621707e-02 -1.110159e-02 -6.564871e-03 1.411768e-02 -7.136343e-02 -1.263845e-01 -1.347438e-01 -1.445056e-01 -1.215855e-01 -5.708671e-02 5.238445e-02
<VARIANCE> 39
 2.401651e+00 3.174639e+00 2.976956e+00 5.298822e+00 6.224257e+00 3.506877e+00 8.402013e+00 9.632776e+00 8.445533e+00 6.939270e+00 5.108968e+00 7.800188e+00 1.817436e+00 1.097268e-01 1.714306e-01 2.810339e-01 3.568691e-01 3.517831e-01 3.740353e-01 4.612185e-01 5.536767e-01 9.350006e-01 7.114013e-01 6.175442e-01 7.394100e-01 4.690545e-02 1.510612e-02 2.599123e-02 3.608423e-02 5.690904e-02 7.251738e-02 7.960356e-02 7.669920e-02 9.043340e-02 1.994751e-01 1.245140e-01 8.570499e-02 1.091413e-01 6.656270e-03
<GCONST> 4.084369e+01
<MIXTURE> 2 1.452362e-01
<MEAN> 39
 8.920470e-01 6.841386e+00 3.713011e+00 5.460134e+00 5.018103e+00 3.428676e+00 2.662465e+00 -4.168939e-01 -2.381478e+00 -2.304305e+00 8.233996e-02 2.420465e-02 -1.604719e+00 2.102230e-01 -6.442318e-01 4.576681e-03 6.669670e-02 -1.771078e-01 -1.094641e-02 8.694322e-02 2.467096e-01 1.075748e-01 -1.050085e-01 -6.270230e-01 -2.357477e-01 4.442083e-01 6.423924e-01 -6.093877e-01 -6.097725e-01 -5.209392e-01 -4.265182e-01 -5.701774e-01 -9.375501e-01 -6.922446e-01 -2.408346e-01 -1.789114e-01 -3.418242e-01 -1.401260e-01 6.510482e-01
<VARIANCE> 39
 1.049215e+01 1.120151e+01 1.268413e+01 1.302863e+01 1.143051e+01 1.083788e+01 2.097261e+01 2.926570e+01 1.832923e+01 9.800264e+00 1.193234e+01 1.537823e+01 5.571195e+00 7.021212e-01 2.263057e+00 1.660246e+00 1.369956e+00 1.443640e+00 1.234173e+00 1.210090e+00 1.623302e+00 1.310797e+00 1.314875e+00 1.311040e+00 8.915851e-01 5.795775e-01 1.162641e-01 2.560728e-01 2.256181e-01 2.923892e-01 5.089384e-01 3.920441e-01 3.629292e-01 4.812364e-01 3.763047e-01 3.383109e-01 2.314135e-01 2.210071e-01 8.887434e-02
<GCONST> 9.055930e+01
<MIXTURE> 3 1.191723e-01
<MEAN> 39
 1.194518e+00 7.640346e+00 4.675408e+00 5.047023e+00 4.373005e+00 3.126451e+00 2.344301e+00 -5.190252e-02 -1.666297e+00 -2.571379e+00 -1.093299e+00 -4.253094e-01 -1.348727e+00 -7.097881e-01 -1.219728e-02 5.374465e-01 7.694407e-01 6.210262e-01 5.283069e-01 1.036835e+00 1.147248e+00 1.115181e+00 8.481148e-01 2.687860e-01 -7.425462e-02 -5.002687e-01 1.492196e-01 -1.838028e-01 -1.661730e-01 -1.964944e-01 -2.420255e-01 -1.924246e-01 -1.178965e-01 -1.019862e-01 -1.056483e-01 -8.370950e-02 -8.293086e-02 -2.131723e-02 1.606194e-01
<VARIANCE> 39
 4.068944e+00 3.238922e+00 5.868860e+00 7.510483e+00 1.425634e+01 1.817675e+01 6.197633e+00 6.592322e+00 1.105352e+01 1.714518e+01 1.283113e+01 1.056542e+01 3.441559e+00 1.063931e-01 2.628215e-01 4.537849e-01 5.325828e-01 9.084227e-01 9.541981e-01 4.616385e-01 6.960554e-01 9.601558e-01 8.456544e-01 5.539378e-01 7.053102e-01 5.399098e-02 4.638870e-02 5.072357e-02 9.712610e-02 1.280760e-01 1.901570e-01 1.534799e-01 1.324572e-01 1.639727e-01 1.932857e-01 1.698086e-01 1.477374e-01 1.326823e-01 2.607820e-02
<GCONST> 5.955869e+01
<MIXTURE> 4 1.013742e-01
<MEAN> 39
 5.678277e+00 8.309360e+00 4.311577e-02 7.089680e-01 1.866943e-01 5.291039e-01 6.953040e-01 -2.008470e+00 -4.638688e+00 -6.463222e+00 -3.148787e+00 2.869556e-02 8.301309e-01 -1.185210e+00 6.871473e-01 1.129016e+00 8.323215e-01 3.517002e-01 9.038710e-01 1.670431e+00 1.084366e+00 6.855260e-01 8.491192e-01 7.189899e-01 3.132146e-01 -1.016814e+00 2.575006e-01 -6.945233e-01 -3.713929e-01 -1.357324e-01 -1.579964e-02 -4.491287e-01 -6.893821e-01 -2.223085e-01 2.045660e-02 1.027952e-01 -1.739333e-02 -6.273583e-02 4.418563e-01
<VARIANCE> 39
 6.866592e+00 3.753263e+00 1.404934e+01 7.281655e+00 9.588538e+00 9.441646e+00 7.808899e+00 1.485675e+01 1.326293e+01 1.028960e+01 8.573094e+00 1.163610e+01 4.975755e+00 1.516159e-01 5.020369e-01 4.669099e-01 7.055975e-01 7.229016e-01 7.436615e-01 9.438320e-01 1.276872e+00 7.276059e-01 7.548345e-01 4.378464e-01 7.231545e-01 1.418572e-01 2.696701e-02 8.809633e-02 7.832658e-02 1.262251e-01 1.538693e-01 1.230613e-01 1.875097e-01 2.542459e-01 2.907176e-01 1.905838e-01 8.689538e-02 1.496911e-01 2.576964e-02
<GCONST> 6.355223e+01
<MIXTURE> 5 1.631381e-01
<MEAN> 39
 -1.529634e+00 6.352023e+00 4.549630e+00 5.420489e+00 4.214343e+00 3.085136e+00 5.213374e+00 4.209362e+00 2.766714e+00 1.283297e+00 6.385408e-01 6.356677e-01 -3.225661e+00 -2.262217e-01 -2.600172e-01 -1.374328e-02 1.893508e-01 1.300787e-01 1.464576e-01 3.283188e-01 1.895356e-01 -6.006788e-02 -1.068949e-01 -1.215914e-01 -8.438838e-02 -1.019896e-01 4.583220e-01 -8.039927e-02 -2.584265e-01 -4.036402e-01 -5.051093e-01 -4.739549e-01 -6.175125e-01 -6.672323e-01 -5.406643e-01 -3.700733e-01 -1.858640e-01 -3.400521e-02 3.538668e-01
<VARIANCE> 39
 3.949270e+00 3.817222e+00 6.002308e+00 8.536651e+00 1.089981e+01 1.043136e+01 6.904498e+00 9.128379e+00 8.687970e+00 7.001043e+00 8.771671e+00 1.250519e+01 2.349769e+00 1.413134e-01 2.192446e-01 3.195348e-01 4.236079e-01 1.002135e+00 1.080961e+00 9.182015e-01 1.013257e+00 1.012704e+00 8.166349e-01 7.810395e-01 9.912656e-01 5.879219e-02 5.362761e-02 1.097663e-01 8.767053e-02 1.058878e-01 2.253538e-01 2.043063e-01 1.661220e-01 1.584857e-01 2.590317e-01 1.446143e-01 1.388723e-01 1.910710e-01 3.025334e-02
<GCONST> 6.117601e+01
<MIXTURE> 6 1.074003e-01
<MEAN> 39
 1.328593e+00 8.680991e+00 4.467423e+00 4.009885e+00 1.358001e+00 -3.275048e-01 1.313701e+00 -3.529514e-01 -2.563656e+00 -3.653047e+00 -2.527771e+00 -1.599520e+00 -1.797460e+00 -5.733244e-01 -2.300471e-01 1.842739e-01 5.520543e-01 5.276071e-01 3.409189e-01 5.705540e-01 6.288671e-01 5.366623e-01 3.603062e-01 2.413170e-01 -9.005237e-02 -3.236712e-01 5.229599e-01 -4.661315e-01 -6.161711e-01 -4.782169e-01 -2.588370e-01 -1.437039e-01 -4.808020e-01 -5.269905e-01 -3.195911e-01 -2.756039e-01 -2.875715e-01 2.052619e-02 4.883002e-01
<VARIANCE> 39
 3.084325e+00 4.426566e+00 6.128275e+00 6.958932e+00 7.777628e+00 5.869911e+00 1.014519e+01 1.104499e+01 1.095748e+01 7.967675e+00 8.600617e+00 9.453671e+00 2.398411e+00 9.182296e-02 1.819025e-01 2.359393e-01 3.002961e-01 5.063943e-01 4.749407e-01 6.003659e-01 1.011047e+00 1.068280e+00 7.314745e-01 4.820730e-01 4.111328e-01 5.215752e-02 5.106461e-02 1.044213e-01 1.005407e-01 1.734639e-01 2.648144e-01 2.382922e-01 1.681938e-01 2.780709e-01 2.160944e-01 2.010774e-01 9.853089e-02 1.493322e-01 2.794959e-02
<GCONST> 5.680352e+01
<MIXTURE> 7 9.118406e-02
<MEAN> 39
 -2.661085e+00 6.651922e+00 5.604485e+00 6.050152e+00 5.014611e+00 3.317642e+00 3.206502e+00 2.170145e+00 3.340535e-01 -2.686158e+00 -3.044570e+00 -4.270416e+00 -3.745258e+00 2.679734e-01 4.645722e-01 3.891429e-01 3.895347e-01 1.608796e-01 -7.922643e-02 2.262095e-01 1.772930e-01 -5.432225e-02 2.164978e-02 -1.103013e-01 1.302167e-02 7.546956e-02 -4.115047e-03 -9.639546e-02 -8.022533e-02 -8.875776e-02 -1.113154e-01 -4.508326e-02 2.023624e-02 5.958305e-02 1.862306e-01 1.983578e-01 2.206573e-01 2.163135e-01 2.254815e-02
<VARIANCE> 39
 2.795674e+00 5.359031e+00 4.631462e+00 7.617907e+00 8.431133e+00 6.783204e+00 1.106410e+01 1.078950e+01 6.380499e+00 9.280943e+00 5.334411e+00 8.593376e+00 2.419140e+00 2.493270e-01 2.727547e-01 2.934252e-01 4.792659e-01 4.055670e-01 8.782378e-01 1.473786e+00 1.466163e+00 8.203251e-01 1.357491e+00 8.743303e-01 9.244881e-01 9.254044e-02 3.581721e-02 4.880099e-02 6.687370e-02 1.129233e-01 9.146718e-02 1.448076e-01 2.442172e-01 3.502579e-01 1.765642e-01 2.041053e-01 1.456205e-01 1.572967e-01 1.698721e-02
<GCONST> 5.897586e+01
<MIXTURE> 8 1.295053e-01
<MEAN> 39
 5.704731e+00 8.178164e+00 -1.100366e+00 -4.576072e-01 -7.428119e-01 -2.265978e-01 7.503036e-01 -1.301969e+00 -1.829198e+00 -1.966123e+00 -1.003372e+00 -5.046754e-01 6.392275e-01 -6.047597e-01 2.089226e-01 7.182958e-01 5.492659e-01 1.618760e-01 -1.861813e-02 3.452592e-01 1.702472e-01 5.068161e-02 1.129234e-01 1.323081e-01 2.130905e-01 -4.430514e-01 2.800497e-01 -6.578763e-01 -2.150343e-01 6.055121e-02 3.492871e-02 -3.276356e-01 -6.756535e-01 -3.696691e-01 -2.282490e-01 -2.706608e-01 -2.555449e-01 -2.066302e-01 4.425320e-01
<VARIANCE> 39
 4.456368e+00 8.065100e+00 1.309421e+01 1.606547e+01 1.757552e+01 1.449756e+01 1.693737e+01 2.410761e+01 2.162004e+01 1.888299e+01 1.775214e+01 1.628180e+01 3.995876e+00 8.434241e-02 3.620797e-01 4.895720e-01 5.671352e-01 7.534710e-01 6.126787e-01 8.179916e-01 8.271593e-01 9.043606e-01 8.088716e-01 7.487913e-01 7.794901e-01 7.247034e-02 5.130220e-02 1.275646e-01 1.708823e-01 1.391818e-01 2.184751e-01 3.064962e-01 4.058249e-01 2.475743e-01 3.111821e-01 2.526826e-01 1.475152e-01 1.923629e-01 6.610067e-02
<GCONST> 7.322358e+01
<STATE> 3
<NUMMIXES> 8
<MIXTURE> 1 1.369162e-01
<MEAN> 39
 -9.576981e-01 2.902542e+00 1.390800e+00 2.568635e+00 2.226247e+00 3.277673e+00 6.140425e+00 5.940548e+00 3.232533e+00 7.741780e-01 2.339729e-01 4.850649e-01 -1.554440e+00 1.235775e+00 -1.472864e+00 -7.027617e-01 3.042668e-01 7.142037e-01 2.445123e-01 -1.618739e+00 -2.230430e+00 -1.633333e+00 -1.294083e+00 -9.305543e-01 6.735080e-02 1.392692e+00 3.317082e-01 2.687430e-02 2.717559e-01 4.410351e-01 5.013217e-01 -1.921385e-01 -1.102679e+00 -1.052280e+00 -4.719411e-01 -1.987966e-01 -1.709897e-01 -3.033785e-01 2.827170e-01
<VARIANCE> 39
 1.346000e+01 1.512906e+01 1.393848e+01 1.516643e+01 1.075440e+01 1.037195e+01 1.172248e+01 1.802925e+01 1.411684e+01 1.383811e+01 1.527634e+01 1.254534e+01 7.724527e+00 6.532896e-01 3.078998e+00 1.511871e+00 2.282179e+00 3.213222e+00 2.896421e+00 4.270159e+00 3.522298e+00 2.204933e+00 1.972676e+00 1.887410e+00 2.126028e+00 4.958001e-01 1.652531e-01 3.200941e-01 2.309678e-01 1.961403e-01 2.385037e-01 3.702600e-01 5.792876e-01 4.565685e-01 3.089560e-01 3.343892e-01 2.761083e-01 2.194787e-01 1.075390e-01
<GCONST> 9.693280e+01
<MIXTURE> 2 9.879126e-02
<MEAN> 39
 -2.829229e+00 5.977974e+00 5.318423e+00 7.784499e+00 7.095344e+00 6.242237e+00 7.468648e+00 4.912753e+00 3.267567e+00 9.942919e-01 8.949093e-02 -2.568869e-01 -4.081573e+00 1.143119e+00 -4.674942e-01 -5.412264e-01 -9.861149e-01 -1.643217e+00 -1.341125e+00 -1.241277e+00 -8.942683e-01 -2.757255e-01 -2.660989e-01 -3.755443e-01 -4.880071e-03 9.557150e-01 8.424668e-01 1.092334e-01 -3.483091e-01 -8.616214e-01 -1.093268e+00 -1.125041e+00 -1.116595e+00 -8.432471e-01 -5.952100e-01 -3.458359e-01 -1.931616e-01 7.395994e-02 5.644737e-01
<VARIANCE> 39
 2.787928e+00 2.743695e+00 2.700591e+00 3.783558e+00 6.049069e+00 3.448120e+00 4.994993e+00 9.808370e+00 8.714280e+00 9.336648e+00 8.472535e+00 7.700042e+00 1.329042e+00 5.509897e-01 1.571497e+00 8.126224e-01 8.401191e-01 1.716963e+00 1.434746e+00 1.229626e+00 9.659062e-01 1.242565e+00 1.068016e+00 1.121277e+00 8.516324e-01 4.939843e-01 6.216774e-02 1.134983e-01 1.287297e-01 1.681562e-01 1.981223e-01 1.573121e-01 1.143654e-01 1.732999e-01 3.482328e-01 2.954052e-01 2.284742e-01 1.755009e-01 4.960034e-02
<GCONST> 6.723547e+01
<MIXTURE> 3 1.652870e-01
<MEAN> 39
 1.502124e+00 6.045483e+00 2.981737e+00 4.361864e+00 3.305078e+00 1.526695e+00 8.830193e-01 -3.682227e+00 -5.367509e+00 -4.439479e+00 -2.884268e+00 -1.186551e+00 -9.844792e-01 5.892584e-01 -7.044719e-01 -3.995733e-01 1.419541e-01 6.684057e-01 8.400577e-02 -1.183601e+00 -1.497555e+00 -1.061985e+00 -5.716534e-01 -5.134752e-01 -3.568152e-01 6.944895e-01 1.239628e-01 -1.612528e-01 -2.711952e-03 9.773411e-02 1.830037e-01 -9.086148e-02 -6.114023e-01 -2.305420e-01 2.695375e-01 2.908047e-01 1.034218e-01 -1.700875e-01 1.525373e-01
<VARIANCE> 39
 6.895835e+00 6.003780e+00 9.120142e+00 1.107802e+01 1.613242e+01 1.221766e+01 1.851579e+01 1.850341e+01 1.232778e+01 1.357321e+01 1.214363e+01 1.130185e+01 4.366284e+00 3.416339e-01 1.523818e+00 1.029466e+00 1.091648e+00 1.426925e+00 1.198644e+00 1.969843e+00 3.292490e+00 3.052607e+00 1.436612e+00 1.350605e+00 1.460290e+00 2.834756e-01 7.168421e-02 1.195024e-01 1.626833e-01 1.825493e-01 2.177708e-01 2.233638e-01 4.885256e-01 4.705560e-01 2.488772e-01 2.474245e-01 2.159692e-01 2.135783e-01 4.836541e-02
<GCONST> 8.375613e+01
<MIXTURE> 4 1.201825e-01
<MEAN> 39
 3.467990e+00 2.689584e+00 2.276297e+00 5.030190e+00 1.324860e+00 -8.554532e-02 5.736882e-01 8.049662e-02 -6.193892e-01 -3.240469e+00 -4.607285e+00 -2.178011e+00 1.701900e+00 2.301098e+00 -1.736394e+00 -1.980924e+00 -1.153631e+00 -8.985201e-01 -1.747656e+00 -2.755359e+00 -2.286964e+00 -1.652807e+00 -1.361973e+00 -1.292587e+00 -1.045911e-01 2.125946e+00 3.735225e-01 -1.516218e-02 -4.019749e-01 -4.680538e-01 2.305842e-02 -2.002580e-01 -6.691933e-01 -5.790660e-01 -4.300127e-01 -6.652901e-02 2.852989e-01 1.877968e-01 2.634722e-01
<VARIANCE> 39
 6.008785e+00 1.648670e+01 1.508503e+01 1.381975e+01 2.073298e+01 1.759090e+01 1.480012e+01 1.564805e+01 1.090646e+01 1.067722e+01 1.303920e+01 7.160133e+00 4.606013e+00 8.389817e-01 1.944989e+00 1.379174e+00 2.137608e+00 4.089281e+00 2.221886e+00 2.088664e+00 3.557043e+00 2.447302e+00 3.137752e+00 1.474942e+00 1.531778e+00 7.714242e-01 9.650046e-02 5.381916e-01 2.965317e-01 2.555786e-01 2.335196e-01 1.435145e-01 3.019642e-01 2.174332e-01 2.168053e-01 2.060048e-01 3.330632e-01 1.891201e-01 9.394561e-02
<GCONST> 9.226010e+01
<MIXTURE> 5 1.406275e-01
<MEAN> 39
 -2.411458e-01 6.869042e+00 3.968665e+00 5.237647e+00 3.518378e+00 1.418313e+00 2.733897e+00 1.227753e+00 -1.188956e+00 -2.226499e+00 -2.166388e+00 -1.828294e+00 -2.396432e+00 1.304798e+00 -8.376753e-01 -1.236993e+00 -9.856201e-01 -1.072603e+00 -9.701385e-01 -1.042195e+00 -1.273182e+00 -1.344849e+00 -1.232682e+00 -7.233150e-01 2.715716e-01 1.110803e+00 7.104438e-01 -6.395008e-02 -4.992901e-01 -5.093197e-01 -3.544981e-01 -3.443546e-01 -7.507994e-01 -9.317342e-01 -7.166890e-01 -4.582428e-01 -1.271033e-01 2.359309e-01 4.988650e-01
<VARIANCE> 39
 4.162797e+00 5.881360e+00 3.157891e+00 3.830805e+00 5.036764e+00 5.627711e+00 3.354935e+00 8.595098e+00 1.127959e+01 1.402103e+01 8.112527e+00 8.585657e+00 2.321063e+00 5.203004e-01 8.765815e-01 7.756817e-01 1.240254e+00 2.319773e+00 2.064960e+00 1.265719e+00 2.009215e+00 1.702472e+00 1.068169e+00 7.674795e-01 1.113424e+00 2.645819e-01 6.033480e-02 1.182246e-01 2.020177e-01 1.876341e-01 2.895213e-01 1.341527e-01 1.512160e-01 2.776941e-01 2.382399e-01 2.385082e-01 1.859315e-01 2.068995e-01 3.526241e-02
<GCONST> 7.090581e+01
<MIXTURE> 6 1.394577e-01
<MEAN> 39
 4.517104e+00 8.845945e+00 9.534570e-02 -1.758839e+00 -3.859281e+00 -2.233295e+00 2.507704e+00 2.510349e+00 1.190279e+00 -7.201836e-01 -9.382788e-01 -1.154594e+00 -2.371928e-01 -3.768845e-02 -1.692871e+00 1.316885e-01 1.368174e+00 1.248828e+00 1.886304e-01 -9.560129e-01 -1.008355e+00 -7.257649e-01 -7.061911e-01 -8.017612e-01 -2.656640e-01 6.186523e-01 4.449000e-01 -7.498365e-01 -3.766392e-01 1.932290e-01 5.298631e-01 -7.629673e-02 -1.084861e+00 -9.278639e-01 -4.790253e-01 -3.116475e-01 -3.774219e-01 -2.883999e-01 5.756595e-01
<VARIANCE> 39
 4.522765e+00 6.730817e+00 1.687748e+01 1.149243e+01 9.527603e+00 1.142776e+01 1.263821e+01 1.864423e+01 1.714323e+01 1.853487e+01 1.778307e+01 1.531612e+01 3.988113e+00 2.147212e-01 1.321297e+00 1.119219e+00 9.750941e-01 1.496849e+00 1.457186e+00 2.268308e+00 2.015249e+00 1.747123e+00 1.261448e+00 1.212301e+00 1.243811e+00 3.656057e-01 5.276932e-02 1.758909e-01 2.401760e-01 2.552764e-01 3.093507e-01 2.164501e-01 2.920999e-01 3.149121e-01 2.094273e-01 2.601032e-01 1.978179e-01 2.455094e-01 2.093745e-02
<GCONST> 8.222450e+01
<MIXTURE> 7 9.879261e-02
<MEAN> 39
 4.661518e+00 4.550488e+00 -2.194543e-01 1.018402e+00 3.946579e-01 1.149350e+00 1.626259e+00 -1.089088e+00 -1.762822e+00 -2.496461e+00 -7.342402e-01 7.395685e-01 1.653453e+00 1.010834e+00 -9.585711e-01 -6.434736e-01 -9.009866e-01 -1.128083e+00 -1.823171e+00 -2.036750e+00 -8.275779e-01 7.197911e-02 -6.893124e-02 -1.068562e+00 -1.073321e+00 1.137272e+00 6.926494e-01 -4.901253e-02 -6.953400e-01 -5.940150e-01 -4.898225e-01 -8.494276e-01 -9.859501e-01 -4.870871e-01 -1.588742e-01 -8.071594e-02 -1.978023e-01 -2.830452e-01 4.505856e-01
<VARIANCE> 39
 7.098752e+00 1.426133e+01 9.794151e+00 5.863039e+00 1.706189e+01 1.858336e+01 1.226009e+01 1.610720e+01 2.257073e+01 1.945019e+01 1.581701e+01 1.245146e+01 7.474910e+00 5.253186e-01 1.065509e+00 1.628315e+00 1.016718e+00 2.090905e+00 1.467279e+00 1.416613e+00 2.561114e+00 2.349517e+00 1.954011e+00 5.948215e-01 7.917878e-01 5.117751e-01 2.824848e-02 5.022581e-01 2.980343e-01 1.860538e-01 4.956246e-01 3.995881e-01 2.327037e-01 3.071088e-01 5.261142e-01 3.946640e-01 1.802172e-01 1.687547e-01 9.768372e-02
<GCONST> 8.840736e+01
<MIXTURE> 8 9.994496e-02
<MEAN> 39
 -3.985218e-01 7.186610e+00 5.137592e+00 6.729172e+00 4.447566e+00 2.686960e+00 4.691842e+00 3.806058e+00 2.005022e+00 8.449377e-03 -4.736629e-01 -8.690228e-01 -2.459429e+00 2.063381e+00 -5.114424e-01 -1.399904e+00 -2.170574e+00 -2.818651e+00 -2.930344e+00 -2.860199e+00 -1.244618e+00 -1.217828e-01 -1.351955e-01 -4.411686e-01 -2.656206e-01 1.605471e+00 6.127417e-01 1.250792e-01 -3.757429e-01 -7.716084e-01 -9.070392e-01 -9.066448e-01 -7.257374e-01 -3.626275e-01 -1.094180e-01 -7.787410e-02 -2.296365e-01 -1.582157e-01 3.651708e-01
<VARIANCE> 39
 3.580202e+00 6.681809e+00 6.895470e+00 6.677520e+00 5.985934e+00 5.370586e+00 4.130913e+00 3.565976e+00 7.820790e+00 5.452511e+00 5.423751e+00 8.161786e+00 2.812547e+00 5.127109e-01 1.604250e+00 8.729846e-01 1.300942e+00 1.945302e+00 2.204185e+00 1.943986e+00 1.779648e+00 2.751685e+00 1.244408e+00 1.207716e+00 9.698079e-01 4.053189e-01 8.762402e-02 1.419964e-01 1.516988e-01 2.512090e-01 1.699833e-01 1.956521e-01 2.920043e-01 2.402245e-01 2.362143e-01 2.990901e-01 1.698672e-01 9.255350e-02 3.876065e-02
<GCONST> 7.276610e+01
<STATE> 4
<NUMMIXES> 8
<MIXTURE> 1 1.088165e-01
<MEAN> 39
 2.491481e+00 -6.566656e-01 -2.316528e-01 4.729058e+00 6.602231e+00 5.916890e+00 1.917013e+00 -1.507277e+00 -2.203746e+00 -3.606517e+00 -3.099600e+00 -7.113181e-01 1.884243e+00 1.551560e-01 -1.656278e+00 1.007953e+00 1.718300e+00 1.585676e+00 4.980218e-01 -1.607312e+00 -1.194775e+00 -2.815855e-01 1.623237e-01 -5.881958e-01 -9.824361e-01 9.123567e-01 -2.308929e-01 4.707871e-01 8.332353e-01 3.031340e-01 -2.927236e-01 -4.716839e-01 -2.685368e-01 4.283442e-02 2.289622e-01 3.331843e-01 1.158295e-01 -2.198830e-01 -2.271868e-01
<VARIANCE> 39
 5.785833e+00 1.469437e+01 1.298807e+01 1.607334e+01 1.884892e+01 1.794788e+01 2.118490e+01 2.707081e+01 1.592380e+01 1.386121e+01 2.772651e+01 2.745829e+01 6.669478e+00 4.555625e-01 2.091280e+00 2.175387e+00 1.619610e+00 1.607213e+00 1.965026e+00 1.565245e+00 1.004241e+00 2.508047e+00 1.813336e+00 1.702131e+00 1.107975e+00 4.413349e-01 1.034637e-01 3.253160e-01 1.622887e-01 4.307824e-01 3.542711e-01 5.206535e-01 2.987185e-01 3.987893e-01 4.085881e-01 5.410666e-01 4.492550e-01 3.944218e-01 9.242415e-02
<GCONST> 9.621975e+01
<MIXTURE> 2 8.856331e-02
<MEAN> 39
 1.037744e+01 2.682339e+00 -4.547033e+00 -2.729355e+00 -4.272701e+00 -5.863544e+00 -5.438501e+00 -8.872335e+00 -1.194874e+01 -8.411300e+00 -2.193051e+00 4.000931e+00 5.864722e+00 7.806441e-01 -1.024582e+00 -9.417477e-01 -4.154266e-01 2.244837e-01 2.496920e-01 -1.153063e+00 -1.934141e+00 -1.341523e+00 2.974813e-01 9.429620e-01 7.712587e-01 8.559009e-01 -8.215196e-01 2.487340e-01 7.489493e-01 7.958519e-01 9.652792e-01 8.664163e-01 4.991870e-01 7.850912e-01 1.029490e+00 5.890779e-01 7.094846e-02 -4.866224e-01 -6.149989e-01
<VARIANCE> 39
 1.974067e+00 1.039160e+01 5.495355e+00 1.083624e+01 1.865298e+01 8.261842e+00 6.676909e+00 1.184202e+01 1.500586e+01 2.498883e+01 7.553407e+00 1.576832e+01 2.107342e+00 4.662753e-01 7.515905e-01 6.736721e-01 1.375552e+00 1.549069e+00 1.758808e+00 9.211285e-01 1.497854e+00 1.518851e+00 1.268490e+00 7.257397e-01 1.175288e+00 2.981723e-01 7.436349e-02 1.083944e-01 9.683342e-02 1.998317e-01 2.850547e-01 2.695337e-01 1.591287e-01 2.255619e-01 2.239114e-01 2.893642e-01 1.907587e-01 3.555524e-01 3.743780e-02
<GCONST> 7.575986e+01
<MIXTURE> 3 1.583527e-01
<MEAN> 39
 2.044226e+00 7.220181e+00 2.978045e+00 1.527067e+00 -1.797419e+00 -3.225040e+00 -9.860256e-01 -2.045036e+00 -2.704913e+00 -3.208027e+00 -1.603836e+00 8.808953e-01 -1.139340e+00 1.308296e+00 9.276894e-01 1.323845e-01 -1.000462e+00 -1.508974e+00 -1.916329e+00 -2.375009e+00 -1.705589e+00 -1.260235e+00 -1.160550e+00 -2.927676e-01 2.483318e-01 6.765095e-01 -1.560389e-01 -7.518961e-02 -2.324921e-02 1.333022e-01 3.353820e-01 2.799931e-01 1.885012e-01 2.625190e-01 1.705827e-01 8.664785e-02 4.820892e-02 -1.224839e-01 -8.405765e-02
<VARIANCE> 39
 7.289280e+00 5.964640e+00 6.732397e+00 8.334341e+00 1.459961e+01 1.637770e+01 1.266201e+01 1.128444e+01 1.280857e+01 1.321271e+01 1.075509e+01 1.348618e+01 2.794123e+00 5.968980e-01 6.145461e-01 6.374385e-01 1.146508e+00 2.128542e+00 2.532135e+00 1.593200e+00 1.617577e+00 1.428470e+00 1.456636e+00 1.208384e+00 1.285603e+00 2.115127e-01 9.435436e-02 9.536918e-02 1.280400e-01 2.061059e-01 2.870708e-01 2.436553e-01 2.397313e-01 3.312483e-01 2.570548e-01 2.394794e-01 3.022372e-01 3.418792e-01 3.835065e-02
<GCONST> 8.012888e+01
<MIXTURE> 4 1.573428e-01
<MEAN> 39
 8.136806e+00 2.924922e+00 -1.236279e+00 1.496060e-01 -2.846117e+00 -4.429502e+00 -3.568723e+00 -5.176926e+00 -7.831973e+00 -8.121309e+00 -4.924642e+00 3.547769e-01 4.636540e+00 2.368788e+00 -1.246803e+00 -1.924215e+00 -1.997775e+00 -1.600453e+00 -1.812372e+00 -2.681627e+00 -2.828689e+00 -2.567902e+00 -1.338176e+00 -7.158189e-02 9.936292e-01 2.067648e+00 -3.728717e-01 1.347089e-01 2.093492e-01 1.773388e-01 6.326626e-01 6.427686e-01 1.688976e-01 7.583941e-02 3.174705e-01 6.125455e-01 5.493891e-01 1.144410e-01 -2.862037e-01
<VARIANCE> 39
 6.381382e+00 1.945571e+01 1.313695e+01 1.302737e+01 1.861844e+01 1.297779e+01 1.166682e+01 2.107124e+01 1.640517e+01 1.731118e+01 8.419569e+00 1.273506e+01 6.943206e+00 7.079259e-01 2.148095e+00 1.410640e+00 1.157159e+00 2.577444e+00 2.088270e+00 2.624745e+00 2.503256e+00 2.464370e+00 2.482348e+00 1.371214e+00 1.080015e+00 6.123296e-01 1.631925e-01 2.439685e-01 2.312159e-01 2.449207e-01 2.317625e-01 1.888069e-01 2.530565e-01 3.331214e-01 2.241928e-01 1.916705e-01 1.377627e-01 1.704827e-01 9.268422e-02
<GCONST> 9.010876e+01
<MIXTURE> 5 1.642747e-01
<MEAN> 39
 5.219167e+00 -1.971159e-02 -5.549475e-05 4.359146e+00 5.341867e+00 3.044194e+00 -3.789551e+00 -8.168822e+00 -6.749485e+00 -5.109584e+00 -5.412209e+00 -3.425178e+00 3.972173e+00 1.447721e+00 -1.817212e+00 -5.960889e-01 1.314839e+00 2.171334e+00 -8.722757e-01 -4.812747e+00 -3.776118e+00 -1.156538e+00 -4.107739e-01 -8.244232e-01 -1.076920e+00 1.683169e+00 -2.013548e-01 3.569734e-01 3.367332e-01 7.579021e-02 -8.437237e-02 -3.864238e-01 -2.449257e-01 4.888077e-01 6.188611e-01 3.132057e-01 3.427400e-01 5.913270e-02 -2.318959e-01
<VARIANCE> 39
 3.848556e+00 1.203859e+01 1.057670e+01 1.306705e+01 2.037259e+01 1.726614e+01 3.456340e+01 2.490725e+01 1.658463e+01 1.141997e+01 8.256949e+00 9.451571e+00 3.301810e+00 8.945927e-01 1.351513e+00 1.907657e+00 2.061078e+00 3.029173e+00 1.637503e+00 2.261744e+00 2.456687e+00 2.166820e+00 1.915818e+00 1.589891e+00 1.834697e+00 2.438973e-01 9.392556e-02 2.032048e-01 2.511852e-01 2.575606e-01 3.119281e-01 4.323312e-01 7.347383e-01 4.542996e-01 4.444418e-01 2.815511e-01 2.167273e-01 2.322938e-01 4.708051e-02
<GCONST> 9.189571e+01
<MIXTURE> 6 1.258837e-01
<MEAN> 39
 5.913006e+00 4.063028e+00 1.106218e-01 -2.338269e-01 -3.640061e+00 -4.987952e+00 -2.882442e+00 2.172059e-01 1.453325e+00 -1.287486e+00 -2.163294e+00 -1.529064e+00 2.788839e+00 2.561836e+00 4.401510e-01 -1.593225e+00 -2.834671e+00 -3.473694e+00 -3.588239e+00 -2.934410e+00 -1.072672e+00 2.687435e-01 1.177424e-01 -7.922763e-01 -7.448490e-01 1.603927e+00 -1.445526e-01 3.875382e-01 1.024272e-01 1.775266e-02 1.856814e-01 2.848042e-01 4.826378e-01 1.082176e-01 -1.127817e-01 6.685876e-02 -1.306368e-02 -5.701375e-02 -2.454579e-01
<VARIANCE> 39
 6.875337e+00 2.216787e+01 6.556481e+00 2.007413e+01 2.118347e+01 2.825038e+01 1.547690e+01 9.606780e+00 1.432987e+01 1.235295e+01 9.168874e+00 1.039958e+01 2.884736e+00 4.658611e-01 1.037974e+00 1.338436e+00 2.828828e+00 1.544781e+00 1.814202e+00 2.152335e+00 1.827398e+00 2.531459e+00 2.614640e+00 1.139180e+00 8.013381e-01 2.928804e-01 1.006885e-01 3.701623e-01 2.225230e-01 3.730609e-01 3.572077e-01 5.459892e-01 3.434536e-01 3.068492e-01 2.749975e-01 2.542344e-01 2.213817e-01 1.684029e-01 7.443003e-02
<GCONST> 8.913798e+01
<MIXTURE> 7 1.337794e-01
<MEAN> 39
 4.484312e+00 4.401694e+00 1.391773e-01 3.527749e+00 4.925019e+00 -1.723225e-01 -5.499027e+00 -8.990840e+00 -8.761386e+00 -5.860497e+00 -3.996264e+00 -2.111279e+00 1.540929e+00 1.430158e-01 -1.993876e-01 4.647287e-01 1.043739e+00 1.682381e+00 1.143788e-01 -2.127122e+00 -1.620791e+00 -2.754333e-01 3.525296e-01 1.361586e-01 -6.834152e-01 2.577746e-01 -4.343482e-01 -6.058224e-03 3.708958e-01 1.910331e-01 -7.525139e-02 1.932602e-01 5.488341e-01 7.932796e-01 7.986895e-01 4.270555e-01 2.391891e-01 6.779498e-03 -2.754206e-01
<VARIANCE> 39
 1.000839e+01 9.562380e+00 1.038056e+01 1.135362e+01 1.896065e+01 1.211233e+01 2.165818e+01 1.536340e+01 1.037619e+01 2.450964e+01 1.833265e+01 1.365830e+01 6.855231e+00 3.193453e-01 8.882409e-01 9.078347e-01 1.511925e+00 1.231417e+00 1.637760e+00 2.038127e+00 2.183209e+00 2.355829e+00 1.748598e+00 1.410689e+00 1.824578e+00 2.291196e-01 7.177667e-02 1.423175e-01 1.398867e-01 2.663265e-01 2.484726e-01 1.681615e-01 2.068321e-01 3.673084e-01 2.610954e-01 2.508692e-01 2.927897e-01 1.977768e-01 3.662184e-02
<GCONST> 8.486894e+01
<MIXTURE> 8 6.298675e-02
<MEAN> 39
 9.628262e+00 1.632539e+00 -3.302835e+00 -3.348379e+00 -3.900271e+00 -5.272596e+00 -4.841966e+00 -2.549933e+00 -5.260280e-01 -1.841885e+00 -4.403283e+00 -3.425251e+00 6.582869e+00 1.939064e+00 -8.234177e-01 -2.320611e+00 -1.624222e+00 -1.032474e+00 -2.320051e+00 -3.108051e+00 -1.363518e+00 3.349817e-01 3.384573e-01 -1.069557e+00 -1.528139e+00 1.501810e+00 7.867488e-02 4.293229e-01 -3.346036e-01 -1.041660e-01 -3.962786e-02 5.141605e-02 1.536457e-01 -3.985692e-02 -2.276889e-01 -2.540127e-02 2.276128e-01 -1.114226e-02 -2.003690e-01
<VARIANCE> 39
 5.216619e+00 1.263610e+01 1.777941e+01 1.170198e+01 1.640879e+01 1.257980e+01 1.240048e+01 1.343789e+01 1.027433e+01 1.670736e+01 1.362131e+01 1.266222e+01 1.305854e+01 9.767793e-01 2.190193e+00 3.156922e+00 2.030125e+00 4.238562e+00 3.302547e+00 2.402069e+00 1.767961e+00 1.949826e+00 2.277990e+00 1.268991e+00 9.533597e-01 9.728021e-01 7.296943e-02 2.184786e-01 3.031328e-01 2.263039e-01 3.242476e-01 3.768368e-01 3.794064e-01 2.712438e-01 2.275479e-01 2.362026e-01 8.095806e-02 1.426086e-01 9.837651e-02
<GCONST> 9.197331e+01
<TRANSP> 5
 0.000000e+00 1.000000e+00 0.000000e+00 0.000000e+00 0.000000e+00
 0.000000e+00 6.905925e-01 3.094076e-01 0.000000e+00 0.000000e+00
 0.000000e+00 0.000000e+00 4.723566e-01 5.276434e-01 0.000000e+00
 0.000000e+00 0.000000e+00 0.000000e+00 4.154492e-01 5.845508e-01
 0.000000e+00 0.000000e+00 0.000000e+00 0.000000e+00 0.000000e+00
<ENDHMM>
~h "c"
<BEGINHMM>
<NUMSTATES> 5
<STATE> 2
<NUMMIXES> 8
<MIXTURE> 1 1.521949e-01
<MEAN> 39
 -6.892938e+00 1.162238e-01 2.653730e+00 4.294679e-01 1.806994e+00 2.611034e+00 3.239469e+00 1.883987e+00 1.842969e+00 1.405423e+00 -8.154904e-01 6.461998e-01 -4.479563e+00 -9.146275e-01 -7.786275e-01 1.288879e+00 -1.540974e+00 -3.695394e-01 4.275215e-01 -2.765916e-01 1.315031e-01 5.393292e-02 4.046706e-01 -2.018557e-01 2.564127e-01 3.260702e-01 -9.388389e-02 -1.764012e-01 5.611657e-01 -3.252331e-01 1.399515e-01 2.844703e-01 -1.606706e-01 3.463206e-03 -1.093511e-01 3.582869e-02 3.337128e-02 -5.780197e-02 2.419277e-01
<VARIANCE> 39
 3.624744e+00 2.748204e+00 1.231852e+01 1.024932e+01 2.091010e+01 1.349943e+01 1.351853e+01 1.301380e+01 1.065951e+01 7.923061e+00 9.941512e+00 1.072335e+01 1.290259e+00 2.429257e-01 4.326203e-01 1.218263e+00 1.023176e+00 1.119460e+00 1.410798e+00 9.486324e-01 1.614243e+00 1.182706e+00 1.032514e+00 9.949510e-01 9.145938e-01 1.098299e-01 4.276058e-02 6.803685e-02 1.356727e-01 1.401408e-01 1.745000e-01 1.513482e-01 1.535853e-01 2.669786e-01 2.233768e-01 1.461226e-01 1.837980e-01 2.027388e-01 1.636312e-02
<GCONST> 6.827940e+01
<MIXTURE> 2 1.018104e-01
<MEAN> 39
 -1.024915e+01 -5.397389e+00 1.691772e+01 -1.064925e+01 2.182407e+00 3.258944e+00 -5.831395e-01 -2.498127e+00 -4.374492e+00 2.074693e+00 -6.843969e+00 -8.837559e-01 2.503347e+00 -8.582316e-01 -1.835206e+00 7.090619e-01 -9.589673e-01 -6.288848e-01 3.141125e-01 5.525785e-03 4.150957e-01 4.381465e-01 4.982167e-01 8.391632e-01 2.931493e-01 5.448268e-01 7.862641e-01 3.597205e-01 -1.005925e+00 1.063062e+00 -2.490623e-01 -9.401137e-02 -1.180572e-01 -1.204026e-02 9.891629e-02 -2.923791e-01 6.083199e-01 1.577449e-01 -1.721314e-01
<VARIANCE> 39
 4.907153e+00 5.598519e+00 9.737338e+00 1.545623e+01 2.096627e+01 2.618761e+01 1.393925e+01 1.513376e+01 1.386557e+01 2.166306e+01 1.024643e+01 1.122436e+01 7.751781e+00 6.155991e-01 1.343762e+00 1.603282e+00 2.348706e+00 1.367642e+00 1.793121e+00 1.317987e+00 1.185929e+00 1.239234e+00 1.294114e+00 1.426474e+00 8.346560e-01 3.465053e-01 5.361511e-02 1.794655e-01 2.097995e-01 1.093828e-01 2.528659e-01 4.346201e-01 2.798710e-01 3.252840e-01 3.149380e-01 4.472511e-01 2.991086e-01 2.475744e-01 3.054272e-02
<GCONST> 8.515453e+01
<MIXTURE> 3 9.809353e-02
<MEAN> 39
 -2.544447e+00 2.975780e+00 3.174801e+00 -3.170641e+00 -1.545099e+00 -1.764606e+00 -3.135625e+00 -4.891542e+00 -4.560159e+00 -2.032178e+00 -1.912714e+00 1.315111e+00 -1.747836e+00 -1.650977e+00 -1.019736e+00 2.241511e+00 -1.852038e+00 7.467984e-02 3.382951e-01 1.599298e-01 4.877173e-01 2.253091e-01 5.748650e-01 -1.061058e+00 8.521149e-03 3.063900e-01 -1.436918e-01 -3.944370e-01 7.236351e-01 -2.896993e-01 4.480224e-01 5.742956e-01 6.625554e-02 1.249319e-01 5.733338e-02 2.823036e-01 -1.647482e-01 -1.722272e-01 3.629588e-01
<VARIANCE> 39
 8.638456e+00 4.465315e+00 2.137606e+01 1.755230e+01 2.621441e+01 1.353411e+01 1.125201e+01 1.878424e+01 1.700678e+01 9.957867e+00 1.805469e+01 2.173705e+01 2.825211e+00 1.653012e-01 2.468754e-01 2.069813e+00 9.168710e-01 1.194473e+00 1.423105e+00 1.339511e+00 9.092898e-01 1.004086e+00 1.323860e+00 1.243307e+00 1.141754e+00 2.477508e-01 5.898717e-02 6.786874e-02 2.902102e-01 1.757069e-01 1.706025e-01 1.616465e-01 1.678268e-01 1.935159e-01 1.697821e-01 2.589727e-01 2.635801e-01 2.076653e-01 3.487401e-02
<GCONST> 7.713432e+01
<MIXTURE> 4 1.803063e-01
<MEAN> 39
 -1.050992e+01 -2.517249e+00 1.037442e+01 -5.813314e+00 4.784571e+00 4.488485e+00 2.291655e+00 3.096230e+00 -8.544925e-01 3.060543e+00 -3.032656e+00 -7.350473e-01 -2.041308e+00 -9.887245e-01 -1.133918e+00 1.608637e+00 -1.749840e+00 -6.602486e-02 5.280350e-01 -2.255897e-01 5.341199e-01 1.081043e-01 6.527639e-01 2.223407e-01 4.005624e-01 5.408860e-01 2.879893e-01 7.435271e-04 -2.360902e-01 3.760032e-01 -2.398028e-01 3.637687e-02 -1.248160e-01 -2.379302e-01 5.023034e-02 -1.740999e-01 2.087354e-01 6.847914e-02 2.565406e-02
<VARIANCE> 39
 3.084407e+00 5.468646e+00 1.043358e+01 9.870705e+00 1.286195e+01 1.291928e+01 1.326318e+01 1.305284e+01 1.344434e+01 1.269927e+01 1.015663e+01 9.088625e+00 1.459499e+00 3.412485e-01 4.361344e-01 8.659389e-01 8.930862e-01 1.253394e+00 1.341385e+00 9.970169e-01 1.012246e+00 9.930762e-01 1.180495e+00 1.094110e+00 1.070923e+00 1.333937e-01 3.999374e-02 6.083528e-02 1.581452e-01 1.005626e-01 1.820879e-01 1.819645e-01 1.886689e-01 2.314456e-01 2.483301e-01 3.043287e-01 1.921558e-01 1.775976e-01 2.206646e-02
<GCONST> 6.964507e+01
<MIXTURE> 5 1.370755e-01
<MEAN> 39
 -4.571581e+00 -3.617318e+00 8.174387e+00 -9.457484e+00 -5.222583e+00 1.096091e+00 -7.167296e-01 -5.333487e-01 -8.307723e-01 7.768129e-01 -2.262062e+00 1.502283e+00 2.098970e+00 -1.452038e+00 -1.910576e+00 2.323968e+00 -1.537174e+00 1.535679e-01 5.362385e-01 -8.247727e-01 9.691161e-02 -1.441780e-01 4.584748e-01 -3.020667e-01 5.285726e-02 7.094868e-01 3.039131e-01 9.186275e-02 -4.260466e-01 3.226935e-01 3.565432e-01 9.904397e-02 -9.655141e-02 -1.460294e-01 -9.182884e-03 -3.228239e-03 1.630447e-02 -2.830032e-01 8.262629e-04
<VARIANCE> 39
 1.226139e+01 1.299304e+01 1.932091e+01 7.561993e+01 3.086876e+01 2.677021e+01 2.375745e+01 3.538680e+01 1.654547e+01 1.257426e+01 1.093052e+01 1.321821e+01 1.091759e+01 1.300069e+00 1.556380e+00 2.708857e+00 2.028629e+00 2.602912e+00 2.768952e+00 1.361512e+00 2.643559e+00 1.392889e+00 1.601973e+00 1.317071e+00 8.962501e-01 3.403902e-01 8.991244e-02 2.138223e-01 4.977731e-01 4.985949e-01 2.964435e-01 2.887299e-01 2.904375e-01 4.589430e-01 1.889451e-01 2.193480e-01 2.290438e-01 1.729127e-01 4.704896e-02
<GCONST> 9.645567e+01
<MIXTURE> 6 1.084000e-01
<MEAN> 39
 -9.235168e+00 -3.055318e+00 9.332358e+00 -8.929057e+00 1.211696e-01 5.408158e+00 2.040293e-02 4.186644e+00 2.072519e+00 2.628944e+00 6.988736e-01 1.052853e+00 -1.416069e+00 -4.657645e-01 -6.886193e-01 8.850269e-01 -4.898995e-01 -2.860068e-01 5.121890e-01 -4.496073e-01 -3.489581e-01 7.911532e-02 -1.830786e-01 1.720938e-01 2.549268e-01 2.653269e-01 2.542289e-01 -5.158469e-02 -3.169379e-01 3.808247e-01 -2.349385e-01 -2.165893e-01 1.140302e-01 -4.019111e-01 -8.701940e-02 5.467219e-02 -2.459198e-02 1.186340e-01 5.571439e-02
<VARIANCE> 39
 5.243393e+00 5.529926e+00 9.202593e+00 3.493224e+01 1.694651e+01 2.369386e+01 1.416492e+01 2.552333e+01 1.269907e+01 1.088740e+01 9.293074e+00 9.483476e+00 2.565165e+00 4.202191e-01 6.895135e-01 8.446449e-01 1.220199e+00 1.269443e+00 1.297453e+00 1.468019e+00 2.326129e+00 1.016905e+00 5.994917e-01 1.060684e+00 6.959004e-01 2.781873e-01 5.503907e-02 1.662216e-01 1.746965e-01 2.530779e-01 1.228353e-01 1.884716e-01 2.539151e-01 3.040658e-01 2.003774e-01 1.218996e-01 1.425991e-01 8.970768e-02 3.796977e-02
<GCONST> 7.601149e+01
<MIXTURE> 7 1.100102e-01
<MEAN> 39
 -1.976882e+00 3.346868e+00 7.839188e+00 -7.265353e-01 1.853640e+00 3.478225e+00 1.253224e+00 -1.869269e+00 -3.011998e+00 -3.957748e-01 -4.112099e+00 -1.895858e+00 -3.351071e-01 -2.372619e+00 -1.564242e+00 1.999678e+00 -1.987454e+00 -2.495400e-01 -6.414140e-02 3.546316e-01 9.586606e-01 2.485636e-01 8.241569e-01 -3.082215e-01 2.525280e-01 -4.281439e-02 -1.239107e-02 -4.693570e-01 3.621470e-02 -4.174917e-01 -1.334475e-01 -3.451350e-01 -6.424043e-01 -3.861906e-01 -1.958494e-01 -3.855970e-02 -5.027048e-02 -1.917747e-03 3.106615e-01
<VARIANCE> 39
 1.374663e+01 4.563757e+00 1.622810e+01 2.987427e+01 2.872405e+01 1.638943e+01 1.324789e+01 1.726431e+01 1.016849e+01 2.048533e+01 1.406920e+01 1.017902e+01 4.815341e+00 2.732667e-01 1.033064e+00 1.325372e+00 1.215977e+00 1.781278e+00 1.980532e+00 1.453421e+00 1.739590e+00 1.513470e+00 2.212556e+00 1.341888e+00 1.566231e+00 2.681908e-01 6.235594e-02 7.847960e-02 2.315174e-01 1.405671e-01 2.210253e-01 2.567345e-01 1.891586e-01 1.978899e-01 2.848008e-01 3.963766e-01 2.889140e-01 1.481934e-01 2.083811e-02
<GCONST> 8.339526e+01
<MIXTURE> 8 1.121092e-01
<MEAN> 39
 -6.990376e+00 -1.860441e+00 1.442316e+01 -6.995743e+00 2.205706e+00 3.932878e+00 -3.658263e+00 -4.456225e+00 -4.778111e+00 -2.792885e+00 -6.329677e+00 -1.034411e+00 1.839558e+00 -1.236639e+00 -1.956550e+00 1.448544e+00 -1.225351e+00 -5.219934e-01 2.854936e-01 -1.589454e-01 1.132632e-01 4.171728e-01 3.370657e-01 -3.393608e-01 -2.967536e-01 5.895010e-01 3.527687e-01 -2.868888e-01 -5.975097e-01 4.562233e-01 -2.557754e-01 -5.886182e-02 9.731634e-02 -1.942046e-01 1.043703e-01 2.687774e-01 5.365565e-01 2.042778e-01 1.007341e-01
<VARIANCE> 39
 3.031662e+00 9.686863e+00 8.214280e+00 2.970167e+01 1.699388e+01 3.308733e+01 1.452065e+01 2.031473e+01 2.917023e+01 2.019778e+01 1.082703e+01 1.379038e+01 5.534678e+00 4.613515e-01 1.026474e+00 1.588541e+00 2.474498e+00 1.518326e+00 2.208583e+00 7.699172e-01 1.380758e+00 1.754392e+00 1.537941e+00 1.621799e+00 8.589810e-01 2.531726e-01 4.408479e-02 1.076180e-01 1.605760e-01 2.573841e-01 1.721019e-01 3.776478e-01 1.728118e-01 2.540364e-01 2.842464e-01 3.225973e-01 1.790771e-01 1.408862e-01 2.425063e-02
<GCONST> 8.332719e+01
<STATE> 3
<NUMMIXES> 8
<MIXTURE> 1 1.398954e-01
<MEAN> 39
 -1.041423e+01 -8.692673e+00 1.283530e+01 -7.743765e+00 -2.794176e+00 8.225512e+00 -5.806177e-01 -3.092361e-03 2.596651e+00 4.149912e+00 8.597361e-01 1.879577e+00 5.700597e-01 -8.456247e-02 -8.870409e-01 -2.201229e-01 7.645962e-01 -1.728011e-01 3.839598e-01 3.603931e-01 1.154213e-01 5.235586e-01 5.352976e-01 2.646490e-01 -2.122917e-02 1.183533e-01 1.598651e-01 2.934991e-01 -2.568282e-01 3.520253e-01 2.576647e-01 -1.599053e-01 4.295699e-02 8.907384e-02 -2.011258e-01 -1.788386e-01 -1.713619e-01 -1.905735e-01 -1.396825e-01
<VARIANCE> 39
 2.040594e+00 1.156863e+01 6.725028e+00 1.480419e+01 1.445172e+01 2.150767e+01 2.524786e+01 2.229323e+01 1.936399e+01 1.532210e+01 9.927304e+00 1.133658e+01 2.495415e+00 1.907015e-01 2.794119e-01 4.816876e-01 1.035185e+00 9.185950e-01 8.239957e-01 1.339632e+00 1.423036e+00 1.396945e+00 9.841481e-01 8.097097e-01 1.031866e+00 9.506735e-02 4.806299e-02 1.082252e-01 1.721024e-01 2.077730e-01 1.247249e-01 2.449469e-01 2.996973e-01 3.250906e-01 2.753739e-01 2.418040e-01 1.887043e-01 2.065677e-01 1.805389e-02
<GCONST> 7.299126e+01
<MIXTURE> 2 1.672781e-01
<MEAN> 39
 -8.345016e+00 -1.120794e+01 1.359537e+01 -7.579007e+00 -2.589190e+00 2.880979e+00 -2.969181e+00 -4.104006e+00 -1.563784e+00 2.622150e+00 -1.802329e+00 8.646957e-01 4.499364e+00 6.479686e-01 -1.127495e+00 -1.678527e+00 1.770395e+00 -4.532702e-02 -1.461055e-01 -1.164005e-01 1.666969e-01 2.099115e-02 2.625678e-01 1.319649e+00 4.806753e-01 1.265555e-02 7.395353e-01 1.238925e+00 -6.215414e-01 5.405347e-01 3.240222e-01 1.156281e-01 -7.980715e-02 2.425459e-02 -2.169817e-01 -5.574899e-01 -1.115616e-01 -1.490557e-01 -3.187999e-01
<VARIANCE> 39
 6.507106e+00 1.085619e+01 1.397509e+01 3.753979e+01 1.715974e+01 2.093137e+01 2.166496e+01 2.386575e+01 2.536657e+01 1.724440e+01 1.692159e+01 1.234262e+01 5.296037e+00 5.090615e-01 1.211446e+00 1.320653e+00 1.315115e+00 1.468338e+00 1.743448e+00 1.398678e+00 1.731427e+00 1.366660e+00 1.556787e+00 1.328441e+00 1.046397e+00 2.754932e-01 1.968059e-01 2.003299e-01 2.410553e-01 2.481918e-01 3.219351e-01 3.370367e-01 4.582228e-01 4.019108e-01 3.232863e-01 2.488102e-01 2.663496e-01 1.630510e-01 4.507849e-02
<GCONST> 9.038856e+01
<MIXTURE> 3 8.713613e-02
<MEAN> 39
 -6.570142e+00 -1.400083e+01 7.997056e+00 -3.653646e+00 -2.218717e+00 3.556224e+00 -4.578840e+00 -3.482885e+00 -4.796692e-01 2.643785e+00 1.394192e+00 2.274608e+00 4.116643e+00 2.370241e+00 2.179266e+00 -1.811791e+00 2.827119e+00 9.634938e-01 2.462401e-01 -7.024111e-01 -6.726090e-01 -5.626191e-01 -1.090810e+00 2.216700e-01 -4.665163e-01 -3.422233e-01 7.808641e-01 1.556232e+00 1.966230e-01 -6.210086e-02 3.122514e-01 1.341075e-02 -1.717214e-01 -3.167945e-01 -2.702362e-01 -5.389935e-01 -5.425155e-01 -4.156225e-01 1.977412e-02
<VARIANCE> 39
 5.048305e+00 7.261683e+00 1.525985e+01 3.366541e+01 1.433870e+01 1.669656e+01 1.387614e+01 1.451423e+01 1.969744e+01 1.862765e+01 2.748145e+01 1.804625e+01 5.398210e+00 9.122626e-01 2.173265e+00 9.982159e-01 1.050915e+00 1.267391e+00 1.396877e+00 1.394035e+00 1.720161e+00 1.571026e+00 1.265388e+00 1.464705e+00 1.234706e+00 1.665960e-01 1.347526e-01 1.888859e-01 4.019471e-01 1.643820e-01 3.508507e-01 2.622008e-01 3.439792e-01 3.357027e-01 3.078902e-01 3.446999e-01 3.267764e-01 1.927446e-01 6.585667e-02
<GCONST> 8.910629e+01
<MIXTURE> 4 1.932778e-01
<MEAN> 39
 -1.202126e+01 -7.926056e+00 1.337706e+01 -9.408762e+00 1.203553e+00 8.938352e+00 4.145166e-01 2.484084e+00 -3.260124e-01 3.003263e+00 -9.098360e-01 1.816544e+00 -1.769940e-01 1.947902e-01 -1.068336e-03 -3.325397e-01 3.763951e-01 -1.574745e-01 1.803486e-01 6.244797e-02 9.042487e-02 3.251401e-01 1.054859e-01 2.564865e-01 1.148593e-01 -9.556824e-02 4.937575e-02 7.950606e-02 -5.697937e-02 7.734729e-02 -1.465241e-02 -6.035120e-02 6.010973e-02 6.743303e-02 8.357148e-02 -9.908042e-04 3.581153e-02 4.552666e-03 -2.227363e-02
<VARIANCE> 39
 2.144395e+00 5.023218e+00 5.616271e+00 4.850869e+00 8.991931e+00 7.943897e+00 8.053950e+00 7.690004e+00 1.154845e+01 8.608961e+00 1.139924e+01 8.599051e+00 1.253108e+00 9.004242e-02 2.536444e-01 2.903752e-01 4.148758e-01 5.461991e-01 5.696406e-01 8.187272e-01 9.185717e-01 8.998957e-01 6.569970e-01 5.964698e-01 6.469248e-01 3.605825e-02 1.683654e-02 3.901910e-02 4.993686e-02 8.296733e-02 1.117676e-01 1.078125e-01 1.516299e-01 1.691250e-01 1.763072e-01 1.359071e-01 1.125218e-01 1.304137e-01 6.235019e-03
<GCONST> 4.908854e+01
<MIXTURE> 5 1.159815e-01
<MEAN> 39
 -1.365217e+01 -5.596808e+00 1.410008e+01 -1.102477e+01 6.016601e+00 7.446225e+00 3.588179e+00 5.072744e+00 2.257349e+00 5.043420e+00 -1.754224e+00 5.921916e-01 -4.205432e-01 -7.274285e-02 -6.709654e-01 3.799212e-01 -1.952700e-01 -8.507245e-01 5.538465e-01 -1.646393e-01 -3.406504e-01 2.574440e-01 7.915653e-02 1.018908e-01 1.474823e-01 1.951836e-01 1.628375e-01 2.365174e-02 -2.430375e-01 3.064442e-01 -1.525979e-01 -9.994595e-02 -8.849248e-02 -2.764311e-01 -1.700692e-01 -1.128093e-01 -5.811154e-02 -7.773201e-02 -5.174881e-02
<VARIANCE> 39
 1.838512e+00 3.467526e+00 8.968780e+00 8.763828e+00 2.023914e+01 1.365247e+01 1.070364e+01 8.149202e+00 6.371124e+00 5.499594e+00 8.427357e+00 8.949184e+00 1.712111e+00 1.127617e-01 2.172760e-01 5.501028e-01 1.048523e+00 6.370892e-01 9.864581e-01 6.747376e-01 7.108352e-01 6.955466e-01 9.266427e-01 7.507166e-01 7.232151e-01 8.699041e-02 2.715579e-02 3.481860e-02 1.182289e-01 1.208295e-01 1.828154e-01 1.570669e-01 1.889900e-01 1.084193e-01 1.284814e-01 2.003817e-01 1.641471e-01 1.722968e-01 9.691945e-03
<GCONST> 5.693878e+01
<MIXTURE> 6 9.632351e-02
<MEAN> 39
 -8.454168e+00 -7.691785e+00 1.300454e+01 -7.570286e+00 -1.456519e+00 7.056275e+00 -9.869418e-01 1.735603e+00 -4.358040e-01 3.661852e+00 -9.768502e-01 -1.685109e-02 1.329904e+00 5.206482e-01 -1.101041e+00 -3.810105e-01 -1.097274e-01 -9.220904e-01 -2.306307e-01 -5.081851e-01 -1.134432e+00 -4.957078e-01 1.431601e-01 6.832279e-01 1.171396e-01 6.991491e-01 5.494849e-01 7.686326e-01 -1.180740e+00 6.618852e-01 2.042019e-01 -4.230249e-01 2.114792e-01 -2.221296e-01 8.636852e-02 -5.372200e-01 1.050547e-01 6.112926e-02 -3.016694e-01
<VARIANCE> 39
 1.160831e+01 2.813949e+01 1.103917e+01 4.404636e+01 4.122001e+01 4.549620e+01 3.111776e+01 2.466603e+01 2.656900e+01 1.829686e+01 1.597118e+01 9.495534e+00 8.530701e+00 1.473553e+00 2.623378e+00 2.507239e+00 2.474488e+00 1.698413e+00 3.449290e+00 2.408402e+00 1.957286e+00 2.330827e+00 2.429965e+00 1.918936e+00 1.649264e+00 9.872721e-01 3.078683e-01 5.166855e-01 3.680698e-01 4.757459e-01 4.523668e-01 6.288859e-01 3.289523e-01 6.540478e-01 3.293467e-01 3.040965e-01 3.565840e-01 2.097524e-01 1.094652e-01
<GCONST> 1.070730e+02
<MIXTURE> 7 1.066472e-01
<MEAN> 39
 -1.160247e+01 -8.319895e+00 1.596080e+01 -8.724209e+00 1.085696e+00 5.718849e+00 -1.016220e+00 -8.853613e-01 -4.555503e-01 3.365104e+00 -1.939419e+00 8.450571e-01 1.645673e+00 2.954242e-01 -1.051307e+00 -4.587328e-01 6.185933e-01 -6.658481e-01 -1.549147e-01 -4.877602e-01 -7.969730e-01 -9.833352e-02 1.562658e-01 6.770055e-01 1.184008e-01 3.661642e-01 4.282478e-01 3.537962e-01 -7.149936e-01 5.853927e-01 3.892248e-02 -2.239404e-01 -2.041049e-02 1.303401e-01 -6.036952e-02 -1.455893e-01 1.244539e-01 -4.085365e-02 -1.967249e-01
<VARIANCE> 39
 2.280452e+00 1.083128e+01 9.102373e+00 9.931930e+00 1.630090e+01 9.644878e+00 1.063689e+01 1.603940e+01 1.490318e+01 1.285688e+01 1.659938e+01 1.297771e+01 3.142240e+00 4.300319e-01 1.498087e+00 8.575258e-01 7.346592e-01 1.245872e+00 1.600465e+00 1.068590e+00 1.267507e+00 1.046598e+00 9.644098e-01 9.206989e-01 9.249061e-01 3.693695e-01 3.809977e-02 9.929128e-02 1.544126e-01 1.110466e-01 2.125921e-01 2.159419e-01 1.428816e-01 2.126078e-01 2.330700e-01 2.101819e-01 2.182903e-01 1.628152e-01 2.757867e-02
<GCONST> 7.414041e+01
<MIXTURE> 8 9.345935e-02
<MEAN> 39
 -8.989638e+00 -8.991976e+00 1.006836e+01 -4.280538e+00 -2.079189e+00 4.687274e+00 -5.427225e-02 -7.517881e-01 -2.376040e-01 4.520036e+00 1.425825e+00 1.900246e+00 5.493211e-01 1.786741e+00 1.441117e+00 -1.405482e+00 1.720385e+00 -9.005858e-02 -1.012763e+00 -9.302848e-01 -9.032223e-01 -9.938310e-01 -1.534371e+00 1.316756e-01 -2.335008e-01 -1.114635e-01 8.160242e-01 1.137390e+00 -2.689511e-01 -7.815569e-02 -3.072303e-02 -6.008236e-01 -6.047370e-01 -4.153020e-01 -3.861264e-01 -7.723616e-01 -5.608766e-01 -2.718361e-01 6.774852e-02
<VARIANCE> 39
 2.581299e+00 9.616834e+00 1.157904e+01 2.131659e+01 9.109489e+00 1.832512e+01 1.549869e+01 1.219551e+01 2.544460e+01 1.883294e+01 9.078005e+00 1.268054e+01 4.742014e+00 1.016398e+00 1.152255e+00 1.156475e+00 9.282095e-01 1.318541e+00 1.498569e+00 1.983467e+00 1.442238e+00 1.020177e+00 1.888165e+00 1.519067e+00 1.310852e+00 2.227412e-01 1.272203e-01 1.194437e-01 3.002339e-01 1.727530e-01 2.518021e-01 2.363331e-01 1.628260e-01 3.212838e-01 2.393701e-01 2.189842e-01 2.670613e-01 2.972686e-01 4.861683e-02
<GCONST> 8.361153e+01
<STATE> 4
<NUMMIXES> 8
<MIXTURE> 1 1.026096e-01
<MEAN> 39
 -6.088555e+00 -3.646570e+00 4.270319e+00 -2.010141e+00 9.870400e-02 6.339408e+00 9.510919e-01 4.381820e-01 5.886332e-02 -5.545619e-01 2.196110e+00 2.279893e+00 -1.639892e+00 5.635442e-01 1.736544e+00 -1.548650e+00 1.310111e+00 7.872306e-01 -5.759460e-01 8.495289e-01 9.930840e-01 7.895714e-01 -4.998753e-01 3.461304e-01 5.878334e-02 -9.378154e-01 -7.562854e-02 1.288597e-01 3.413570e-01 -1.010368e-01 -2.795205e-02 -1.794600e-01 8.251354e-02 2.571381e-01 2.644561e-01 3.592047e-01 -2.637367e-01 -3.034039e-01 1.972229e-02
<VARIANCE> 39
 7.150084e+00 2.000591e+01 1.308418e+01 1.437832e+01 1.274768e+01 2.543735e+01 1.757143e+01 2.273096e+01 1.965046e+01 1.334398e+01 8.130928e+00 7.225490e+00 5.389735e+00 3.119156e-01 9.699452e-01 1.114476e+00 9.452655e-01 1.062253e+00 1.166662e+00 1.076439e+00 1.177091e+00 1.915675e+00 1.559446e+00 1.183141e+00 1.195590e+00 2.893381e-01 5.665039e-02 2.589274e-01 2.683141e-01 2.597944e-01 2.492579e-01 4.991461e-01 2.669584e-01 3.509202e-01 3.386741e-01 2.835116e-01 1.717995e-01 1.832727e-01 6.880730e-02
<GCONST> 8.466948e+01
<MIXTURE> 2 9.598239e-02
<MEAN> 39
 -3.534112e+00 -2.669207e+00 9.510089e+00 7.437951e+00 3.065953e+00 5.112995e+00 -3.646764e+00 -5.313162e+00 -5.368389e-01 -8.028354e-01 -3.018997e+00 -4.537441e+00 -2.102371e-01 2.159784e+00 3.416774e+00 1.909873e-01 2.230235e+00 1.903158e+00 -8.590733e-01 -1.300579e+00 -1.143265e+00 -1.071086e+00 -2.071345e+00 -1.228039e+00 -1.355456e+00 -1.419356e-03 -1.608904e-01 -3.088350e-01 -6.358630e-03 -5.946050e-01 -3.970863e-02 -6.191656e-02 -1.020200e-01 1.113775e-01 1.007410e-01 3.404584e-01 2.215193e-01 3.208445e-01 1.465973e-01
<VARIANCE> 39
 6.227599e+00 1.779614e+01 1.233094e+01 1.265776e+01 1.133717e+01 1.199246e+01 1.999150e+01 2.286950e+01 1.209911e+01 1.323685e+01 1.726796e+01 1.341041e+01 2.685591e+00 4.635029e-01 1.342018e+00 1.139666e+00 1.009297e+00 6.849213e-01 1.838233e+00 7.783566e-01 9.314498e-01 1.707432e+00 2.073536e+00 9.582819e-01 1.659897e+00 2.425787e-01 1.003276e-01 2.526254e-01 2.013224e-01 2.061145e-01 1.697433e-01 2.926813e-01 2.357529e-01 2.111757e-01 2.534309e-01 2.885836e-01 2.243341e-01 1.938215e-01 3.019152e-02
<GCONST> 8.175735e+01
<MIXTURE> 3 1.570867e-01
<MEAN> 39
 4.433444e+00 3.026381e+00 5.436471e+00 -5.148441e+00 -5.663720e+00 -2.218850e+00 -7.719737e+00 -5.792237e+00 -5.575230e+00 -3.825155e+00 -3.933154e-01 1.209939e+00 4.021850e+00 3.463825e+00 2.723905e+00 -2.200882e+00 -5.236337e-01 -1.183225e+00 -1.979161e+00 -1.597859e+00 -1.701949e+00 -1.026344e+00 -1.209680e+00 -5.130419e-01 -2.210098e-01 8.221542e-01 -7.921833e-01 -8.761325e-01 4.204410e-02 -2.701231e-01 2.196000e-01 2.038884e-01 5.586846e-01 2.667007e-01 3.174593e-01 4.880894e-01 -3.051975e-02 9.109630e-02 -8.173544e-02
<VARIANCE> 39
 1.427266e+01 1.069640e+01 1.447262e+01 1.893810e+01 1.619038e+01 1.856236e+01 1.565439e+01 1.624300e+01 2.133032e+01 1.372364e+01 1.263812e+01 9.990353e+00 1.150028e+01 1.071586e+00 1.492457e+00 1.628515e+00 1.155138e+00 1.775213e+00 1.131215e+00 1.448476e+00 2.627751e+00 2.031769e+00 1.997169e+00 1.852794e+00 1.564483e+00 3.697064e-01 1.398311e-01 1.584310e-01 1.913891e-01 2.035878e-01 2.333875e-01 3.758522e-01 2.511498e-01 2.558434e-01 2.423391e-01 2.480528e-01 1.558395e-01 1.175958e-01 4.365648e-02
<GCONST> 8.895221e+01
<MIXTURE> 4 1.627519e-01
<MEAN> 39
 -7.867681e+00 -1.649883e+00 2.164221e+00 -1.101074e-01 1.630139e+00 6.256062e+00 3.668225e+00 4.552257e+00 3.858780e+00 1.620151e-02 1.594421e+00 1.578993e+00 -4.837742e+00 2.426479e-01 6.984267e-01 -1.199522e+00 8.337768e-01 3.260607e-01 -8.999046e-01 8.274047e-01 6.977396e-01 3.125651e-01 3.539400e-01 2.622665e-01 -9.596187e-03 -5.044780e-01 -6.835879e-02 -1.779146e-01 2.826536e-01 -1.619886e-01 -7.800972e-02 1.157425e-02 -9.730109e-03 -9.823648e-02 -1.385073e-01 1.898307e-01 -7.423603e-02 -3.169282e-02 1.417912e-01
<VARIANCE> 39
 1.512880e+00 3.189207e+00 5.070256e+00 3.758763e+00 7.171213e+00 6.842651e+00 8.211443e+00 9.733191e+00 7.142176e+00 7.477484e+00 7.795708e+00 7.279078e+00 1.009879e+00 1.173888e-01 2.331128e-01 4.267064e-01 3.701141e-01 5.213420e-01 5.191718e-01 7.294441e-01 8.745047e-01 8.332269e-01 9.041229e-01 8.769639e-01 7.008906e-01 6.969389e-02 1.055307e-02 3.621127e-02 4.421099e-02 6.922349e-02 1.078580e-01 1.046063e-01 1.407498e-01 2.174288e-01 1.241776e-01 1.400405e-01 1.673233e-01 1.070277e-01 1.031199e-02
<GCONST> 4.758614e+01
<MIXTURE> 5 1.684287e-01
<MEAN> 39
 -3.013241e+00 -5.820690e+00 6.264669e+00 -2.522021e+00 -1.537852e+00 3.573009e+00 -2.270781e+00 -1.712637e+00 -2.697423e+00 -1.063436e+00 5.196439e-02 1.580591e+00 2.271122e+00 3.969332e+00 3.727369e+00 -2.089557e+00 5.728454e-01 -4.500633e-01 -1.036834e+00 -1.662133e+00 -1.652066e+00 -1.082602e+00 -1.682457e+00 -3.210147e-01 -4.162582e-01 5.473795e-01 3.773460e-01 4.072031e-01 -1.204403e-01 -6.941643e-01 -2.671300e-01 -4.818245e-01 -2.662988e-01 -3.858350e-01 -1.217578e-01 2.540611e-02 -3.088422e-01 -7.960836e-02 2.482858e-01
<VARIANCE> 39
 1.440579e+01 2.333686e+01 1.905748e+01 1.541604e+01 1.669298e+01 9.669198e+00 1.707823e+01 2.359402e+01 1.862941e+01 9.507132e+00 1.484409e+01 9.249915e+00 9.493128e+00 5.572296e-01 8.272240e-01 1.433033e+00 1.930469e+00 2.466100e+00 2.594736e+00 2.040504e+00 2.056141e+00 1.633416e+00 1.838487e+00 2.004764e+00 1.484174e+00 2.987489e-01 2.092865e-01 4.388464e-01 2.356052e-01 1.537595e-01 1.743235e-01 1.985726e-01 2.250373e-01 5.470873e-01 2.958510e-01 2.187886e-01 2.790607e-01 1.863076e-01 6.138827e-02
<GCONST> 9.147668e+01
<MIXTURE> 6 7.753287e-02
<MEAN> 39
 -9.694926e+00 -5.774948e+00 7.239206e+00 -1.991137e+00 -8.648735e-01 9.053225e+00 3.161749e+00 2.150844e+00 4.326657e+00 2.746768e+00 -2.107518e+00 -6.682204e-01 -3.023127e+00 9.804219e-01 1.414097e+00 -1.634797e+00 1.657133e+00 6.451973e-01 -9.847098e-01 1.333894e-02 -3.001205e-02 -2.484789e-01 -1.017620e+00 2.925124e-01 -1.668752e-01 -5.204207e-01 1.118994e-01 3.262436e-01 8.965307e-02 1.348790e-02 4.165023e-01 -2.860362e-01 -6.013605e-02 1.415237e-01 -2.212009e-01 -5.824133e-02 2.052504e-01 1.683045e-01 4.854991e-02
<VARIANCE> 39
 1.993008e+00 3.595844e+00 4.010435e+00 7.767407e+00 4.809317e+00 6.155120e+00 1.335685e+01 1.044054e+01 1.033182e+01 1.089257e+01 7.469441e+00 1.216925e+01 8.761845e-01 2.995023e-01 5.134453e-01 3.285860e-01 5.285380e-01 5.892116e-01 6.119565e-01 1.126668e+00 1.470013e+00 1.122502e+00 9.150285e-01 8.428442e-01 7.507766e-01 1.051164e-01 3.538470e-02 1.246929e-01 7.574596e-02 1.170811e-01 7.966512e-02 1.288197e-01 3.003720e-01 2.183989e-01 2.065188e-01 2.029585e-01 1.377722e-01 1.725550e-01 1.244596e-02
<GCONST> 5.894024e+01
<MIXTURE> 7 1.479259e-01
<MEAN> 39
 -9.920186e+00 -6.072431e+00 1.008599e+01 -4.860054e+00 1.226483e-01 8.925751e+00 1.237998e+00 3.777662e+00 2.819227e+00 2.774075e+00 9.146289e-01 1.392228e+00 -1.590498e+00 3.849943e-01 4.303550e-01 -1.316778e+00 1.075071e+00 -1.586984e-01 -1.706396e-01 1.497704e-01 -3.250235e-02 4.136998e-01 -7.695774e-01 -1.181331e-01 -2.274487e-01 -5.322560e-01 7.293386e-02 2.200121e-01 -2.446415e-01 9.083796e-02 9.156513e-02 -1.986214e-01 8.283063e-02 -6.570071e-02 -5.411383e-02 -6.082959e-02 -3.951235e-02 1.366511e-02 -9.715602e-02
<VARIANCE> 39
 3.410701e+00 6.870356e+00 6.462111e+00 6.820535e+00 1.132647e+01 7.874262e+00 4.850805e+00 1.390252e+01 7.562039e+00 1.079077e+01 1.206161e+01 8.368166e+00 1.255814e+00 1.183607e-01 3.736819e-01 3.896687e-01 6.568916e-01 7.988569e-01 6.782305e-01 8.604647e-01 1.290455e+00 1.082247e+00 8.088174e-01 8.916311e-01 7.756789e-01 9.627079e-02 1.794445e-02 4.432879e-02 3.561354e-02 1.319885e-01 1.730990e-01 1.007025e-01 1.763623e-01 2.148540e-01 1.801069e-01 2.110987e-01 1.605934e-01 1.325622e-01 9.524521e-03
<GCONST> 5.713939e+01
<MIXTURE> 8 8.768144e-02
<MEAN> 39
 -6.541735e+00 -5.782178e+00 8.601761e+00 -2.785211e+00 -1.259089e+00 4.539449e+00 -1.529826e-01 -1.055795e+00 -2.194344e+00 8.617318e-01 -1.657228e+00 -9.038790e-01 4.220482e-01 6.139047e-01 1.494478e+00 -1.717665e+00 1.501689e+00 -3.573510e-02 4.931652e-01 5.679165e-01 9.585540e-01 3.569439e-01 -1.358177e+00 -2.356167e-01 -5.857027e-01 -1.154196e+00 1.521751e-01 2.719722e-01 5.504176e-02 2.089503e-01 3.782293e-01 -1.148108e-01 -8.975420e-02 -1.355774e-01 2.934783e-01 5.641668e-02 -8.918916e-02 8.751175e-02 5.376758e-02
<VARIANCE> 39
 8.870457e+00 3.595104e+01 1.187865e+01 3.507655e+01 1.998433e+01 2.625518e+01 1.621808e+01 2.550130e+01 1.694760e+01 2.171424e+01 1.947429e+01 6.163723e+00 6.231953e+00 4.353264e-01 1.525405e+00 2.135413e+00 1.538712e+00 1.066469e+00 1.358432e+00 1.321367e+00 1.591728e+00 1.048647e+00 1.404467e+00 1.448550e+00 4.674277e-01 4.448906e-01 1.894915e-01 7.663823e-01 2.054172e-01 3.330716e-01 2.018094e-01 4.484635e-01 3.336683e-01 4.214543e-01 2.967990e-01 5.071576e-01 4.031900e-01 3.017230e-01 2.056911e-01
<GCONST> 9.481202e+01
<TRANSP> 5
 0.000000e+00 1.000000e+00 0.000000e+00 0.000000e+00 0.000000e+00
 0.000000e+00 8.115460e-01 1.884540e-01 0.000000e+00 0.000000e+00
 0.000000e+00 0.000000e+00 7.927942e-01 2.072058e-01 0.000000e+00
 0.000000e+00 0.000000e+00 0.000000e+00 7.158674e-01 2.841326e-01
 0.000000e+00 0.000000e+00 0.000000e+00 0.000000e+00 0.000000e+00
<ENDHMM>
~h "d"
<BEGINHMM>
<NUMSTATES> 5
<STATE> 2
<NUMMIXES> 8
<MIXTURE> 1 9.998868e-02
<MEAN> 39
 -2.407847e+00 6.454837e+00 4.780297e+00 7.412666e+00 5.773759e+00 4.228408e+00 5.990692e+00 4.337983e+00 2.037592e+00 -1.907892e-01 -4.544259e-01 -8.876392e-01 -3.854738e+00 -1.528568e-01 -5.478660e-02 1.481006e-01 2.914118e-01 3.691298e-01 3.171344e-01 5.455188e-01 4.461437e-01 7.493538e-02 8.760456e-02 -4.117892e-02 4.022121e-02 -9.389727e-02 3.494086e-02 -1.265431e-01 -1.367216e-01 -1.759631e-01 -2.342889e-01 -1.563004e-01 -1.254921e-01 -1.440388e-01 -2.978936e-02 9.724402e-03 -4.582406e-02 1.837509e-02 5.729518e-02
<VARIANCE> 39
 3.341821e+00 4.650715e+00 3.987243e+00 3.853297e+00 6.602601e+00 4.706761e+00 8.917833e+00 9.057120e+00 7.107024e+00 6.195734e+00 5.084347e+00 8.302068e+00 1.654360e+00 1.832131e-01 2.421551e-01 2.181134e-01 3.191133e-01 6.178682e-01 7.016051e-01 5.153522e-01 6.511294e-01 6.920472e-01 6.566510e-01 5.081301e-01 6.827613e-01 5.137410e-02 3.365533e-02 4.781603e-02 5.715951e-02 6.659333e-02 1.473731e-01 1.685196e-01 1.667208e-01 1.414879e-01 8.547325e-02 9.997813e-02 9.692875e-02 9.271812e-02 1.660835e-02
<GCONST> 4.747019e+01
<MIXTURE> 2 1.302081e-01
<MEAN> 39
 4.051255e+00 -2.166384e+00 5.089113e-01 3.217771e+00 1.373384e+00 1.270203e+00 -4.314395e-01 -2.819539e+00 -2.806593e+00 -3.648195e+00 -2.707313e+00 8.101210e-01 3.872468e+00 1.885227e+00 -1.612959e+00 -8.758888e-01 -7.614720e-01 -7.543726e-01 -1.333378e+00 -2.427008e+00 -2.180309e+00 -2.047252e+00 -1.521266e+00 -4.772171e-01 2.951049e-01 2.044672e+00 3.942931e-01 5.360035e-01 -2.791687e-01 -5.088235e-01 -2.177633e-01 -4.239915e-01 -4.144490e-01 -4.108799e-02 -2.521701e-01 -1.248439e-01 1.189633e-01 -3.140743e-01 7.218330e-02
<VARIANCE> 39
 1.265879e+01 3.198673e+01 2.908311e+01 2.444117e+01 2.731011e+01 2.683012e+01 3.532500e+01 4.312346e+01 2.889136e+01 2.338788e+01 2.813152e+01 1.820292e+01 1.217993e+01 1.747403e+00 3.162415e+00 2.569191e+00 2.433601e+00 2.894453e+00 2.321362e+00 3.330355e+00 2.714445e+00 2.510535e+00 2.551551e+00 2.800909e+00 2.741497e+00 1.612274e+00 1.778201e-01 7.490958e-01 4.365625e-01 4.087671e-01 4.858087e-01 4.844033e-01 6.741874e-01 6.293682e-01 5.816019e-01 4.881581e-01 5.119482e-01 4.841102e-01 1.811867e-01
<GCONST> 1.150435e+02
<MIXTURE> 3 1.452434e-01
<MEAN> 39
 -3.499934e-01 7.282793e+00 5.213047e+00 8.341988e+00 6.844192e+00 4.305655e+00 3.392486e+00 3.571460e-01 -1.611582e+00 -2.300320e+00 -1.676431e+00 -1.824456e+00 -2.680240e+00 -1.105565e-01 -9.925387e-01 -1.878907e-01 -3.534069e-02 -6.475507e-01 -2.598276e-01 2.823875e-01 3.445227e-01 5.586138e-01 6.052802e-01 5.542137e-02 1.074615e-01 2.878734e-01 6.218188e-01 -7.859535e-01 -4.164895e-01 -3.465851e-01 -2.775607e-01 -4.691195e-01 -1.114126e+00 -9.672652e-01 -3.127771e-01 -5.792209e-02 -3.890026e-02 1.562027e-01 7.350958e-01
<VARIANCE> 39
 4.632470e+00 6.556635e+00 6.153436e+00 6.680198e+00 8.941556e+00 7.004651e+00 1.711205e+01 2.005160e+01 1.365102e+01 1.130739e+01 9.309587e+00 8.961488e+00 3.553074e+00 3.802426e-01 1.337245e+00 9.423609e-01 9.482875e-01 1.176898e+00 1.074485e+00 1.441625e+00 1.349777e+00 1.255546e+00 1.121906e+00 9.968493e-01 8.761294e-01 3.238296e-01 7.017025e-02 2.594329e-01 2.106270e-01 3.186508e-01 4.490541e-01 2.848820e-01 4.488966e-01 4.479847e-01 3.323340e-01 3.323014e-01 2.876200e-01 2.687764e-01 7.063395e-02
<GCONST> 8.092342e+01
<MIXTURE> 4 1.421301e-01
<MEAN> 39
 1.691781e+00 6.954490e+00 2.314394e+00 4.554871e+00 4.493983e+00 2.975953e+00 1.240605e+00 -1.950435e+00 -2.664165e+00 -2.360551e+00 -6.457406e-01 -2.101947e-01 -1.393445e+00 -9.406146e-01 3.889406e-01 7.705024e-01 7.523111e-01 1.315848e-01 4.805466e-01 1.741674e+00 1.750917e+00 9.985480e-01 4.578335e-01 2.576000e-01 7.650921e-02 -7.737330e-01 2.423603e-01 -3.582160e-01 -1.259691e-01 -2.586577e-01 -2.591138e-01 -4.316603e-01 -6.520864e-01 -4.084807e-01 -1.700312e-01 6.699303e-03 -8.659395e-02 -9.553640e-03 3.328997e-01
<VARIANCE> 39
 4.669044e+00 6.344657e+00 9.177607e+00 1.891471e+01 1.973237e+01 7.847414e+00 1.668270e+01 1.966418e+01 1.443057e+01 1.530015e+01 1.373041e+01 1.381010e+01 2.386128e+00 1.559977e-01 3.980940e-01 6.382218e-01 1.132478e+00 1.317086e+00 9.217151e-01 8.692171e-01 1.351726e+00 1.008499e+00 1.386006e+00 8.751251e-01 6.913978e-01 1.160010e-01 5.014272e-02 1.270875e-01 1.176179e-01 1.516744e-01 2.935753e-01 2.151967e-01 2.595882e-01 3.300720e-01 2.128699e-01 2.548004e-01 2.378962e-01 1.773950e-01 3.512501e-02
<GCONST> 7.377027e+01
<MIXTURE> 5 1.104212e-01
<MEAN> 39
 4.410073e+00 6.456311e+00 -1.476110e+00 -1.016692e+00 -1.299402e+00 -3.608296e-03 3.709442e+00 1.887377e+00 4.549503e-01 -4.306954e-01 -2.928746e-01 -4.803044e-01 2.465304e-01 -3.829660e-01 -9.376673e-01 6.380109e-01 9.318802e-01 1.020733e-01 -2.386013e-01 -1.310213e-01 -2.111666e-01 -3.041511e-01 2.556746e-03 -1.992365e-01 5.278366e-03 1.897781e-01 4.645678e-01 -7.112406e-01 -1.577092e-01 1.256933e-02 2.457333e-01 -4.989913e-02 -1.140928e+00 -9.872890e-01 -7.188003e-01 -5.248548e-01 -4.342516e-01 -2.562735e-01 6.281146e-01
<VARIANCE> 39
 7.633979e+00 1.140068e+01 1.632666e+01 1.217371e+01 8.837432e+00 9.535589e+00 9.745284e+00 1.773534e+01 1.420946e+01 1.875757e+01 2.673281e+01 2.348681e+01 3.937283e+00 3.915903e-01 2.727962e+00 1.411474e+00 1.332136e+00 1.267318e+00 1.229472e+00 2.087173e+00 2.966332e+00 2.382386e+00 2.191470e+00 1.710491e+00 1.619489e+00 6.652675e-01 1.128897e-01 3.694263e-01 3.824208e-01 3.596486e-01 3.378436e-01 3.490065e-01 3.225864e-01 3.689450e-01 3.723634e-01 3.356507e-01 2.535448e-01 2.141827e-01 6.763922e-02
<GCONST> 9.253468e+01
<MIXTURE> 6 1.383016e-01
<MEAN> 39
 -2.458177e+00 5.223360e+00 4.039388e+00 6.887185e+00 5.653193e+00 4.586413e+00 6.170210e+00 4.256412e+00 1.882697e+00 3.499865e-01 -6.795380e-02 -5.456220e-01 -3.627558e+00 1.076753e+00 -2.013528e+00 -4.570113e-01 -7.111591e-01 -1.332279e+00 -1.006968e+00 -1.625562e+00 -1.794029e+00 -7.344060e-01 -1.973129e-01 -2.016415e-01 4.110987e-01 1.594264e+00 7.883272e-01 -1.972223e-01 -1.700344e-01 -3.442101e-01 -3.241219e-01 -4.402182e-01 -1.030624e+00 -1.010100e+00 -7.444902e-01 -5.297778e-01 -2.703156e-01 3.667096e-02 6.694838e-01
<VARIANCE> 39
 3.969001e+00 7.202834e+00 5.823633e+00 7.230082e+00 7.704566e+00 7.630458e+00 1.158465e+01 1.235429e+01 1.170667e+01 9.262349e+00 8.122159e+00 8.628798e+00 2.905584e+00 4.696063e-01 2.915942e+00 1.260955e+00 1.447152e+00 1.912092e+00 1.598079e+00 2.267994e+00 2.266664e+00 2.336309e+00 2.064369e+00 1.514289e+00 1.258628e+00 7.758699e-01 1.045876e-01 2.600730e-01 2.465202e-01 2.889325e-01 2.475955e-01 1.925113e-01 2.511041e-01 2.732323e-01 3.252797e-01 2.803771e-01 2.587387e-01 2.980509e-01 9.717051e-02
<GCONST> 8.418739e+01
<MIXTURE> 7 1.386465e-01
<MEAN> 39
 6.273496e+00 3.369567e+00 -2.237630e+00 1.480283e+00 3.693025e+00 4.935333e-01 -4.439680e+00 -8.234810e+00 -7.125216e+00 -3.345247e+00 -9.483250e-01 -3.207884e-01 2.896135e+00 -7.485759e-01 4.579848e-02 1.078720e+00 6.255047e-01 -4.360265e-01 3.011523e-01 8.692766e-01 5.373757e-01 5.313542e-01 1.438582e-01 -1.771552e-01 -2.089582e-02 -4.147457e-01 2.070651e-01 -4.998130e-01 -1.468516e-02 -2.479969e-01 -3.950014e-01 -4.994491e-01 -4.273864e-01 -1.054865e-01 -1.128028e-01 1.748815e-02 -1.372027e-01 -6.009168e-02 4.220404e-01
<VARIANCE> 39
 8.723128e+00 8.964067e+00 2.669547e+01 3.390250e+01 2.827183e+01 2.080730e+01 2.229257e+01 2.153322e+01 1.813035e+01 1.919092e+01 1.626553e+01 2.075202e+01 4.674081e+00 5.562180e-01 1.543987e+00 1.443326e+00 1.235792e+00 1.983157e+00 1.355956e+00 2.194067e+00 1.680922e+00 1.563938e+00 1.682527e+00 1.476448e+00 1.137742e+00 5.840840e-01 1.191267e-01 2.910610e-01 1.833227e-01 2.743657e-01 3.618665e-01 3.404506e-01 3.599617e-01 2.964361e-01 4.114694e-01 3.989353e-01 3.432984e-01 2.591191e-01 1.563467e-01
<GCONST> 9.551484e+01
<MIXTURE> 8 9.506028e-02
<MEAN> 39
 -7.460722e-01 7.238588e+00 3.284035e+00 4.240872e+00 2.669335e+00 2.085248e+00 3.835986e+00 1.308421e+00 -2.178312e+00 -3.050615e+00 -1.210655e+00 3.920481e-01 -3.012741e+00 -3.251368e-01 -9.446666e-02 2.616459e-01 3.964652e-01 1.184379e-01 -5.932897e-03 1.040751e-01 1.820811e-01 1.463406e-01 1.931537e-01 2.474782e-01 8.532908e-03 -1.797430e-01 2.120941e-01 -2.093545e-01 -1.753376e-01 -1.484666e-01 -4.505291e-02 -7.460075e-02 -3.272189e-01 -3.478944e-01 -9.406558e-02 -2.500033e-03 -4.806944e-02 -7.089422e-02 2.240683e-01
<VARIANCE> 39
 5.532964e+00 7.736237e+00 4.406233e+00 9.107435e+00 6.695128e+00 6.998943e+00 1.021549e+01 7.667371e+00 9.759766e+00 7.687846e+00 9.039577e+00 7.174130e+00 1.401285e+00 9.270565e-02 2.516487e-01 4.323581e-01 7.006836e-01 5.233802e-01 7.065710e-01 5.202317e-01 6.351333e-01 6.738486e-01 6.416225e-01 6.399589e-01 5.599905e-01 5.016866e-02 4.762078e-02 1.187379e-01 7.035746e-02 1.276528e-01 1.315260e-01 1.857801e-01 1.702818e-01 2.100112e-01 2.196313e-01 1.743333e-01 1.783632e-01 1.239925e-01 3.790420e-02
<GCONST> 5.697257e+01
<STATE> 3
<NUMMIXES> 8
<MIXTURE> 1 1.556716e-01
<MEAN> 39
 1.113593e+00 -6.819320e-01 4.787928e+00 6.233004e+00 3.204600e+00 2.993390e+00 -5.694761e-01 -3.750465e+00 -4.632403e-01 1.985102e+00 -1.766998e-01 -1.502952e+00 1.832090e+00 3.703966e-01 -1.724045e+00 1.112288e+00 9.342427e-01 3.284059e-01 2.878384e-02 -2.211250e+00 -2.001267e+00 -3.507360e-01 -1.251603e-01 -9.715101e-01 -9.645242e-01 1.183907e+00 8.132252e-02 3.202648e-01 -8.174332e-02 3.834723e-02 3.090475e-01 -2.607771e-03 -2.432071e-01 8.652925e-03 -9.095000e-02 -4.183059e-01 -2.011286e-01 -2.231292e-01 -1.045001e-01
<VARIANCE> 39
 1.066604e+01 1.388776e+01 3.467978e+01 3.289905e+01 2.527621e+01 1.603055e+01 2.430289e+01 3.075367e+01 2.538040e+01 1.802918e+01 1.638435e+01 1.120817e+01 9.010894e+00 1.347049e+00 2.052423e+00 2.213533e+00 2.252685e+00 2.010963e+00 1.213212e+00 3.696235e+00 4.812549e+00 2.483885e+00 2.480257e+00 1.880488e+00 2.689034e+00 7.590297e-01 1.345521e-01 4.021957e-01 4.590869e-01 2.710232e-01 3.010539e-01 3.102577e-01 9.350594e-01 5.424507e-01 3.094537e-01 3.195204e-01 3.848688e-01 3.316361e-01 1.236538e-01
