~o
<STREAMINFO> 1 39
<VECSIZE> 39<NULLD><MFCC_D_A_Z_0><DIAGC>
~s "silst"
<MEAN> 39
 -5.972989e+00 -1.116361e+00 -2.559614e+00 2.506557e+00 3.756433e+00 3.347634e+00 4.802483e+00 5.448901e+00 4.407222e+00 7.521816e-01 4.605409e-01 -1.246439e-02 -4.725082e+00 -3.552074e-02 -1.577500e-02 -1.594703e-03 2.610567e-02 4.003739e-02 4.173742e-02 5.523635e-02 4.367810e-02 1.597026e-02 -1.809090e-03 -1.852862e-02 -2.247615e-02 -2.226000e-02 1.513096e-02 5.683724e-03 8.500021e-03 -1.045844e-02 -2.047316e-02 -1.804852e-02 -2.852204e-02 -2.694006e-02 -1.842235e-02 -6.590124e-03 -1.067614e-03 4.829276e-03 1.209841e-02
<VARIANCE> 39
 2.950258e+00 3.103030e+00 4.696147e+00 6.034337e+00 7.854136e+00 7.675090e+00 8.145852e+00 1.052171e+01 9.410785e+00 7.353666e+00 8.242303e+00 8.100913e+00 1.320785e+00 8.131694e-02 1.483670e-01 2.626146e-01 3.663749e-01 4.904700e-01 6.056982e-01 7.247218e-01 7.899946e-01 7.817294e-01 7.455878e-01 7.527192e-01 7.351592e-01 2.524271e-02 1.586172e-02 3.015783e-02 5.353321e-02 7.581387e-02 1.001340e-01 1.240658e-01 1.499380e-01 1.613178e-01 1.576378e-01 1.508632e-01 1.506808e-01 1.493649e-01 4.749255e-03
<GCONST> 4.701660e+01
~h "a"
<BEGINHMM>
<NUMSTATES> 5
<STATE> 2
<MEAN> 39
 4.641540e+00 -5.202452e-01 -2.122642e+00 -7.219924e+00 -8.216532e+00 -4.293109e+00 3.142134e-01 9.454919e-01 -6.595077e-02 1.706459e+00 4.908555e-01 1.171778e+00 3.714018e+00 2.189277e+00 -5.729684e-01 -1.515875e+00 -2.379156e+00 -2.008127e+00 -7.326558e-01 3.809746e-01 1.451115e-01 -5.040544e-01 5.096791e-01 5.599579e-01 5.078781e-01 1.629755e+00 -2.712804e-01 -5.011535e-02 -1.465266e-01 4.122172e-01 7.505953e-01 5.235769e-01 2.502889e-01 1.051269e-01 -5.384112e-03 -1.112716e-01 3.787394e-02 -3.738788e-02 -2.489766e-01
<VARIANCE> 39
 3.243970e+01 1.884204e+01 2.142028e+01 3.636648e+01 4.174895e+01 2.074391e+01 3.588507e+01 6.033495e+01 2.677122e+01 2.086305e+01 2.207326e+01 1.510085e+01 2.165101e+01 2.615804e+00 1.926853e+00 2.093919e+00 3.363349e+00 4.366854e+00 2.711797e+00 2.454630e+00 3.766106e+00 2.712072e+00 2.523491e+00 2.577643e+00 1.492702e+00 1.695881e+00 5.786259e-01 2.452519e-01 3.594308e-01 7.402715e-01 9.246405e-01 4.588168e-01 4.758163e-01 6.363905e-01 3.838595e-01 4.024095e-01 3.760482e-01 2.829413e-01 3.720597e-01
<GCONST> 1.160428e+02
<STATE> 3
<MEAN> 39
 9.165279e+00 -2.066078e+00 -6.942892e+00 -1.083143e+01 -9.206870e+00 -3.308398e+00 1.739281e+00 -5.099969e-01 -2.651422e+00 2.563209e+00 1.865439e+00 1.539324e+00 6.664563e+00 -1.511908e-01 2.776777e-01 -2.817772e-01 4.724366e-01 1.014016e+00 8.093524e-01 1.655683e-02 -4.686609e-01 -2.338267e-01 -2.086860e-01 2.689663e-01 -2.385085e-02 -3.121618e-01 -3.950245e-01 2.619422e-01 4.132470e-01 5.596907e-01 4.417268e-01 1.096148e-01 -7.959711e-02 5.893452e-02 1.371874e-01 -1.870184e-01 -1.725301e-01 -1.479139e-01 -3.299098e-01
<VARIANCE> 39
 9.935039e+00 2.214933e+01 1.383062e+01 1.679141e+01 1.992993e+01 1.778570e+01 2.903503e+01 6.085339e+01 3.561585e+01 2.171328e+01 2.792158e+01 1.558714e+01 9.496037e+00 4.360564e-01 9.957066e-01 1.237331e+00 1.624303e+00 2.067075e+00 1.412048e+00 2.164570e+00 2.187830e+00 1.833969e+00 1.756338e+00 1.495031e+00 1.239217e+00 3.946279e-01 1.222230e-01 1.689651e-01 2.510851e-01 2.785774e-01 3.331880e-01 2.937558e-01 4.111845e-01 5.038641e-01 4.413272e-01 3.968546e-01 2.786610e-01 2.567171e-01 6.667349e-02
<GCONST> 9.666461e+01
<STATE> 4
<MEAN> 39
 3.683068e+00 1.118726e+00 -5.850649e+00 -5.629704e+00 -3.110339e+00 -8.560693e-02 1.651309e+00 3.804455e-01 3.403912e-01 1.632782e+00 3.156144e+00 1.830877e+00 1.379195e+00 -1.000861e+00 2.757853e-01 3.811660e-01 8.750956e-01 8.178039e-01 1.882077e-01 1.013561e-01 5.677082e-01 5.781577e-01 -1.254191e-01 -6.494325e-02 7.008321e-03 -7.870508e-01 5.028743e-03 -1.187528e-01 1.815638e-01 -5.639952e-02 -2.307647e-01 -1.882803e-01 -7.730564e-02 -8.754579e-03 -3.471181e-02 4.332203e-02 -6.342999e-02 1.709428e-02 9.119169e-02
<VARIANCE> 39
 1.674306e+01 9.943001e+00 1.069135e+01 1.349146e+01 1.835321e+01 1.747379e+01 1.730190e+01 3.483761e+01 2.814894e+01 1.281171e+01 1.989657e+01 1.414076e+01 9.538486e+00 4.163716e-01 5.665120e-01 9.507936e-01 1.102259e+00 1.648929e+00 1.715456e+00 1.771927e+00 1.889734e+00 1.872465e+00 1.320394e+00 1.091944e+00 1.127312e+00 2.991329e-01 6.127420e-02 8.837222e-02 1.499066e-01 1.947969e-01 3.008263e-01 3.049403e-01 2.789237e-01 2.911523e-01 2.912720e-01 2.282528e-01 2.074882e-01 2.027481e-01 3.683318e-02
<GCONST> 8.564294e+01
<TRANSP> 5
 0.000000e+00 1.000000e+00 0.000000e+00 0.000000e+00 0.000000e+00
 0.000000e+00 5.844938e-01 4.155062e-01 0.000000e+00 0.000000e+00
 0.000000e+00 0.000000e+00 7.305454e-01 2.694546e-01 0.000000e+00
 0.000000e+00 0.000000e+00 0.000000e+00 7.012416e-01 2.987584e-01
 0.000000e+00 0.000000e+00 0.000000e+00 0.000000e+00 0.000000e+00
<ENDHMM>
~h "b"
<BEGINHMM>
<NUMSTATES> 5
<STATE> 2
<MEAN> 39
 5.116699e-01 5.337739e+00 2.746322e+00 4.980459e+00 4.564164e+00 2.352603e+00 2.671525e+00 2.978044e+00 3.439441e+00 1.114224e+00 8.038812e-01 -1.184050e-01 -1.510961e+00 -4.897363e-01 -3.509848e-02 3.417294e-01 6.145009e-01 4.405429e-01 3.402299e-01 7.269734e-01 6.841226e-01 3.928473e-01 2.136332e-01 -5.870033e-03 4.121030e-03 -3.405257e-01 2.287307e-01 -1.138432e-01 -8.991303e-02 -2.568765e-01 -3.377326e-01 -2.893671e-01 -3.074112e-01 -3.307664e-01 -3.803477e-01 -2.981439e-01 -1.381259e-01 -9.446462e-03 2.053488e-01
<VARIANCE> 39
 5.224011e+00 4.875601e+00 8.093199e+00 1.561988e+01 1.622769e+01 1.286198e+01 1.391720e+01 1.776149e+01 1.401889e+01 9.338171e+00 8.755281e+00 1.038277e+01 2.249219e+00 2.354811e-01 2.797037e-01 4.812957e-01 7.719763e-01 1.095882e+00 9.913148e-01 8.327701e-01 8.201067e-01 1.303882e+00 1.048507e+00 7.554812e-01 7.995043e-01 1.165798e-01 4.984985e-02 7.712445e-02 8.002153e-02 1.415431e-01 2.762308e-01 2.196395e-01 2.127954e-01 2.258829e-01 3.000551e-01 1.725672e-01 1.613217e-01 1.724275e-01 3.227958e-02
<GCONST> 6.859566e+01
<STATE> 3
<MEAN> 39
 1.079979e-01 4.868801e+00 2.396278e+00 5.213235e+00 5.262467e+00 3.231504e+00 3.970572e+00 3.644528e+00 3.580801e+00 1.007344e+00 5.356014e-01 -3.812205e-01 -1.816289e+00 8.959123e-01 -2.146423e-01 -2.949761e-01 -7.220371e-01 -1.398122e+00 -1.383689e+00 -1.089392e+00 -1.170216e+00 -1.321755e+00 -1.109806e+00 -7.752216e-01 -1.175178e-01 7.511100e-01 5.976975e-01 -9.025572e-02 -2.835531e-01 -4.771674e-01 -5.962279e-01 -6.535504e-01 -9.159820e-01 -9.693024e-01 -7.593080e-01 -3.368976e-01 -1.354841e-01 6.061297e-02 4.564043e-01
<VARIANCE> 39
 4.659738e+00 5.379843e+00 8.041895e+00 1.438852e+01 1.623307e+01 1.415234e+01 1.334025e+01 1.873712e+01 1.669337e+01 1.105301e+01 1.427271e+01 1.403913e+01 2.351683e+00 8.867441e-01 9.058835e-01 1.047357e+00 1.876218e+00 2.979091e+00 2.090377e+00 2.150055e+00 2.498480e+00 1.903407e+00 1.000253e+00 9.395113e-01 1.412506e+00 4.770084e-01 6.790320e-02 1.622157e-01 1.830592e-01 2.908672e-01 6.156102e-01 3.770356e-01 2.721540e-01 3.093311e-01 3.080609e-01 2.687798e-01 2.006674e-01 2.714427e-01 3.975219e-02
<GCONST> 8.613131e+01
<STATE> 4
<MEAN> 39
 3.277926e+00 4.256223e+00 1.610744e+00 2.207052e+00 -6.055222e-01 -1.906949e+00 5.371848e-01 -1.599781e-01 -1.313513e+00 -2.997355e+00 -1.886900e+00 -6.182723e-01 8.413557e-01 1.507921e+00 -1.542070e-01 -4.331078e-01 -1.078066e+00 -1.518768e+00 -1.720474e+00 -2.308423e+00 -2.598856e+00 -2.371798e+00 -1.325812e+00 -6.082260e-01 2.582333e-01 1.139685e+00 1.617583e-02 -3.956408e-02 5.804139e-03 8.662455e-02 3.126556e-01 1.966529e-01 -2.862922e-01 -2.455594e-01 1.833225e-02 1.617986e-01 1.046861e-01 1.365877e-02 2.192996e-02
<VARIANCE> 39
 7.906513e+00 8.772223e+00 7.211067e+00 1.240958e+01 1.340186e+01 1.380218e+01 1.920035e+01 2.901511e+01 2.672087e+01 1.416017e+01 7.381706e+00 9.842029e+00 3.774796e+00 1.139731e+00 1.430107e+00 1.248850e+00 2.866285e+00 6.127491e+00 4.016401e+00 2.464254e+00 2.538394e+00 1.936496e+00 1.039947e+00 1.415109e+00 2.105081e+00 5.011119e-01 7.036452e-02 1.507967e-01 1.675847e-01 2.303732e-01 3.083582e-01 2.617929e-01 4.720573e-01 3.696684e-01 3.159699e-01 3.826881e-01 2.257235e-01 2.774136e-01 4.570614e-02
<GCONST> 9.137291e+01
<TRANSP> 5
 0.000000e+00 1.000000e+00 0.000000e+00 0.000000e+00 0.000000e+00
 0.000000e+00 7.195557e-01 2.804443e-01 0.000000e+00 0.000000e+00
 0.000000e+00 0.000000e+00 3.986105e-01 6.013895e-01 0.000000e+00
 0.000000e+00 0.000000e+00 0.000000e+00 1.301677e-01 8.698323e-01
 0.000000e+00 0.000000e+00 0.000000e+00 0.000000e+00 0.000000e+00
<ENDHMM>
~h "c"
<BEGINHMM>
<NUMSTATES> 5
<STATE> 2
<MEAN> 39
 -3.414038e+00 1.427090e+00 2.690946e+00 2.155322e+00 4.433831e+00 1.901212e+00 8.613516e-01 1.153401e+00 4.180321e-01 -1.515745e-01 -1.791242e+00 -1.562211e+00 -2.295878e+00 -1.123229e+00 -8.404146e-01 8.406069e-01 -1.462295e+00 -1.350355e-01 2.369555e-01 3.391421e-01 7.043040e-01 2.557301e-02 8.198655e-01 -3.575536e-01 1.521437e-01 -1.744910e-02 4.613205e-03 -1.622376e-01 3.423755e-01 -2.706140e-01 9.244265e-03 6.197858e-02 -2.354085e-01 -1.345683e-01 -9.944619e-02 1.130773e-01 -9.241724e-02 3.385065e-02 1.926389e-01
<VARIANCE> 39
 6.558887e+00 5.780131e+00 1.617742e+01 1.737813e+01 1.505399e+01 1.369762e+01 1.593299e+01 1.882423e+01 1.365742e+01 1.195982e+01 9.732849e+00 9.288765e+00 3.277106e+00 4.226256e-01 4.417017e-01 1.741530e+00 1.179793e+00 1.019007e+00 1.042831e+00 1.090537e+00 1.311900e+00 1.093498e+00 1.746969e+00 1.185812e+00 8.855962e-01 2.303494e-01 4.131071e-02 5.771331e-02 1.672650e-01 1.324092e-01 1.869877e-01 2.151507e-01 2.005678e-01 2.412955e-01 2.442374e-01 3.045841e-01 2.059789e-01 1.596824e-01 2.253959e-02
<GCONST> 7.556360e+01
<STATE> 3
<MEAN> 39
 -7.539493e+00 -3.850472e+00 1.130235e+01 -7.865533e+00 3.478111e+00 3.752650e+00 -8.701353e-01 1.154836e+00 -1.805797e+00 4.503541e+00 -4.200225e+00 4.592755e-01 6.922590e-01 -6.541818e-01 -1.300350e+00 9.707491e-01 -1.252024e+00 -3.569303e-01 5.967969e-01 -1.257989e-01 2.812214e-01 8.742644e-03 4.155221e-01 7.610299e-02 4.747684e-01 4.375500e-01 3.784781e-01 1.826396e-01 -5.618294e-01 5.673661e-01 -1.254700e-01 -7.853072e-02 -9.424997e-03 -1.000265e-01 7.931949e-02 -4.108683e-01 3.368723e-01 3.615163e-02 -6.024376e-02
<VARIANCE> 39
 7.491856e+00 9.526148e+00 1.589273e+01 2.275487e+01 2.453412e+01 1.724255e+01 2.136524e+01 2.572168e+01 1.721306e+01 1.849153e+01 1.574128e+01 1.756000e+01 3.655369e+00 7.113881e-01 6.080228e-01 1.927838e+00 2.150173e+00 1.839530e+00 1.308389e+00 1.285073e+00 1.458382e+00 1.464283e+00 2.092322e+00 2.154444e+00 1.219476e+00 1.886347e-01 9.335347e-02 1.624739e-01 2.411750e-01 2.433777e-01 3.492337e-01 2.437281e-01 2.331679e-01 2.813882e-01 3.136457e-01 3.913485e-01 3.081084e-01 2.633103e-01 4.137703e-02
<GCONST> 8.937520e+01
<STATE> 4
<MEAN> 39
 -8.532466e+00 -6.553362e+00 9.595881e+00 -7.268112e+00 2.470447e+00 7.393784e+00 3.765672e-02 3.946332e+00 2.264883e+00 3.286873e+00 -1.382929e+00 1.645867e+00 -2.180388e-03 2.746603e-01 4.752093e-02 -5.373613e-01 6.946806e-01 -2.763578e-01 -5.389592e-02 7.904087e-02 -9.452400e-02 2.045615e-01 -3.357336e-01 2.583468e-01 -1.579438e-02 -1.206667e-01 1.794364e-01 2.621236e-01 -1.557940e-01 1.852132e-01 4.107497e-02 -1.987070e-01 -4.048776e-02 -6.553470e-02 -7.494394e-02 -9.402148e-02 -3.523457e-03 -4.413870e-02 -3.384835e-02
<VARIANCE> 39
 6.640448e+00 7.367447e+00 1.681422e+01 1.826087e+01 1.999878e+01 1.309543e+01 1.209310e+01 1.931763e+01 1.958628e+01 1.210460e+01 1.252699e+01 1.066595e+01 3.590021e+00 4.482298e-01 7.475723e-01 1.281077e+00 1.441578e+00 1.014876e+00 9.655129e-01 1.124079e+00 1.386823e+00 1.314668e+00 1.399671e+00 1.014168e+00 1.087631e+00 1.757742e-01 1.145472e-01 1.979407e-01 1.397297e-01 1.622329e-01 1.866522e-01 1.826238e-01 2.547392e-01 2.782083e-01 2.544536e-01 2.728786e-01 1.881544e-01 2.099013e-01 2.354280e-02
<GCONST> 7.962364e+01
<TRANSP> 5
 0.000000e+00 1.000000e+00 0.000000e+00 0.000000e+00 0.000000e+00
 0.000000e+00 7.555867e-01 2.444133e-01 0.000000e+00 0.000000e+00
 0.000000e+00 0.000000e+00 7.277465e-01 2.722535e-01 0.000000e+00
 0.000000e+00 0.000000e+00 0.000000e+00 8.378233e-01 1.621767e-01
 0.000000e+00 0.000000e+00 0.000000e+00 0.000000e+00 0.000000e+00
<ENDHMM>
~h "d"
<BEGINHMM>
<NUMSTATES> 5
<STATE> 2
<MEAN> 39
 4.201713e-01 3.484926e+00 1.551029e+00 5.031182e+00 5.692158e+00 3.289734e+00 2.525899e+00 1.563599e+00 8.656428e-01 -9.260278e-01 -5.244351e-01 -1.133592e+00 -1.234467e+00 9.329099e-03 -1.590248e-01 3.071530e-01 -1.953028e-01 -8.649573e-01 -4.045694e-01 6.664736e-02 -2.059104e-01 -1.820325e-01 -3.101583e-02 -1.565550e-01 6.049097e-02 1.365779e-01 4.172150e-01 -6.745830e-02 -2.289376e-02 -4.129359e-01 -6.503660e-01 -4.785020e-01 -4.758311e-01 -5.959249e-01 -5.167609e-01 -2.076726e-01 -1.074096e-01 1.502377e-01 3.602507e-01
<VARIANCE> 39
 1.130589e+01 1.078889e+01 1.572200e+01 1.906223e+01 1.975186e+01 1.493260e+01 2.136942e+01 2.601793e+01 2.352562e+01 1.662312e+01 9.132772e+00 1.105618e+01 5.653842e+00 8.767545e-01 9.757353e-01 1.046243e+00 1.891439e+00 3.078720e+00 2.241608e+00 2.271141e+00 3.564169e+00 2.316683e+00 1.613211e+00 1.096140e+00 1.339630e+00 6.466527e-01 1.329768e-01 1.603402e-01 2.215039e-01 2.224802e-01 3.728545e-01 2.978528e-01 2.495561e-01 3.765240e-01 3.694599e-01 3.589442e-01 2.291221e-01 2.581574e-01 6.357530e-02
<GCONST> 9.329903e+01
<STATE> 3
<MEAN> 39
 3.091605e+00 1.595837e+00 2.635934e+00 1.088233e+00 -9.946554e-01 -1.726836e-01 -5.240364e-01 -3.922222e+00 -3.182409e+00 -1.626861e+00 -1.488688e+00 9.049072e-02 1.953622e+00 1.544616e+00 -9.589110e-02 1.582853e-01 -8.604656e-01 -1.790397e+00 -1.375271e+00 -1.461505e+00 -2.238277e+00 -2.154614e+00 -9.770584e-01 -3.008917e-01 8.025196e-01 1.248521e+00 2.029457e-01 4.203104e-02 -3.383845e-01 -9.405711e-02 2.708296e-01 3.513233e-02 -1.707746e-01 3.283727e-03 -1.136670e-01 -2.454193e-02 1.714156e-01 6.030516e-02 7.576951e-02
<VARIANCE> 39
 1.089707e+01 1.314036e+01 2.770926e+01 2.149494e+01 1.957067e+01 2.161123e+01 1.556540e+01 2.657831e+01 2.374318e+01 1.880963e+01 1.311702e+01 9.974444e+00 6.448956e+00 1.739070e+00 2.186666e+00 2.792273e+00 1.614655e+00 2.230977e+00 2.863949e+00 2.794367e+00 3.091572e+00 2.777296e+00 2.926794e+00 1.883544e+00 1.744715e+00 7.788462e-01 1.311664e-01 2.460469e-01 3.430312e-01 2.592320e-01 3.788800e-01 3.459360e-01 3.448810e-01 5.208772e-01 3.339138e-01 2.751892e-01 2.336279e-01 3.066810e-01 6.054191e-02
<GCONST> 1.004008e+02
<STATE> 4
<MEAN> 39
 7.581943e+00 1.597330e+00 -7.428181e-01 -1.356577e+00 -1.693033e+00 -2.427105e+00 -5.795623e+00 -8.093295e+00 -7.511055e+00 -4.726280e+00 -1.500851e+00 1.506158e+00 4.798193e+00 6.800241e-01 -1.168146e-02 -4.091160e-01 -4.391541e-01 -2.731936e-01 -4.755621e-01 -7.916405e-01 -7.369745e-01 -7.119718e-01 -1.252569e-01 3.230796e-01 1.890697e-01 4.718646e-01 -3.007909e-01 -6.834338e-03 3.633346e-02 1.659559e-01 3.809954e-01 2.477168e-01 2.262093e-01 4.735460e-01 5.027868e-01 3.348519e-01 1.783998e-01 -1.702229e-01 -2.172549e-01
<VARIANCE> 39
 1.020922e+01 1.330687e+01 2.444763e+01 2.116719e+01 2.254465e+01 1.752160e+01 2.621883e+01 2.445349e+01 2.322252e+01 2.287863e+01 1.626301e+01 1.102600e+01 7.018178e+00 1.688321e+00 1.190286e+00 2.427615e+00 2.858774e+00 3.143033e+00 1.951650e+00 2.178675e+00 2.523977e+00 3.376682e+00 2.846899e+00 2.145782e+00 1.524304e+00 8.045567e-01 9.510250e-02 2.084232e-01 3.857175e-01 1.897954e-01 3.290946e-01 3.389717e-01 2.942595e-01 3.779051e-01 4.644243e-01 3.807734e-01 3.520159e-01 2.631299e-01 6.556775e-02
<GCONST> 1.003158e+02
<TRANSP> 5
 0.000000e+00 1.000000e+00 0.000000e+00 0.000000e+00 0.000000e+00
 0.000000e+00 6.536576e-01 3.463424e-01 0.000000e+00 0.000000e+00
 0.000000e+00 0.000000e+00 2.585677e-01 7.414323e-01 0.000000e+00
 0.000000e+00 0.000000e+00 0.000000e+00 4.711233e-01 5.288767e-01
 0.000000e+00 0.000000e+00 0.000000e+00 0.000000e+00 0.000000e+00
<ENDHMM>
~h "e"
<BEGINHMM>
<NUMSTATES> 5
<STATE> 2
<MEAN> 39
 5.458195e+00 2.989494e-01 2.157104e+00 -5.444196e-01 -3.093919e+00 -4.494248e+00 -7.344531e+00 -7.901743e+00 -6.054655e+00 -1.923352e+00 5.673825e-01 1.626436e+00 4.274342e+00 1.709260e+00 2.373175e-01 -1.494852e+00 -9.837906e-01 -6.209310e-01 -7.631131e-01 -1.212188e+00 -1.902020e+00 -1.351172e+00 1.696600e-02 7.963045e-01 8.601092e-01 9.005200e-01 -3.810348e-01 -2.519498e-01 -8.161014e-02 5.828926e-02 3.763386e-01 5.214927e-01 4.809797e-01 3.911958e-01 2.865517e-01 2.156242e-01 4.534154e-02 -2.668978e-02 -1.848192e-01
<VARIANCE> 39
 1.790520e+01 1.889849e+01 2.256145e+01 2.357680e+01 2.332320e+01 2.079571e+01 2.749371e+01 3.211781e+01 2.414371e+01 2.166230e+01 2.170435e+01 1.985751e+01 9.864841e+00 2.186593e+00 3.624529e+00 2.015306e+00 2.096900e+00 2.063898e+00 2.059406e+00 2.305164e+00 3.071247e+00 2.531562e+00 2.907257e+00 2.101025e+00 1.903379e+00 6.653263e-01 2.842539e-01 3.753246e-01 2.664625e-01 2.755577e-01 3.952821e-01 3.837857e-01 4.568144e-01 5.406071e-01 4.026837e-01 4.087574e-01 3.648062e-01 3.305320e-01 1.150333e-01
<GCONST> 1.070344e+02
<STATE> 3
<MEAN> 39
 8.173507e+00 -9.706110e-01 -2.406363e+00 -2.622290e+00 -2.834521e+00 -4.270638e+00 -8.730173e+00 -1.157512e+01 -7.910923e+00 1.686283e-01 3.380157e+00 3.966191e+00 5.937060e+00 -2.223582e-01 1.978709e-01 -4.358091e-01 1.740905e-01 9.421540e-01 9.826953e-01 4.724849e-01 7.742341e-02 1.904568e-01 1.414420e-02 1.420495e-01 -8.926963e-02 -3.305779e-01 -4.355601e-01 2.206822e-01 4.028409e-01 4.350654e-01 3.503838e-01 2.946757e-01 4.546209e-01 6.007174e-01 4.128576e-01 -1.062231e-01 -2.986144e-01 -3.694798e-01 -3.497627e-01
<VARIANCE> 39
 9.307417e+00 1.730974e+01 1.252709e+01 1.491503e+01 1.730400e+01 1.581497e+01 1.891000e+01 2.526663e+01 2.397196e+01 2.545965e+01 1.991304e+01 1.635563e+01 7.861000e+00 4.211523e-01 9.889766e-01 1.281506e+00 1.345477e+00 1.627783e+00 1.579064e+00 1.899254e+00 1.656729e+00 1.572567e+00 1.878997e+00 1.787272e+00 1.570883e+00 3.823317e-01 1.340896e-01 2.238097e-01 1.928679e-01 2.083302e-01 2.587891e-01 2.645741e-01 3.057909e-01 3.767996e-01 3.786668e-01 3.754440e-01 3.479130e-01 2.916224e-01 6.105945e-02
<GCONST> 9.234847e+01
<STATE> 4
<MEAN> 39
 3.619255e+00 2.186691e+00 -1.772068e+00 6.498482e-01 1.923037e+00 -4.533482e-01 -4.802009e+00 -6.985381e+00 -3.898567e+00 -3.842156e-01 2.934617e+00 2.515190e+00 1.360348e+00 -9.975806e-01 3.435366e-01 3.607276e-01 6.670906e-01 5.953298e-01 4.998543e-01 9.801996e-01 1.192149e+00 8.485572e-01 -3.049736e-03 -2.591996e-01 -3.944994e-01 -8.298007e-01 -2.783890e-02 -1.263421e-01 1.293208e-01 -1.009815e-01 -2.913665e-01 -2.293422e-01 -5.067109e-02 5.309309e-02 1.627042e-03 6.535240e-02 -6.256274e-02 -1.697268e-02 6.225799e-02
<VARIANCE> 39
 1.297256e+01 8.546470e+00 1.233098e+01 1.444958e+01 1.731489e+01 1.506748e+01 1.882681e+01 2.428572e+01 2.331983e+01 2.372055e+01 1.851720e+01 1.607791e+01 7.728533e+00 3.273928e-01 7.567020e-01 8.575911e-01 9.809300e-01 1.475363e+00 1.380478e+00 1.419918e+00 1.633098e+00 1.472236e+00 1.282179e+00 1.332898e+00 1.258166e+00 2.459881e-01 6.803606e-02 8.801012e-02 1.430974e-01 1.587701e-01 2.464510e-01 2.560051e-01 2.315982e-01 2.840898e-01 2.849188e-01 2.381621e-01 2.368686e-01 2.108854e-01 3.591606e-02
<GCONST> 8.364780e+01
<TRANSP> 5
 0.000000e+00 1.000000e+00 0.000000e+00 0.000000e+00 0.000000e+00
 0.000000e+00 4.793337e-01 5.206663e-01 0.000000e+00 0.000000e+00
 0.000000e+00 0.000000e+00 6.578137e-01 3.421864e-01 0.000000e+00
 0.000000e+00 0.000000e+00 0.000000e+00 7.019733e-01 2.980267e-01
 0.000000e+00 0.000000e+00 0.000000e+00 0.000000e+00 0.000000e+00
<ENDHMM>
~h "f"
<BEGINHMM>
<NUMSTATES> 5
<STATE> 2
<MEAN> 39
 -1.671835e+00 -1.315447e+00 4.740542e-01 4.561235e-01 2.415289e+00 6.984448e-01 2.050691e+00 1.955034e+00 -6.675016e-01 4.382485e-01 -2.017864e-01 5.678664e-01 -1.823625e-01 -7.494340e-01 -1.359198e+00 -1.322009e-01 -6.119823e-01 -1.790655e-01 2.205905e-01 2.283701e-01 7.580096e-02 -5.314029e-01 -2.939409e-01 2.435312e-01 7.852259e-01 8.654980e-02 1.173630e-01 -1.080377e-01 2.799342e-02 -5.022315e-02 -1.973630e-01 -1.992879e-01 -3.637721e-01 -2.686673e-01 -1.508859e-01 -1.919289e-01 1.323213e-01 1.768630e-01 1.059463e-01
<VARIANCE> 39
 7.879318e+00 1.754296e+01 1.165489e+01 1.701633e+01 2.164382e+01 2.166895e+01 1.579377e+01 2.285218e+01 2.459263e+01 1.845154e+01 1.115428e+01 1.020920e+01 5.409369e+00 7.379784e-01 1.277551e+00 9.097368e-01 1.541868e+00 8.765618e-01 1.096325e+00 1.503034e+00 1.130399e+00 1.764144e+00 1.493334e+00 1.771728e+00 1.374904e+00 2.486651e-01 7.135416e-02 2.108561e-01 1.410552e-01 2.109970e-01 2.524282e-01 2.674177e-01 3.295929e-01 2.140799e-01 2.687357e-01 2.750066e-01 3.345192e-01 2.222944e-01 4.914979e-02
<GCONST> 8.643849e+01
<STATE> 3
<MEAN> 39
 -1.452827e+00 -4.302861e+00 -3.156968e-01 -5.325948e-01 1.728966e+00 1.767986e+00 -3.726320e-01 -2.690856e+00 -4.940464e+00 -2.868134e+00 1.893722e+00 4.762928e+00 8.949801e-01 -3.025526e-01 -1.510960e+00 4.515353e-01 1.785018e-01 -4.535437e-02 1.691589e-01 -2.302007e-01 -5.007235e-01 -3.218504e-01 -1.355200e-01 4.523047e-01 7.641473e-01 3.619894e-01 -8.710640e-02 -1.844602e-01 3.913707e-01 2.960656e-01 2.768399e-02 -5.013192e-02 -1.222264e-01 1.254301e-01 4.034329e-01 2.990739e-01 -9.849712e-02 -3.529476e-01 5.101507e-02
<VARIANCE> 39
 1.006903e+01 2.528351e+01 1.095539e+01 7.002462e+00 1.610615e+01 1.508707e+01 2.993976e+01 2.314998e+01 1.727875e+01 9.969274e+00 6.166448e+00 1.433592e+01 5.136494e+00 9.029487e-01 1.561075e+00 1.350692e+00 1.144072e+00 1.205292e+00 1.367894e+00 2.797406e+00 2.127518e+00 1.577673e+00 1.197681e+00 7.582166e-01 1.126358e+00 2.016880e-01 8.717419e-02 1.826144e-01 1.248298e-01 1.686404e-01 2.130878e-01 2.754014e-01 4.294191e-01 3.048004e-01 2.933962e-01 1.458629e-01 1.469239e-01 1.269087e-01 3.087744e-02
<GCONST> 8.331683e+01
<STATE> 4
<MEAN> 39
 -4.630006e+00 -1.286844e+01 4.350498e+00 2.315924e+00 2.994359e+00 2.497102e+00 -6.772391e-01 -1.650529e+00 -2.573802e+00 5.031294e-01 3.033926e+00 4.803560e+00 2.524912e+00 -8.597594e-01 -1.541388e+00 1.477360e+00 8.285494e-01 -3.519991e-01 -4.020887e-02 -3.697784e-01 8.392454e-01 1.321155e+00 8.637675e-01 -3.568469e-02 -7.739637e-01 2.393730e-01 6.140392e-02 3.933213e-01 -1.107594e-01 -1.357363e-02 -1.378494e-01 1.562224e-02 1.342680e-01 2.419235e-01 1.215765e-01 -1.101279e-01 -2.601356e-01 -2.368415e-01 -9.183347e-02
<VARIANCE> 39
 6.535610e+00 2.463551e+01 1.457789e+01 9.249830e+00 1.492762e+01 1.535524e+01 1.173930e+01 3.494240e+01 1.681897e+01 1.452417e+01 1.423919e+01 1.739568e+01 5.449844e+00 5.791919e-01 2.494325e+00 1.309227e+00 5.735337e-01 1.526504e+00 1.336711e+00 1.165015e+00 1.303849e+00 9.875703e-01 1.082000e+00 1.165715e+00 1.067425e+00 3.410190e-01 8.366276e-02 1.708321e-01 1.895874e-01 1.504164e-01 1.620588e-01 2.780715e-01 2.869593e-01 3.882019e-01 2.558248e-01 2.456416e-01 1.991818e-01 2.563085e-01 4.174831e-02
<GCONST> 8.422418e+01
<TRANSP> 5
 0.000000e+00 1.000000e+00 0.000000e+00 0.000000e+00 0.000000e+00
 0.000000e+00 6.819681e-01 3.180319e-01 0.000000e+00 0.000000e+00
 0.000000e+00 0.000000e+00 6.758327e-01 3.241673e-01 0.000000e+00
 0.000000e+00 0.000000e+00 0.000000e+00 6.120566e-01 3.879434e-01
 0.000000e+00 0.000000e+00 0.000000e+00 0.000000e+00 0.000000e+00
<ENDHMM>
~h "g"
<BEGINHMM>
<NUMSTATES> 5
<STATE> 2
<MEAN> 39
 -1.253179e+00 1.511826e+00 -2.490466e+00 -2.244324e-01 -7.690381e-02 -5.856335e-01 6.970916e-01 1.277173e+00 1.588346e+00 2.556509e-01 2.377781e+00 1.108784e+00 -2.045575e+00 3.685874e-01 -5.300708e-03 6.004173e-01 1.841086e-01 -1.015445e-01 -5.636700e-01 -1.048254e+00 -1.094128e+00 -4.278943e-01 1.935875e-01 3.077175e-02 -2.396767e-01 3.984176e-01 4.287710e-01 -8.742654e-02 1.521555e-01 -1.473652e-01 -2.157407e-01 -2.202111e-01 -5.249544e-01 -7.528586e-01 -5.993618e-01 1.077187e-01 8.344540e-02 -1.169283e-01 3.858719e-01
<VARIANCE> 39
 1.637238e+01 6.209866e+00 9.257260e+00 1.373213e+01 2.063264e+01 1.792271e+01 2.530114e+01 4.119139e+01 4.176828e+01 1.311791e+01 1.428152e+01 1.376562e+01 8.788892e+00 1.736697e+00 1.387389e+00 1.283819e+00 1.400239e+00 1.666510e+00 1.493858e+00 3.906407e+00 4.620205e+00 3.039336e+00 2.110711e+00 1.197400e+00 1.452627e+00 9.114981e-01 1.663329e-01 2.055151e-01 1.675666e-01 1.787282e-01 2.931601e-01 2.323937e-01 3.961498e-01 4.600241e-01 4.748801e-01 4.059494e-01 3.350398e-01 3.024563e-01 6.233645e-02
<GCONST> 9.737363e+01
<STATE> 3
<MEAN> 39
 3.744226e+00 -1.025939e-01 -3.233680e-01 -1.843537e+00 -2.107087e+00 -5.030266e+00 -8.572504e+00 -7.629984e+00 -4.004614e+00 1.523348e+00 4.039902e+00 7.230891e-01 3.011484e+00 8.615964e-01 -7.797056e-02 6.959185e-01 7.950572e-01 1.204612e+00 3.700496e-01 -1.111656e+00 -1.479186e+00 -1.472927e+00 -2.702939e-01 -6.645338e-02 -6.253478e-01 7.273237e-01 -2.894622e-01 1.103379e-01 -4.173382e-02 3.983778e-01 4.409647e-01 6.168689e-01 8.244764e-01 6.537253e-01 3.606308e-01 -1.516922e-01 -2.901625e-01 -1.486871e-01 -3.370390e-01
<VARIANCE> 39
 1.429092e+01 2.596628e+01 2.798386e+01 2.338525e+01 2.990384e+01 3.108990e+01 7.292101e+01 5.526891e+01 3.246926e+01 1.650117e+01 1.018609e+01 2.473662e+01 1.485345e+01 1.712838e+00 1.567932e+00 1.551211e+00 2.122501e+00 2.936911e+00 2.148534e+00 4.572209e+00 5.770485e+00 5.592642e+00 2.586872e+00 1.683681e+00 1.830412e+00 1.382324e+00 2.342539e-01 4.949939e-01 3.698752e-01 4.811569e-01 6.724702e-01 2.789082e-01 6.780457e-01 9.017194e-01 8.615510e-01 5.439903e-01 2.187494e-01 3.482537e-01 2.919360e-01
<GCONST> 1.145306e+02
<STATE> 4
<MEAN> 39
 2.789699e+00 3.251150e+00 1.168371e+00 4.484693e+00 5.120078e+00 3.069391e-01 -4.971518e+00 -5.532283e+00 -3.682248e+00 -1.024754e+00 1.499658e+00 -2.071292e+00 5.993916e-01 -6.708921e-01 -3.974330e-02 6.878552e-01 4.580742e-01 4.485716e-01 1.483784e+00 1.582471e+00 5.948868e-01 5.688675e-01 2.581414e-01 -4.463157e-01 2.625758e-01 -4.065006e-01 -1.866081e-01 -3.980803e-01 2.459913e-01 -3.861997e-01 -4.800448e-01 9.565106e-02 1.940865e-01 -8.424713e-02 4.670828e-02 3.057396e-01 6.266291e-02 1.938740e-01 1.170987e-01
<VARIANCE> 39
 9.563577e+00 1.618266e+01 1.607348e+01 9.189112e+00 9.501371e+00 1.927630e+01 3.088654e+01 3.064570e+01 3.305515e+01 2.025952e+01 1.643994e+01 1.431197e+01 7.790888e+00 5.179265e-01 1.383544e+00 1.547314e+00 2.071152e+00 2.504028e+00 1.547510e+00 1.280265e+00 2.253973e+00 2.725384e+00 2.004829e+00 6.826973e-01 1.504513e+00 4.856824e-01 1.672567e-01 2.225804e-01 2.603855e-01 1.993371e-01 3.894836e-01 3.630843e-01 3.075933e-01 6.816258e-01 9.432979e-01 2.834302e-01 1.368268e-01 2.779264e-01 1.593508e-01
<GCONST> 9.585381e+01
<TRANSP> 5
 0.000000e+00 1.000000e+00 0.000000e+00 0.000000e+00 0.000000e+00
 0.000000e+00 5.464008e-01 4.535992e-01 0.000000e+00 0.000000e+00
 0.000000e+00 0.000000e+00 5.256938e-01 4.743062e-01 0.000000e+00
 0.000000e+00 0.000000e+00 0.000000e+00 7.092304e-01 2.907696e-01
 0.000000e+00 0.000000e+00 0.000000e+00 0.000000e+00 0.000000e+00
<ENDHMM>
~h "h"
<BEGINHMM>
<NUMSTATES> 5
<STATE> 2
<MEAN> 39
 4.320469e+00 2.453347e+00 -4.509700e-01 -1.050919e+00 -3.030441e+00 -2.559118e+00 -7.595873e-01 -5.011130e-01 5.717320e-01 1.257549e+00 4.532402e-02 -7.751099e-01 1.953321e+00 8.101870e-02 7.987704e-01 4.006021e-01 2.427979e-01 -1.711365e-01 -5.466432e-01 -9.295507e-02 2.394001e-01 3.513418e-01 8.801656e-02 7.327121e-02 -2.098492e-01 -1.894765e-01 8.740304e-02 -3.391395e-02 -1.473852e-01 -2.261782e-01 -2.077447e-01 -1.570738e-01 -6.921831e-02 5.804340e-02 -2.572681e-02 -1.206141e-01 5.813435e-04 6.450888e-02 6.869699e-02
<VARIANCE> 39
 1.536309e+01 1.596938e+01 1.281454e+01 1.856904e+01 3.925594e+01 3.243888e+01 2.086267e+01 4.888545e+01 4.695136e+01 2.605912e+01 1.770412e+01 2.134728e+01 6.981404e+00 1.725898e+00 1.399158e+00 6.951190e-01 1.429482e+00 2.356056e+00 1.619842e+00 1.339399e+00 2.978521e+00 4.350935e+00 1.207325e+00 1.244270e+00 1.631177e+00 4.201807e-01 2.033677e-01 1.694734e-01 1.356650e-01 2.161962e-01 2.590769e-01 2.332617e-01 2.799809e-01 6.668572e-01 7.220694e-01 2.745678e-01 3.105708e-01 3.375748e-01 7.903863e-02
<GCONST> 9.902139e+01
<STATE> 3
<MEAN> 39
 7.874044e+00 3.218433e+00 -2.075305e+00 -4.890211e+00 -9.415136e+00 -8.137226e+00 -1.651738e+00 -3.320003e-01 1.181460e+00 2.417052e+00 -9.259381e-01 -2.898083e+00 4.216059e+00 -2.576177e-01 2.677800e-01 2.817264e-02 4.325401e-02 2.072697e-02 -1.479200e-01 1.880092e-01 9.256477e-01 8.214905e-01 -2.079945e-02 4.570567e-02 1.221503e-01 -2.853270e-01 -1.284148e-01 -1.000953e-01 -4.211893e-02 5.518079e-02 1.742548e-01 1.805054e-01 2.319277e-02 -2.890675e-02 -1.237450e-01 -7.276463e-02 1.362263e-01 2.316111e-01 -6.510437e-02
<VARIANCE> 39
 1.672563e+01 1.087970e+01 2.155525e+01 1.286216e+01 3.671023e+01 3.003888e+01 8.995225e+00 2.837559e+01 3.207741e+01 3.055857e+01 1.779753e+01 1.416768e+01 6.506879e+00 1.095277e+00 7.368773e-01 1.105866e+00 1.714739e+00 2.142481e+00 1.529035e+00 8.181931e-01 1.913811e+00 1.141551e+00 1.268971e+00 1.087184e+00 1.049862e+00 6.174070e-01 1.105915e-01 1.447853e-01 1.337169e-01 1.548633e-01 1.783566e-01 1.625089e-01 1.936038e-01 4.043432e-01 4.467379e-01 2.781973e-01 2.497408e-01 2.498572e-01 4.909995e-02
<GCONST> 8.945223e+01
<STATE> 4
<MEAN> 39
 4.334662e+00 4.716585e+00 4.955892e-01 -2.268675e+00 -6.115367e+00 -6.002773e+00 -6.183116e-01 3.550099e+00 4.484242e+00 1.803187e+00 -3.556815e-01 -1.569239e+00 1.453794e+00 -3.314827e-01 -1.726037e-02 -5.614057e-02 1.944288e-01 4.264877e-01 3.601330e-01 1.259984e-01 1.647584e-01 -8.729932e-03 -1.087923e-01 1.955937e-01 3.676084e-01 -2.614551e-01 2.206558e-01 -3.011392e-02 -1.333907e-01 -1.791604e-01 -1.471678e-01 -1.000011e-01 -1.680946e-01 -3.594318e-01 -3.258041e-01 -5.245152e-02 -4.844804e-02 -3.197933e-02 1.566605e-01
<VARIANCE> 39
 9.088717e+00 9.060799e+00 1.316412e+01 1.098512e+01 1.575975e+01 2.025081e+01 1.380160e+01 2.317652e+01 2.374417e+01 1.974118e+01 1.195781e+01 1.056201e+01 3.769840e+00 5.646757e-01 5.191566e-01 5.511712e-01 9.272697e-01 1.222481e+00 1.291330e+00 1.429192e+00 1.218627e+00 1.469321e+00 1.184669e+00 8.007104e-01 1.147171e+00 2.542061e-01 8.261751e-02 8.856803e-02 1.195722e-01 1.805580e-01 2.741915e-01 3.046608e-01 2.569014e-01 2.427021e-01 2.996601e-01 1.930279e-01 1.652669e-01 2.392097e-01 3.279404e-02
<GCONST> 7.961569e+01
<TRANSP> 5
 0.000000e+00 1.000000e+00 0.000000e+00 0.000000e+00 0.000000e+00
 0.000000e+00 3.863953e-01 6.136047e-01 0.000000e+00 0.000000e+00
 0.000000e+00 0.000000e+00 4.239867e-01 5.760133e-01 0.000000e+00
 0.000000e+00 0.000000e+00 0.000000e+00 7.029376e-01 2.970624e-01
 0.000000e+00 0.000000e+00 0.000000e+00 0.000000e+00 0.000000e+00
<ENDHMM>
~h "i"
<BEGINHMM>
<NUMSTATES> 5
<STATE> 2
<MEAN> 39
 2.046907e+00 9.902771e-01 5.095826e+00 4.787763e+00 3.086869e+00 9.251521e-01 -3.867137e+00 -5.767368e+00 -3.764354e+00 -2.024144e+00 -1.720234e+00 -2.437948e+00 1.746685e+00 8.855526e-01 5.615261e-01 2.438029e-01 1.106186e+00 7.298512e-01 -4.305500e-01 -1.679537e+00 -1.651273e+00 -7.302575e-01 -8.184307e-01 -3.885697e-01 -5.034030e-01 3.417134e-01 -1.191527e-01 -7.263639e-02 -9.760148e-02 -2.071592e-01 2.120768e-02 7.033665e-02 1.334282e-01 1.856703e-01 1.553601e-01 2.310611e-01 7.090825e-02 6.145087e-02 -5.534833e-02
<VARIANCE> 39
 1.829581e+01 2.083435e+01 2.713235e+01 1.839672e+01 1.906646e+01 2.369004e+01 3.103205e+01 3.153146e+01 2.568540e+01 1.534460e+01 1.756633e+01 1.309205e+01 6.983064e+00 1.644534e+00 3.417840e+00 1.645216e+00 2.085412e+00 1.931256e+00 1.846816e+00 3.078183e+00 3.106792e+00 2.194937e+00 2.276415e+00 1.770980e+00 1.716176e+00 4.830870e-01 1.584161e-01 2.556100e-01 2.915938e-01 3.051564e-01 3.336142e-01 3.273548e-01 5.143431e-01 4.468695e-01 4.022545e-01 3.492715e-01 3.082260e-01 2.152444e-01 7.073280e-02
<GCONST> 1.020371e+02
<STATE> 3
<MEAN> 39
 4.434366e+00 8.034765e-01 4.858884e+00 5.890091e+00 4.275576e+00 -6.511140e-01 -8.982197e+00 -1.049191e+01 -5.486175e+00 -2.446180e+00 -2.234767e+00 -3.467534e+00 3.256770e+00 -1.054796e-01 5.731918e-02 -2.244020e-01 2.866156e-01 7.871481e-01 4.279231e-01 -1.223069e-01 -2.370544e-01 1.659415e-01 2.839760e-01 1.443431e-01 -1.309615e-01 -1.685803e-01 -4.680739e-01 -1.277835e-01 -1.053128e-02 -2.750448e-01 -1.039249e-01 3.874229e-01 8.909597e-01 8.061222e-01 3.808858e-01 3.462573e-01 1.444980e-01 1.490988e-01 -2.412295e-01
<VARIANCE> 39
 8.725404e+00 1.537508e+01 1.694308e+01 1.536390e+01 1.961813e+01 1.776313e+01 2.430272e+01 2.693293e+01 2.749398e+01 1.967108e+01 1.801345e+01 1.402078e+01 5.884452e+00 8.560927e-01 1.191483e+00 1.745682e+00 1.207811e+00 1.481117e+00 1.898244e+00 2.741739e+00 2.366275e+00 1.540473e+00 1.549673e+00 1.350428e+00 9.877991e-01 3.385350e-01 9.850462e-02 3.735828e-01 3.331892e-01 2.318724e-01 3.084020e-01 2.565704e-01 3.502732e-01 3.373213e-01 3.124175e-01 3.700491e-01 3.154087e-01 2.615366e-01 5.332253e-02
<GCONST> 9.369791e+01
<STATE> 4
<MEAN> 39
 1.610156e+00 2.059098e+00 3.613262e+00 6.494260e+00 6.083358e+00 1.513175e+00 -4.772601e+00 -6.207258e+00 -2.533240e+00 -1.487666e+00 -1.809702e+00 -3.927556e+00 5.626060e-01 -8.962003e-01 -1.823285e-01 -1.836985e-01 -3.530993e-01 -2.244481e-02 5.893214e-01 1.351597e+00 1.106078e+00 4.810916e-01 3.103847e-01 2.350103e-02 4.719562e-02 -5.511373e-01 -9.088621e-02 -2.019794e-01 7.849380e-02 -2.467473e-01 -3.132114e-01 -1.572430e-01 6.159606e-02 1.638420e-01 -4.015202e-03 1.277037e-02 -4.900945e-02 1.267197e-01 5.739665e-02
<VARIANCE> 39
 8.527464e+00 8.387032e+00 1.553958e+01 1.337013e+01 2.133582e+01 2.091955e+01 2.177813e+01 2.556518e+01 2.268088e+01 1.309688e+01 1.727557e+01 1.323856e+01 4.908794e+00 4.450226e-01 9.777562e-01 1.366829e+00 9.403815e-01 1.458590e+00 1.340356e+00 1.733359e+00 1.618641e+00 1.622929e+00 1.606266e+00 1.405979e+00 1.068208e+00 2.876827e-01 6.991584e-02 1.128918e-01 1.536065e-01 1.735528e-01 2.587673e-01 2.174178e-01 2.751121e-01 3.099168e-01 2.702334e-01 2.416036e-01 2.793597e-01 2.102090e-01 2.967732e-02
<GCONST> 8.477669e+01
<TRANSP> 5
 0.000000e+00 1.000000e+00 0.000000e+00 0.000000e+00 0.000000e+00
 0.000000e+00 3.493347e-01 6.506653e-01 0.000000e+00 0.000000e+00
 0.000000e+00 0.000000e+00 5.349488e-01 4.650512e-01 0.000000e+00
 0.000000e+00 0.000000e+00 0.000000e+00 6.522689e-01 3.477311e-01
 0.000000e+00 0.000000e+00 0.000000e+00 0.000000e+00 0.000000e+00
<ENDHMM>
~h "j"
<BEGINHMM>
<NUMSTATES> 5
<STATE> 2
<MEAN> 39
 2.874178e+00 1.401558e+00 1.739247e+00 2.449923e+00 1.446082e+00 -1.510827e+00 -4.099812e+00 -4.918129e+00 -4.924327e+00 -2.680102e+00 -8.030522e-01 -6.068533e-01 1.691972e+00 5.493270e-01 -1.999862e-02 3.209823e-01 2.615491e-01 2.157097e-01 -4.731729e-01 -1.434812e+00 -1.340964e+00 -5.390781e-01 1.959793e-01 2.794596e-01 1.066159e-01 4.484110e-01 1.015525e-01 -1.202777e-02 -6.107204e-02 -1.298960e-01 -1.907321e-01 -1.520068e-01 -9.774654e-02 -3.625242e-02 1.310169e-01 1.281796e-01 7.985593e-02 6.959711e-02 8.113669e-02
<VARIANCE> 39
 2.924185e+01 1.511503e+01 2.254257e+01 2.620683e+01 2.702362e+01 2.004659e+01 3.344243e+01 4.733656e+01 4.254514e+01 2.205620e+01 1.819113e+01 1.741511e+01 1.532710e+01 1.171580e+00 1.508019e+00 1.618149e+00 1.228650e+00 1.810992e+00 1.993307e+00 2.497642e+00 3.047008e+00 1.678886e+00 2.056963e+00 2.394664e+00 1.605533e+00 4.316671e-01 1.781544e-01 1.592520e-01 2.628782e-01 1.759444e-01 2.776468e-01 3.330722e-01 4.629568e-01 4.650996e-01 4.115759e-01 2.995675e-01 3.639472e-01 2.839806e-01 7.172827e-02
<GCONST> 1.019093e+02
<STATE> 3
<MEAN> 39
 5.116931e+00 1.090708e+00 2.029160e+00 2.391151e+00 9.790123e-01 -3.380842e+00 -7.786120e+00 -8.303987e+00 -6.095451e+00 -2.298978e+00 -4.234091e-01 -1.615835e-01 3.532407e+00 7.420279e-01 -1.523599e-01 -1.978348e-01 -9.388202e-02 -1.540549e-01 -6.956030e-01 -1.150773e+00 -1.015411e+00 -1.878730e-01 3.975199e-01 3.956795e-01 3.434623e-01 5.365643e-01 -1.007162e-01 -8.691565e-02 -2.264867e-01 -2.590631e-01 -1.815708e-01 1.503613e-01 4.402334e-01 3.560718e-01 2.344221e-01 1.801440e-01 1.222888e-01 1.151440e-01 -6.838334e-02
<VARIANCE> 39
 2.240274e+01 1.846382e+01 2.625547e+01 2.683166e+01 2.778198e+01 2.103322e+01 3.053852e+01 3.587922e+01 3.147392e+01 2.365871e+01 2.692856e+01 2.455447e+01 1.386399e+01 1.901102e+00 1.307358e+00 1.785890e+00 1.809569e+00 2.169759e+00 2.190846e+00 3.203875e+00 3.735501e+00 2.446720e+00 2.275515e+00 2.651605e+00 1.701739e+00 7.574025e-01 2.114493e-01 2.344720e-01 3.428994e-01 2.444147e-01 3.772443e-01 3.595863e-01 4.187552e-01 4.374205e-01 3.448570e-01 3.926162e-01 5.264482e-01 3.895874e-01 9.737515e-02
<GCONST> 1.073447e+02
<STATE> 4
<MEAN> 39
 6.198647e+00 8.676524e-02 9.805070e-01 2.107183e+00 6.449716e-01 -4.144112e+00 -8.913388e+00 -9.735657e+00 -5.535872e+00 5.066455e-01 1.831100e+00 1.301557e+00 4.427290e+00 6.648805e-02 -1.027344e-01 -1.835795e-01 -2.640172e-01 -2.894152e-01 -7.163616e-02 -9.965216e-04 -9.475600e-02 1.893270e-01 4.226564e-01 1.994934e-01 1.769096e-01 7.031806e-02 -4.837823e-02 1.419739e-02 -1.230600e-01 -1.605626e-01 -4.628492e-02 1.582903e-01 2.798401e-01 1.860448e-01 1.707653e-02 -7.105083e-02 -2.429707e-02 2.655494e-02 -4.285663e-02
<VARIANCE> 39
 1.700154e+01 1.966839e+01 2.125945e+01 2.827920e+01 2.750867e+01 1.968588e+01 2.773788e+01 3.329174e+01 2.179487e+01 2.329821e+01 2.985826e+01 3.133673e+01 1.268771e+01 9.292707e-01 7.246792e-01 1.211235e+00 1.604470e+00 1.718605e+00 1.496815e+00 1.769110e+00 1.844447e+00 1.931556e+00 1.760433e+00 1.915156e+00 1.480987e+00 4.228197e-01 7.279566e-02 1.364129e-01 1.339860e-01 1.703742e-01 2.272418e-01 2.688647e-01 3.587211e-01 4.143298e-01 2.986188e-01 3.063650e-01 3.526725e-01 2.692913e-01 3.972018e-02
<GCONST> 9.535986e+01
<TRANSP> 5
 0.000000e+00 1.000000e+00 0.000000e+00 0.000000e+00 0.000000e+00
 0.000000e+00 3.397798e-01 6.602203e-01 0.000000e+00 0.000000e+00
 0.000000e+00 0.000000e+00 1.781412e-01 8.218587e-01 0.000000e+00
 0.000000e+00 0.000000e+00 0.000000e+00 6.015792e-01 3.984208e-01
 0.000000e+00 0.000000e+00 0.000000e+00 0.000000e+00 0.000000e+00
<ENDHMM>
~h "k"
<BEGINHMM>
<NUMSTATES> 5
<STATE> 2
<MEAN> 39
 -3.557401e+00 -6.096657e-01 -1.664342e+00 -8.304280e-01 1.486896e+00 2.008075e+00 1.724556e+00 3.181041e+00 2.861124e+00 1.179792e+00 2.234895e+00 5.702275e-01 -2.602301e+00 1.027570e-01 -2.722788e-01 -1.342241e-01 -2.942322e-01 -7.967334e-01 -7.602121e-01 2.104106e-01 2.789512e-01 -1.215540e-01 -3.612247e-02 -3.734253e-01 -3.106039e-01 1.996593e-01 4.103218e-01 -1.177625e-01 1.919166e-01 -3.045707e-01 -3.537230e-01 -1.906024e-01 -2.276629e-01 -4.944134e-01 -5.394931e-01 -3.485690e-02 -1.225952e-01 -6.174419e-02 4.197764e-01
<VARIANCE> 39
 8.766776e+00 8.485837e+00 1.110761e+01 1.954040e+01 2.278395e+01 1.998157e+01 1.677578e+01 2.478053e+01 1.909589e+01 1.415414e+01 1.637209e+01 1.430266e+01 3.821147e+00 1.102637e+00 2.022600e+00 1.469725e+00 2.921430e+00 2.431048e+00 2.708788e+00 2.421341e+00 2.958756e+00 2.790979e+00 1.812796e+00 1.451095e+00 1.505892e+00 8.345475e-01 1.143534e-01 3.031012e-01 1.717968e-01 3.469033e-01 3.651070e-01 4.249870e-01 4.316325e-01 4.424752e-01 3.495956e-01 3.986194e-01 3.067326e-01 2.609299e-01 7.116281e-02
<GCONST> 9.740895e+01
<STATE> 3
<MEAN> 39
 -6.093478e-01 -2.523997e+00 -1.333832e+00 -4.128695e+00 -2.935626e+00 -1.884542e+00 1.098955e+00 1.518859e+00 -7.950484e-01 7.660649e-01 8.540297e-01 -3.334363e-01 7.902707e-01 1.302417e+00 -1.976297e-01 4.317729e-01 -5.048156e-01 -8.820726e-01 -7.236894e-01 -1.003595e+00 -1.577742e+00 -1.707928e+00 -4.780289e-01 -4.653407e-01 -1.769282e-01 1.160521e+00 2.526497e-01 3.055151e-01 7.881545e-02 2.955826e-01 2.086754e-01 1.699632e-01 -3.546068e-01 -5.148644e-01 -1.665343e-02 9.067224e-03 4.507401e-02 1.169978e-01 2.499486e-02
<VARIANCE> 39
 1.499237e+01 2.996332e+01 1.809343e+01 3.493723e+01 4.393750e+01 3.896149e+01 3.334658e+01 5.372617e+01 3.614698e+01 1.570813e+01 1.361025e+01 1.645239e+01 8.896953e+00 2.071113e+00 3.022807e+00 2.094549e+00 3.362956e+00 3.796464e+00 4.073898e+00 5.136378e+00 4.731971e+00 2.715858e+00 2.342776e+00 2.475998e+00 2.095489e+00 1.027555e+00 2.505149e-01 5.229689e-01 2.785563e-01 4.471893e-01 5.857399e-01 5.573545e-01 8.217745e-01 9.442111e-01 6.778435e-01 3.974350e-01 2.675488e-01 3.518501e-01 1.419770e-01
<GCONST> 1.152335e+02
<STATE> 4
<MEAN> 39
 6.254083e+00 -1.413837e+00 -1.691922e+00 -3.640112e+00 -1.675871e+00 -1.707038e+00 -3.385270e+00 -4.855013e+00 -3.383997e+00 -2.356084e-01 1.248376e+00 1.078772e+00 5.656266e+00 2.127953e-01 3.003891e-01 2.093664e-01 2.747149e-01 1.064758e-01 1.567608e-01 -5.978373e-02 -1.658557e-01 4.751008e-02 -6.566152e-02 -1.082425e-01 -1.908400e-02 4.454858e-02 -5.881084e-02 1.196005e-01 2.119443e-02 1.474319e-01 6.957085e-02 4.424918e-02 1.290727e-01 1.528133e-01 1.896591e-01 8.712479e-03 -2.932495e-03 2.137309e-03 -1.060908e-01
<VARIANCE> 39
 6.967421e+01 2.970638e+01 2.201009e+01 2.951005e+01 3.600276e+01 2.954990e+01 3.764441e+01 3.885541e+01 2.798844e+01 2.526785e+01 2.281990e+01 2.078879e+01 4.470286e+01 1.766594e+00 2.243631e+00 1.784857e+00 2.414509e+00 3.273956e+00 2.420680e+00 3.095403e+00 3.915076e+00 2.800914e+00 2.026790e+00 1.924854e+00 1.559058e+00 1.015920e+00 2.336166e-01 4.159334e-01 3.606458e-01 4.690339e-01 4.535253e-01 4.041486e-01 5.005309e-01 6.727502e-01 5.678495e-01 4.028873e-01 3.572030e-01 2.962126e-01 1.652890e-01
<GCONST> 1.144091e+02
<TRANSP> 5
 0.000000e+00 1.000000e+00 0.000000e+00 0.000000e+00 0.000000e+00
 0.000000e+00 6.089264e-01 3.910736e-01 0.000000e+00 0.000000e+00
 0.000000e+00 0.000000e+00 3.483831e-01 6.516169e-01 0.000000e+00
 0.000000e+00 0.000000e+00 0.000000e+00 6.676874e-01 3.323126e-01
 0.000000e+00 0.000000e+00 0.000000e+00 0.000000e+00 0.000000e+00
<ENDHMM>
~h "l"
<BEGINHMM>
<NUMSTATES> 5
<STATE> 2
<MEAN> 39
 5.126873e+00 3.773466e-01 -1.583190e+00 -4.061261e+00 -3.317307e+00 -2.236629e+00 -2.691571e+00 -2.483171e+00 -3.207169e+00 -1.190996e+00 4.018497e-01 1.323002e+00 3.509446e+00 5.336314e-01 3.058365e-01 -4.533539e-01 3.909278e-01 1.118341e-01 -6.478242e-01 -9.735329e-01 -9.691306e-01 -7.305407e-01 -7.196904e-01 3.894453e-02 3.683264e-01 1.035916e-01 4.721764e-03 3.623723e-03 5.511335e-02 6.966188e-02 9.450974e-02 -4.122266e-02 -2.967758e-02 -2.933909e-02 -3.379022e-02 -6.317881e-02 -7.336106e-02 -1.392874e-01 2.127728e-02
<VARIANCE> 39
 2.733409e+01 2.902562e+01 4.404080e+01 3.151169e+01 2.788684e+01 3.206113e+01 2.475203e+01 5.388260e+01 2.800090e+01 1.908568e+01 2.830641e+01 2.058225e+01 1.062624e+01 1.193861e+00 1.877640e+00 1.540058e+00 3.403404e+00 2.350370e+00 1.879588e+00 2.343768e+00 3.053045e+00 2.116439e+00 1.705928e+00 1.258763e+00 1.872960e+00 3.673344e-01 1.438215e-01 2.376413e-01 2.228268e-01 4.254825e-01 4.064088e-01 5.238990e-01 4.550896e-01 4.923761e-01 2.829039e-01 3.969896e-01 2.696590e-01 3.029447e-01 7.111029e-02
<GCONST> 1.055404e+02
<STATE> 3
<MEAN> 39
 6.084190e+00 1.233259e+00 -1.232966e+00 -3.072587e+00 -2.849128e+00 -3.718193e+00 -4.871329e+00 -4.363893e+00 -5.046981e+00 -2.494127e+00 2.016440e-01 1.864710e+00 3.897714e+00 3.527914e-01 1.852807e-01 -3.185652e-01 5.179569e-01 4.852258e-01 -2.356952e-01 -8.295041e-01 -1.058196e+00 -6.356181e-01 -5.401815e-01 1.107673e-01 1.956238e-01 6.410725e-02 -1.377634e-01 -9.326594e-02 1.517772e-01 -9.599080e-03 5.453263e-02 2.350973e-01 1.930713e-01 9.205447e-02 1.532204e-01 2.125354e-01 -2.431469e-02 -2.545802e-01 -2.347069e-02
<VARIANCE> 39
 2.249901e+01 2.569762e+01 4.395900e+01 2.727539e+01 2.459548e+01 3.227386e+01 2.092119e+01 3.248133e+01 2.036968e+01 2.139402e+01 2.572405e+01 2.184850e+01 8.051195e+00 1.064318e+00 1.663847e+00 1.592549e+00 2.457725e+00 1.773176e+00 1.889885e+00 2.482034e+00 3.411865e+00 2.295125e+00 2.475328e+00 2.157217e+00 1.726776e+00 2.644973e-01 1.034591e-01 1.889148e-01 1.710493e-01 3.388935e-01 2.802294e-01 3.615106e-01 3.685186e-01 2.716165e-01 2.220213e-01 3.146091e-01 2.106334e-01 3.667264e-01 3.931173e-02
<GCONST> 9.999053e+01
<STATE> 4
<MEAN> 39
 8.095829e+00 -6.915023e-01 -3.449261e+00 -3.043178e+00 -3.803479e+00 -4.244047e+00 -6.725607e+00 -8.813950e+00 -7.286118e+00 -1.425979e+00 9.130731e-01 2.156805e+00 5.581645e+00 -9.314817e-02 -5.541079e-02 2.947853e-01 4.164180e-01 2.203402e-01 3.865185e-02 -3.776037e-01 -5.387630e-01 4.594534e-03 3.923578e-01 9.753752e-02 -4.743889e-01 -3.680744e-02 -1.037368e-01 -6.498761e-03 1.560811e-01 -5.800116e-02 -6.461304e-02 5.563232e-02 1.790604e-01 2.936617e-01 2.477430e-01 1.687896e-01 -1.753736e-02 -1.963110e-01 -3.419387e-02
<VARIANCE> 39
 1.947703e+01 2.907942e+01 2.771511e+01 1.954546e+01 3.515544e+01 2.141507e+01 2.111469e+01 4.673152e+01 2.632239e+01 4.438394e+01 3.790358e+01 2.849995e+01 1.243486e+01 7.441937e-01 1.292383e+00 1.496771e+00 1.702724e+00 2.418474e+00 1.892325e+00 1.980422e+00 3.038263e+00 2.370209e+00 2.405721e+00 1.490805e+00 1.937937e+00 2.618848e-01 6.528214e-02 1.756439e-01 1.640277e-01 2.680296e-01 3.677081e-01 2.482420e-01 4.815970e-01 3.693472e-01 4.007031e-01 6.427131e-01 2.590753e-01 3.012084e-01 3.263009e-02
<GCONST> 1.010293e+02
<TRANSP> 5
 0.000000e+00 1.000000e+00 0.000000e+00 0.000000e+00 0.000000e+00
 0.000000e+00 1.644613e-01 8.355387e-01 0.000000e+00 0.000000e+00
 0.000000e+00 0.000000e+00 1.833345e-01 8.166655e-01 0.000000e+00
 0.000000e+00 0.000000e+00 0.000000e+00 5.071086e-01 4.928914e-01
 0.000000e+00 0.000000e+00 0.000000e+00 0.000000e+00 0.000000e+00
<ENDHMM>
~h "m"
<BEGINHMM>
<NUMSTATES> 5
<STATE> 2
<MEAN> 39
 4.267542e+00 4.841222e+00 1.463633e+00 2.464694e+00 -6.081792e-01 -7.110485e-01 8.629689e-01 -1.635875e+00 -8.865774e-01 -1.262276e+00 -2.860835e+00 -4.209885e+00 1.113448e+00 -4.631664e-01 4.089044e-01 8.036329e-01 9.717345e-01 5.787973e-01 3.348973e-01 5.835583e-01 5.559146e-01 2.888180e-01 9.949791e-02 -1.634545e-01 -3.975303e-01 -4.040042e-01 9.646399e-02 -1.014516e-01 -9.705541e-02 -2.331869e-01 -2.366050e-01 -2.411884e-01 -2.721720e-01 -1.083963e-01 -6.584183e-02 -2.862076e-02 9.243504e-02 2.148227e-01 1.112301e-01
<VARIANCE> 39
 9.860254e+00 6.493196e+00 9.353463e+00 1.334568e+01 2.708263e+01 1.653863e+01 1.850493e+01 3.374542e+01 2.524407e+01 1.646678e+01 1.724005e+01 2.199668e+01 5.125444e+00 4.037672e-01 6.359821e-01 6.291342e-01 7.880763e-01 1.338761e+00 1.085832e+00 1.397783e+00 1.127613e+00 1.041248e+00 1.108044e+00 1.162421e+00 1.654306e+00 1.685300e-01 3.811483e-02 7.578882e-02 9.176524e-02 1.367722e-01 2.455096e-01 2.084183e-01 2.222265e-01 2.330056e-01 1.928136e-01 2.152327e-01 2.062837e-01 2.298413e-01 2.179859e-02
<GCONST> 7.837630e+01
<STATE> 3
<MEAN> 39
 3.390869e+00 6.009751e+00 3.578285e+00 4.763076e+00 1.951990e+00 8.712093e-01 1.383711e+00 -6.557482e-01 -5.075279e-01 -1.395150e+00 -2.243827e+00 -3.871899e+00 3.615559e-01 -1.061558e-03 2.630636e-01 2.688888e-01 2.675678e-02 -3.618819e-01 -4.713823e-01 -8.100597e-02 1.674397e-01 1.133650e-01 2.472142e-04 -1.820151e-01 -1.529725e-01 -5.139977e-02 1.699043e-01 -2.209076e-01 -3.274543e-01 -4.202181e-01 -3.313779e-01 -3.218611e-01 -3.620495e-01 -2.412567e-01 -1.566730e-01 -4.099132e-02 1.428495e-01 3.376569e-01 1.812640e-01
<VARIANCE> 39
 9.526482e+00 6.375208e+00 1.142658e+01 1.404802e+01 1.911515e+01 1.406384e+01 1.708895e+01 2.390482e+01 2.098616e+01 1.490708e+01 1.405745e+01 1.466935e+01 4.328398e+00 4.551813e-01 5.475581e-01 5.388889e-01 6.125706e-01 1.115708e+00 1.075670e+00 1.012388e+00 1.238379e+00 1.138516e+00 1.229519e+00 9.496782e-01 1.242323e+00 1.653457e-01 6.114158e-02 1.113784e-01 1.206621e-01 1.625042e-01 2.295685e-01 2.422785e-01 2.925324e-01 2.601991e-01 2.249724e-01 3.033177e-01 2.216072e-01 2.391072e-01 3.721952e-02
<GCONST> 7.832209e+01
<STATE> 4
<MEAN> 39
 3.604602e+00 5.582332e+00 2.498082e+00 2.771084e+00 -4.212888e-01 -8.788806e-01 9.807137e-01 -7.577749e-01 -7.475189e-01 -1.336615e+00 -2.703073e+00 -3.817664e+00 5.861378e-01 2.278132e-01 -4.130051e-01 -5.682091e-01 -6.696785e-01 -6.415424e-01 -7.546344e-01 -7.221876e-01 -3.754598e-01 -2.860832e-01 -8.295816e-02 3.295552e-01 7.681506e-01 2.921119e-01 1.151475e-01 -2.771289e-01 -2.196835e-01 -1.822796e-01 -4.765014e-02 -8.606404e-02 -2.842115e-01 -2.081129e-01 -1.125092e-01 2.642614e-03 1.905381e-01 2.796481e-01 1.647282e-01
<VARIANCE> 39
 1.322604e+01 8.233682e+00 1.129646e+01 1.740359e+01 2.399669e+01 1.466958e+01 2.062766e+01 2.291124e+01 2.444124e+01 1.742055e+01 1.837309e+01 1.983598e+01 5.974548e+00 8.135254e-01 1.043251e+00 1.074850e+00 1.367021e+00 2.259848e+00 2.158303e+00 1.795834e+00 2.042310e+00 1.959870e+00 1.981707e+00 1.569821e+00 1.442284e+00 4.233233e-01 8.861367e-02 1.914775e-01 1.596005e-01 2.698379e-01 3.291114e-01 2.572837e-01 3.963119e-01 3.191276e-01 2.731325e-01 3.318461e-01 2.742201e-01 2.992093e-01 4.978741e-02
<GCONST> 9.217051e+01
<TRANSP> 5
 0.000000e+00 1.000000e+00 0.000000e+00 0.000000e+00 0.000000e+00
 0.000000e+00 5.979669e-01 4.020331e-01 0.000000e+00 0.000000e+00
 0.000000e+00 0.000000e+00 4.757216e-01 5.242783e-01 0.000000e+00
 0.000000e+00 0.000000e+00 0.000000e+00 3.200318e-01 6.799682e-01
 0.000000e+00 0.000000e+00 0.000000e+00 0.000000e+00 0.000000e+00
<ENDHMM>
~h "n"
<BEGINHMM>
<NUMSTATES> 5
<STATE> 2
<MEAN> 39
 1.152982e+00 4.419187e+00 2.573575e+00 4.488834e+00 2.757777e+00 1.095920e+00 1.091578e+00 -3.931691e-01 -1.136461e+00 -2.156307e+00 -1.391812e+00 -1.489725e+00 -7.935468e-01 6.203430e-02 3.993065e-01 4.506328e-01 4.949433e-01 1.227212e-01 -1.886023e-02 1.584384e-01 4.425542e-03 -3.523007e-02 -9.463891e-02 -2.958727e-01 -3.284191e-01 -5.949705e-02 1.158232e-01 -5.026988e-02 -5.661025e-02 -1.887086e-01 -2.143542e-01 -1.481505e-01 -1.039663e-01 -7.185939e-02 -2.565302e-02 6.210059e-02 5.040767e-02 9.963142e-02 1.124264e-01
<VARIANCE> 39
 1.740210e+01 9.433017e+00 1.474364e+01 1.734403e+01 1.973758e+01 1.508798e+01 2.115034e+01 2.383923e+01 2.080597e+01 1.533928e+01 1.361122e+01 1.185322e+01 7.514028e+00 4.882628e-01 7.320136e-01 8.141880e-01 8.412663e-01 1.039939e+00 8.176884e-01 1.180957e+00 1.400044e+00 1.226205e+00 9.690681e-01 9.761308e-01 8.746934e-01 1.682322e-01 7.021947e-02 9.448614e-02 1.317560e-01 1.710193e-01 2.280648e-01 1.831718e-01 2.119107e-01 2.346542e-01 2.562903e-01 2.001056e-01 2.342773e-01 2.161680e-01 3.433912e-02
<GCONST> 7.996324e+01
<STATE> 3
<MEAN> 39
 3.388799e+00 5.827245e+00 3.880029e+00 4.963359e+00 1.874287e+00 -3.758650e-02 6.243288e-01 -1.418204e+00 -1.777792e+00 -2.486428e+00 -2.449682e+00 -2.395759e+00 4.535616e-01 7.902831e-01 2.201773e-01 9.154234e-02 -3.882516e-01 -9.990202e-01 -9.029317e-01 -4.411322e-01 -5.276811e-01 -3.903200e-01 -1.531228e-02 -1.683113e-01 7.986723e-02 5.520525e-01 1.064470e-01 -4.872683e-01 -5.018876e-01 -6.876865e-01 -4.432986e-01 -1.882973e-01 -1.311802e-01 1.077911e-02 -1.347987e-02 1.760537e-01 3.169410e-01 4.353238e-01 2.230169e-01
<VARIANCE> 39
 1.160194e+01 1.170543e+01 1.536890e+01 2.137842e+01 1.961489e+01 1.361631e+01 1.469312e+01 2.245534e+01 1.786656e+01 1.305994e+01 1.388989e+01 1.206563e+01 6.148137e+00 1.031501e+00 1.420884e+00 1.528724e+00 1.704489e+00 1.640654e+00 1.293818e+00 1.308682e+00 2.104137e+00 1.469593e+00 1.255043e+00 1.623144e+00 1.642171e+00 4.990188e-01 1.354605e-01 2.449674e-01 2.244692e-01 2.762504e-01 2.557420e-01 2.533772e-01 3.011349e-01 4.356208e-01 2.700057e-01 2.447843e-01 2.684776e-01 2.841005e-01 7.435209e-02
<GCONST> 9.131995e+01
<STATE> 4
<MEAN> 39
 5.338168e+00 5.243783e+00 2.021919e+00 1.384812e+00 -2.245395e+00 -2.874931e+00 -9.266971e-01 -2.990958e+00 -3.263788e+00 -2.232944e+00 -1.905313e+00 -9.705966e-01 1.989009e+00 8.191775e-01 -9.021963e-01 -1.267057e+00 -1.937009e+00 -1.561649e+00 -7.476522e-01 -4.539582e-01 -2.525721e-01 -1.579055e-01 4.806720e-01 7.562678e-01 1.115789e+00 8.647912e-01 -1.524778e-02 -3.944121e-01 -3.361021e-01 -2.710108e-01 1.103095e-01 2.174008e-01 -2.193338e-02 3.305529e-02 1.383791e-01 1.912359e-01 2.291549e-01 1.954034e-01 9.687433e-02
<VARIANCE> 39
 9.638062e+00 8.412729e+00 1.560908e+01 2.193990e+01 1.829684e+01 9.318498e+00 1.419406e+01 2.434895e+01 1.766012e+01 1.391446e+01 1.623664e+01 1.673564e+01 5.564202e+00 8.111478e-01 1.367102e+00 1.675060e+00 2.244444e+00 2.049424e+00 1.691253e+00 2.223757e+00 3.168418e+00 1.518718e+00 1.409755e+00 1.834921e+00 1.670784e+00 5.520284e-01 8.623566e-02 1.478970e-01 2.150368e-01 2.620129e-01 2.050581e-01 1.824604e-01 2.100029e-01 2.954236e-01 1.796084e-01 1.980857e-01 2.207611e-01 2.783752e-01 4.756761e-02
<GCONST> 8.915387e+01
<TRANSP> 5
 0.000000e+00 1.000000e+00 0.000000e+00 0.000000e+00 0.000000e+00
 0.000000e+00 7.174435e-01 2.825564e-01 0.000000e+00 0.000000e+00
 0.000000e+00 0.000000e+00 4.782788e-01 5.217212e-01 0.000000e+00
 0.000000e+00 0.000000e+00 0.000000e+00 3.326546e-01 6.673454e-01
 0.000000e+00 0.000000e+00 0.000000e+00 0.000000e+00 0.000000e+00
<ENDHMM>
~h "o"
<BEGINHMM>
<NUMSTATES> 5
<STATE> 2
<MEAN> 39
 2.626962e+00 6.917619e-01 1.061588e+00 -3.526816e+00 -6.486029e+00 -4.682613e+00 -1.921377e+00 -1.558717e+00 -1.780785e+00 -1.309453e+00 -1.006465e+00 4.559774e-01 2.268539e+00 2.216693e+00 9.792757e-01 -2.856925e-01 -1.342739e+00 -2.136189e+00 -1.950065e+00 -1.355717e+00 -1.004429e+00 -1.158600e+00 -8.577657e-01 -2.258749e-01 -3.363848e-02 1.209813e+00 1.029572e-01 1.524016e-01 -3.901959e-01 7.379727e-03 2.517580e-01 5.525843e-02 3.847213e-02 2.507176e-01 2.062154e-01 9.471101e-02 3.548720e-02 -1.586659e-01 -8.895795e-02
<VARIANCE> 39
 2.667205e+01 2.627564e+01 2.282822e+01 1.541849e+01 2.182665e+01 2.327232e+01 1.824304e+01 2.564854e+01 3.103270e+01 2.007215e+01 1.534894e+01 1.366194e+01 1.016183e+01 2.801871e+00 2.181775e+00 1.775503e+00 2.074680e+00 2.901164e+00 2.651424e+00 2.234584e+00 3.053488e+00 3.124230e+00 2.693498e+00 1.631711e+00 1.799325e+00 1.233466e+00 3.204288e-01 3.838981e-01 3.952708e-01 2.978514e-01 4.603863e-01 4.279101e-01 4.065542e-01 4.171545e-01 4.324841e-01 4.088037e-01 3.376713e-01 2.610217e-01 1.302756e-01
<GCONST> 1.072288e+02
<STATE> 3
<MEAN> 39
 8.694175e+00 3.002037e+00 -2.568288e+00 -7.256330e+00 -1.134772e+01 -9.493558e+00 -4.508761e+00 -2.585472e+00 -3.965946e+00 -3.057644e+00 -1.454163e+00 -4.184431e-01 5.028137e+00 9.634022e-01 3.512378e-01 -8.379344e-01 -5.413870e-01 -4.587128e-01 -5.044570e-01 -2.069104e-01 1.733937e-01 1.177730e-01 1.144330e-01 -2.186203e-01 -5.487864e-01 3.735008e-01 -7.445526e-01 -1.928157e-01 2.967885e-01 5.578365e-01 8.261333e-01 7.775387e-01 4.948186e-01 3.242348e-01 4.854674e-01 3.293629e-01 -8.475531e-03 -7.409860e-02 -4.239895e-01
<VARIANCE> 39
 1.027615e+01 1.649675e+01 1.476483e+01 1.416274e+01 2.011649e+01 1.823380e+01 1.578010e+01 2.415623e+01 2.895462e+01 2.601950e+01 1.490660e+01 1.988487e+01 8.476501e+00 1.859279e+00 1.269364e+00 2.051158e+00 1.454524e+00 2.303525e+00 2.698921e+00 1.770404e+00 2.207546e+00 2.805732e+00 2.427333e+00 1.563783e+00 2.002750e+00 6.215302e-01 2.061168e-01 2.891263e-01 3.708404e-01 2.145881e-01 3.035663e-01 3.746914e-01 3.221081e-01 4.594479e-01 5.153278e-01 5.023086e-01 3.196476e-01 4.237660e-01 1.018296e-01
<GCONST> 1.011108e+02
<STATE> 4
<MEAN> 39
 7.146638e+00 4.365571e+00 -2.247612e+00 -6.160995e+00 -9.676916e+00 -8.222367e+00 -2.886724e+00 1.825910e-01 2.766491e-01 -1.123237e+00 -2.345433e+00 -2.420330e+00 3.341386e+00 -6.665349e-01 8.306441e-02 4.326656e-01 7.353005e-01 9.855607e-01 8.135505e-01 4.451143e-01 1.914886e-01 3.409751e-01 1.816682e-01 -5.779739e-02 -1.149488e-01 -4.716156e-01 -1.695551e-01 -1.086958e-01 1.445488e-01 1.629094e-01 1.797809e-01 1.439161e-01 6.843838e-02 -1.397827e-02 -5.720341e-02 1.902560e-02 9.392267e-02 1.266799e-01 -5.394762e-02
<VARIANCE> 39
 1.342673e+01 1.069540e+01 1.142209e+01 1.710982e+01 2.597201e+01 2.185821e+01 1.687923e+01 2.603907e+01 2.832394e+01 2.170273e+01 1.728628e+01 1.991866e+01 7.969846e+00 5.387294e-01 6.991168e-01 9.847439e-01 1.077230e+00 1.554593e+00 1.671825e+00 1.428829e+00 1.704824e+00 1.867798e+00 1.428559e+00 1.337801e+00 1.601344e+00 2.827873e-01 9.626370e-02 1.140799e-01 1.623994e-01 1.874690e-01 2.511038e-01 2.760549e-01 2.565034e-01 3.067533e-01 3.312033e-01 2.859703e-01 2.585270e-01 2.950174e-01 4.137426e-02
<GCONST> 8.876317e+01
<TRANSP> 5
 0.000000e+00 1.000000e+00 0.000000e+00 0.000000e+00 0.000000e+00
 0.000000e+00 3.797891e-01 6.202109e-01 0.000000e+00 0.000000e+00
 0.000000e+00 0.000000e+00 5.755959e-01 4.244042e-01 0.000000e+00
 0.000000e+00 0.000000e+00 0.000000e+00 7.574883e-01 2.425117e-01
 0.000000e+00 0.000000e+00 0.000000e+00 0.000000e+00 0.000000e+00
<ENDHMM>
~h "p"
<BEGINHMM>
<NUMSTATES> 5
<STATE> 2
<MEAN> 39
 -2.158334e+00 9.894912e-01 -1.698928e+00 8.312493e-01 1.811666e+00 1.286791e+00 2.319774e+00 3.058625e+00 2.670092e+00 3.124964e-02 -1.626546e-01 -3.115079e-01 -2.525689e+00 -7.664307e-01 -3.482247e-01 -1.650418e-01 2.878231e-01 1.084287e-01 1.666133e-01 3.657334e-01 4.545746e-01 5.287902e-01 2.391613e-01 1.651125e-01 2.002065e-01 -4.753806e-01 2.900332e-01 -5.179480e-02 5.314912e-02 -1.498935e-01 -3.446432e-01 -3.678722e-01 -3.389516e-01 -3.502035e-01 -2.719488e-01 -3.426539e-02 3.446244e-02 1.108483e-01 2.604572e-01
<VARIANCE> 39
 9.844137e+00 8.085834e+00 8.216423e+00 1.202326e+01 1.979661e+01 1.459054e+01 1.283269e+01 1.855960e+01 1.708298e+01 1.037977e+01 1.237224e+01 1.179876e+01 4.063970e+00 3.533309e-01 4.314369e-01 5.937003e-01 6.321732e-01 8.290380e-01 7.392809e-01 1.007070e+00 1.053468e+00 1.198332e+00 1.084656e+00 9.644723e-01 9.124028e-01 1.868985e-01 5.835816e-02 1.082925e-01 1.413153e-01 8.691563e-02 1.908417e-01 1.841808e-01 1.711989e-01 2.040659e-01 2.720583e-01 2.557859e-01 2.691918e-01 2.008372e-01 3.671821e-02
<GCONST> 7.346207e+01
<STATE> 3
<MEAN> 39
 -2.447450e+00 -4.623123e-01 -2.343368e+00 5.726143e-01 1.216753e+00 1.013053e+00 2.260022e+00 3.778897e+00 2.877732e+00 5.400401e-02 6.357024e-01 2.313073e-01 -2.198791e+00 3.515837e-02 -3.468885e-01 9.103622e-02 2.555314e-02 -5.704749e-01 -4.963870e-01 -2.800770e-01 -3.546348e-01 -1.009340e-01 1.079752e-01 4.154038e-02 2.741820e-01 1.818195e-01 4.952262e-01 1.060626e-01 1.241349e-01 -2.416338e-01 -3.863587e-01 -3.934755e-01 -3.630527e-01 -4.473345e-01 -4.350009e-01 -2.402926e-01 -1.257360e-01 2.449146e-02 3.622989e-01
<VARIANCE> 39
 1.530583e+01 1.105085e+01 7.561325e+00 1.325418e+01 1.948354e+01 1.673104e+01 1.899790e+01 1.961540e+01 1.786464e+01 1.653929e+01 1.788471e+01 1.197936e+01 8.097079e+00 9.701476e-01 9.286163e-01 8.699890e-01 9.920903e-01 1.090832e+00 9.759887e-01 9.196874e-01 1.230562e+00 1.579262e+00 1.454594e+00 1.470166e+00 1.114984e+00 8.329815e-01 2.532844e-01 2.596227e-01 1.634578e-01 2.160721e-01 3.386702e-01 3.546274e-01 3.550147e-01 3.205641e-01 3.807061e-01 3.521301e-01 3.048518e-01 1.865923e-01 1.895082e-01
<GCONST> 9.045058e+01
<STATE> 4
<MEAN> 39
 -3.362027e+00 -3.741012e-01 -2.456145e+00 1.082015e+00 8.317295e-01 2.047226e-01 1.885308e+00 3.434936e+00 3.292932e+00 4.502692e-01 3.928401e-01 2.203985e-01 -3.008232e+00 1.218139e+00 1.651382e-02 2.997921e-01 -6.024289e-01 -1.532671e+00 -1.400688e+00 -1.045044e+00 -1.237761e+00 -1.076428e+00 -6.652933e-01 -5.015353e-01 1.026327e-01 9.980543e-01 6.271862e-01 1.996412e-01 7.983850e-02 -3.605296e-01 -2.878501e-01 -2.894589e-01 -3.233910e-01 -3.600555e-01 -3.948251e-01 -1.668852e-01 -1.430759e-02 3.455770e-02 4.370277e-01
<VARIANCE> 39
 6.974441e+00 7.521409e+00 5.933289e+00 9.629220e+00 1.579953e+01 1.120227e+01 1.132846e+01 1.441422e+01 9.881111e+00 8.443200e+00 1.069850e+01 7.492819e+00 3.346571e+00 1.558763e+00 1.545297e+00 1.184000e+00 1.414942e+00 2.463592e+00 2.301141e+00 1.683699e+00 1.763342e+00 1.936710e+00 1.378679e+00 1.503274e+00 1.368965e+00 7.418199e-01 1.761738e-01 2.942797e-01 1.772429e-01 2.199366e-01 4.459692e-01 4.500785e-01 2.967262e-01 2.230031e-01 2.934401e-01 2.167812e-01 1.892557e-01 1.785171e-01 6.315460e-02
<GCONST> 8.616333e+01
<TRANSP> 5
 0.000000e+00 1.000000e+00 0.000000e+00 0.000000e+00 0.000000e+00
 0.000000e+00 4.945312e-01 5.054688e-01 0.000000e+00 0.000000e+00
 0.000000e+00 0.000000e+00 2.057112e-01 7.942888e-01 0.000000e+00
 0.000000e+00 0.000000e+00 0.000000e+00 4.241065e-01 5.758935e-01
 0.000000e+00 0.000000e+00 0.000000e+00 0.000000e+00 0.000000e+00
<ENDHMM>
~h "r"
<BEGINHMM>
<NUMSTATES> 5
<STATE> 2
<MEAN> 39
 6.083047e+00 1.307947e+00 -3.327631e-01 -4.234417e+00 -5.340945e+00 -4.563742e+00 -3.535852e+00 -3.822139e+00 -3.120032e+00 -1.641421e+00 -1.054451e+00 -2.059326e-01 4.255207e+00 2.337261e+00 9.355919e-01 -1.489232e+00 -1.676690e+00 -1.139563e+00 -6.712722e-01 -8.035749e-01 -1.166458e+00 -1.239946e+00 -3.455200e-01 2.127615e-01 -6.810294e-02 1.037367e+00 -2.852303e-01 -7.150881e-02 -2.893210e-01 -2.626363e-02 3.866532e-01 3.985099e-01 2.793239e-01 2.489552e-01 1.297742e-01 1.724254e-01 1.229885e-01 7.906889e-02 -2.061803e-01
<VARIANCE> 39
 2.045110e+01 1.587652e+01 2.347263e+01 2.995327e+01 2.876810e+01 1.262941e+01 2.346702e+01 2.877519e+01 2.792822e+01 2.184325e+01 1.961811e+01 1.111852e+01 7.195254e+00 2.432992e+00 1.751089e+00 2.968114e+00 1.757478e+00 2.728899e+00 2.371900e+00 2.046510e+00 2.380684e+00 2.384958e+00 2.112638e+00 1.567564e+00 1.299581e+00 8.342651e-01 4.612022e-01 3.935324e-01 4.328043e-01 4.042891e-01 5.734566e-01 3.501047e-01 3.448088e-01 4.453784e-01 4.204522e-01 3.231534e-01 2.947936e-01 1.992202e-01 1.355509e-01
<GCONST> 1.051396e+02
<STATE> 3
<MEAN> 39
 1.004371e+01 1.829330e+00 -6.287974e+00 -9.751966e+00 -6.643342e+00 -4.014571e+00 -3.597526e+00 -4.840531e+00 -6.010904e+00 -1.879928e+00 -5.890031e-01 8.011820e-01 5.979086e+00 3.391814e-03 1.551910e-01 -7.298440e-01 -9.201671e-02 9.256091e-01 8.123517e-01 3.736102e-01 -4.629708e-02 -3.501584e-01 -2.666123e-01 1.843538e-01 1.061038e-02 -1.368557e-01 -5.141711e-01 -1.665139e-01 4.400902e-01 4.864282e-01 2.652304e-01 6.505895e-02 1.879744e-01 3.202931e-01 3.851064e-01 1.834492e-01 4.599950e-02 -5.048319e-02 -2.298876e-01
<VARIANCE> 39
 1.058730e+01 1.391067e+01 1.528859e+01 3.341792e+01 2.328567e+01 1.486279e+01 1.667680e+01 2.671202e+01 2.473337e+01 2.531556e+01 2.601100e+01 1.270189e+01 6.852684e+00 5.214872e-01 7.985272e-01 1.490464e+00 1.434686e+00 1.817345e+00 1.697734e+00 1.091829e+00 1.549578e+00 1.829033e+00 2.137563e+00 1.876627e+00 1.584326e+00 3.726895e-01 2.646587e-01 2.439757e-01 3.313847e-01 2.786084e-01 3.662021e-01 3.437565e-01 2.481323e-01 5.061742e-01 4.445666e-01 4.320714e-01 3.161719e-01 3.162131e-01 8.730073e-02
<GCONST> 9.635809e+01
<STATE> 4
<MEAN> 39
 9.028514e+00 3.196129e+00 -6.662239e+00 -7.484632e+00 -3.597722e+00 -3.282314e+00 -3.204882e+00 -3.912349e+00 -5.152867e+00 -2.278103e+00 4.813962e-01 3.154060e-01 4.742013e+00 -2.185819e-01 -1.365225e-01 1.012921e-01 2.570270e-01 1.366377e-01 -2.750497e-01 3.962807e-02 4.176048e-01 4.075223e-01 2.963285e-01 6.326500e-02 -9.497273e-02 -8.411807e-02 -4.597067e-02 -1.011396e-01 2.098539e-01 6.761700e-03 -2.848812e-01 -1.764645e-01 1.346640e-02 7.628900e-02 5.930174e-02 6.849860e-02 -1.339290e-02 -4.572192e-02 2.228029e-02
<VARIANCE> 39
 1.220175e+01 6.538265e+00 1.240363e+01 1.547972e+01 2.240993e+01 1.896587e+01 1.648405e+01 1.854746e+01 2.518964e+01 2.542099e+01 2.443149e+01 1.496417e+01 4.955231e+00 5.474319e-01 6.277149e-01 9.018632e-01 9.269805e-01 1.307049e+00 1.399592e+00 1.205853e+00 1.752436e+00 1.770947e+00 1.362375e+00 1.366618e+00 1.159853e+00 2.543862e-01 9.574957e-02 1.109399e-01 1.999525e-01 1.141338e-01 2.262848e-01 3.080124e-01 2.064387e-01 3.025377e-01 3.396547e-01 2.899610e-01 2.843066e-01 2.655129e-01 3.864278e-02
<GCONST> 8.521340e+01
<TRANSP> 5
 0.000000e+00 1.000000e+00 0.000000e+00 0.000000e+00 0.000000e+00
 0.000000e+00 4.864450e-01 5.135550e-01 0.000000e+00 0.000000e+00
 0.000000e+00 0.000000e+00 4.780442e-01 5.219558e-01 0.000000e+00
 0.000000e+00 0.000000e+00 0.000000e+00 6.982928e-01 3.017072e-01
 0.000000e+00 0.000000e+00 0.000000e+00 0.000000e+00 0.000000e+00
<ENDHMM>
~h "s"
<BEGINHMM>
<NUMSTATES> 5
<STATE> 2
<MEAN> 39
 2.163301e-01 -6.627339e-01 5.424803e+00 -5.501482e-02 -2.620407e-01 2.941758e+00 6.750715e-01 -2.273396e+00 -1.970024e+00 1.068087e+00 -1.016563e+00 -3.643069e-01 1.782318e+00 -1.675067e+00 -1.498242e+00 1.962424e+00 -8.223384e-01 4.312784e-01 1.523415e+00 9.425169e-01 9.186458e-01 2.710311e-01 1.105203e+00 -8.957724e-02 3.293552e-01 7.530293e-02 -1.512524e-01 -2.117579e-01 4.239873e-02 -5.116351e-01 -1.372401e-01 -1.850387e-01 -3.237807e-01 -2.769273e-02 1.222275e-02 4.659196e-02 -6.936648e-02 3.702553e-02 6.585404e-02
<VARIANCE> 39
 1.365759e+01 1.977566e+01 3.390272e+01 2.910064e+01 3.082749e+01 3.081424e+01 2.293545e+01 3.455066e+01 2.036796e+01 2.161907e+01 1.980920e+01 1.616942e+01 8.400970e+00 1.331577e+00 1.334657e+00 2.065076e+00 1.997619e+00 2.302696e+00 2.008580e+00 1.858080e+00 2.579361e+00 2.310944e+00 1.721390e+00 1.769961e+00 1.608521e+00 2.175747e-01 1.350265e-01 1.828419e-01 2.521656e-01 2.871201e-01 3.107875e-01 4.226267e-01 4.709209e-01 4.355798e-01 3.721745e-01 3.699608e-01 3.192278e-01 2.384982e-01 2.878517e-02
<GCONST> 9.963255e+01
<STATE> 3
<MEAN> 39
 -5.298359e+00 -5.696865e+00 1.129525e+01 -5.377166e+00 1.146245e+00 6.596614e+00 3.605152e-01 -5.343727e-01 -1.628989e+00 4.351210e+00 -1.264461e+00 3.600560e-01 2.345418e+00 -1.223018e+00 -8.870147e-01 7.745870e-01 -1.518072e+00 1.548053e-01 2.449448e-01 -7.078388e-01 3.370632e-01 1.412253e-01 6.529783e-02 -3.359702e-01 2.903726e-01 -4.678319e-02 3.814989e-01 4.137871e-01 -5.630284e-01 3.331782e-01 -6.321128e-02 -3.660575e-01 -2.075197e-01 -1.695417e-01 -4.035953e-03 -3.955238e-01 9.265748e-03 -5.770698e-02 -1.087214e-01
<VARIANCE> 39
 7.966946e+00 1.167696e+01 1.749158e+01 3.565347e+01 2.724059e+01 1.974023e+01 1.984889e+01 2.635149e+01 2.326770e+01 1.928960e+01 1.649288e+01 1.525578e+01 6.852588e+00 6.287522e-01 7.833345e-01 1.320248e+00 1.351851e+00 1.347577e+00 1.468085e+00 1.696568e+00 1.685206e+00 1.153136e+00 1.505683e+00 1.177569e+00 1.077877e+00 1.469578e-01 7.372113e-02 1.156440e-01 1.962527e-01 2.497042e-01 2.755839e-01 2.647100e-01 3.471291e-01 3.286860e-01 2.972313e-01 2.701343e-01 2.631844e-01 2.288933e-01 2.026365e-02
<GCONST> 8.742865e+01
<STATE> 4
<MEAN> 39
 -6.652076e+00 -5.959174e+00 9.555169e+00 -6.978426e+00 1.114648e+00 5.717479e+00 -1.232693e+00 1.093562e+00 -2.363449e-01 2.331668e+00 -1.840146e+00 1.061051e+00 1.198035e+00 3.977238e-01 6.348976e-01 -1.118299e+00 8.268633e-01 4.936364e-02 -3.761787e-01 -4.938385e-02 2.541467e-01 3.216018e-01 -6.288391e-01 3.702983e-01 -7.788744e-02 -4.485064e-01 3.836654e-01 3.224394e-01 -2.899191e-01 3.537437e-01 -7.223200e-02 -1.884030e-01 3.351284e-02 -1.230854e-01 -6.986452e-02 -1.364736e-01 1.330124e-01 -7.243037e-02 1.021615e-02
<VARIANCE> 39
 7.632215e+00 1.355364e+01 2.197658e+01 2.492448e+01 2.116370e+01 1.870117e+01 1.754017e+01 2.116323e+01 1.888512e+01 1.933457e+01 1.507502e+01 1.281271e+01 7.216140e+00 9.767845e-01 1.202906e+00 1.264657e+00 1.409530e+00 1.442531e+00 1.591583e+00 1.572465e+00 2.010255e+00 1.809967e+00 1.648678e+00 1.347071e+00 1.133505e+00 3.258467e-01 1.612818e-01 2.161542e-01 2.453045e-01 2.780714e-01 2.792186e-01 2.880878e-01 3.764681e-01 3.851333e-01 3.251182e-01 3.333890e-01 2.542169e-01 2.364217e-01 5.328258e-02
<GCONST> 9.231762e+01
<TRANSP> 5
 0.000000e+00 1.000000e+00 0.000000e+00 0.000000e+00 0.000000e+00
 0.000000e+00 5.818697e-01 4.181303e-01 0.000000e+00 0.000000e+00
 0.000000e+00 0.000000e+00 6.822841e-01 3.177159e-01 0.000000e+00
 0.000000e+00 0.000000e+00 0.000000e+00 7.811717e-01 2.188283e-01
 0.000000e+00 0.000000e+00 0.000000e+00 0.000000e+00 0.000000e+00
<ENDHMM>
~h "t"
<BEGINHMM>
<NUMSTATES> 5
<STATE> 2
<MEAN> 39
 -3.392749e+00 8.665764e-01 -9.885072e-01 1.640833e+00 2.338742e+00 1.033949e+00 1.021347e+00 1.410329e+00 1.287551e+00 -5.161011e-01 4.095366e-01 3.071785e-01 -3.188179e+00 -4.678029e-01 -1.702666e-01 -1.110815e-01 2.094204e-01 -1.303000e-02 6.288700e-03 3.054647e-01 3.827646e-01 3.488358e-01 8.938289e-02 5.321746e-02 1.478720e-02 -3.341220e-01 1.310196e-01 -6.865913e-02 1.289354e-01 -1.541684e-01 -2.180093e-01 -9.682028e-02 -6.776602e-02 -1.641698e-01 -1.390072e-01 3.594372e-02 -5.918765e-02 1.183560e-02 1.780052e-01
<VARIANCE> 39
 8.673916e+00 7.826324e+00 9.016510e+00 1.134291e+01 1.648937e+01 1.725260e+01 1.758711e+01 2.224109e+01 1.873880e+01 1.296715e+01 1.144647e+01 1.189751e+01 2.920716e+00 4.106211e-01 3.916829e-01 6.023372e-01 7.244260e-01 1.032863e+00 1.111989e+00 1.251357e+00 1.146694e+00 1.152184e+00 1.054963e+00 1.097513e+00 9.849732e-01 1.704974e-01 5.793374e-02 9.761935e-02 1.174380e-01 1.490483e-01 2.583911e-01 2.403888e-01 2.749378e-01 2.479736e-01 2.685240e-01 2.473817e-01 2.240090e-01 1.782647e-01 5.193681e-02
<GCONST> 7.639343e+01
<STATE> 3
<MEAN> 39
 -4.504935e+00 4.356500e-02 -8.331203e-01 1.948536e+00 3.206371e+00 2.044163e+00 2.053069e+00 2.810856e+00 2.594961e+00 -7.156987e-02 1.684474e-01 -2.712182e-02 -3.547587e+00 -5.738148e-02 -5.412368e-01 4.460098e-01 -5.290613e-01 -1.299666e+00 -6.451002e-01 1.194860e-01 -1.009198e-01 1.920189e-02 3.683760e-01 -1.147049e-01 1.587992e-01 3.602442e-01 6.354134e-01 9.620889e-03 3.549520e-01 -5.045196e-01 -7.342035e-01 -4.642937e-01 -4.035375e-01 -6.059315e-01 -5.875739e-01 -1.153722e-01 -1.850774e-01 3.422154e-02 5.946132e-01
<VARIANCE> 39
 1.059914e+01 7.385114e+00 1.028215e+01 1.215118e+01 1.861112e+01 1.689131e+01 1.871544e+01 2.837597e+01 2.134722e+01 1.271250e+01 1.332436e+01 9.869858e+00 3.734631e+00 5.877724e-01 8.726426e-01 1.071683e+00 1.305054e+00 1.898055e+00 1.451606e+00 1.708589e+00 1.755370e+00 1.395636e+00 1.279005e+00 1.202494e+00 9.537562e-01 3.220113e-01 1.194708e-01 1.544379e-01 1.344923e-01 2.521027e-01 3.586771e-01 3.053797e-01 2.895318e-01 3.427352e-01 2.704193e-01 2.965482e-01 2.708635e-01 1.948556e-01 9.335985e-02
<GCONST> 8.631906e+01
<STATE> 4
<MEAN> 39
 -4.055092e+00 -1.285995e+00 2.622641e-01 2.370839e-01 -6.232308e-01 2.390603e-01 1.815020e+00 1.933441e+00 2.200850e+00 8.597220e-01 5.191424e-02 5.164989e-01 -2.285610e+00 1.505058e+00 -1.281351e-01 1.114559e+00 -1.251051e+00 -2.350665e+00 -1.448002e+00 -9.651466e-01 -1.676880e+00 -1.546094e+00 -2.533432e-01 -4.886896e-01 2.120248e-01 1.548461e+00 8.277078e-01 2.861487e-01 -1.638205e-01 -3.311445e-01 -2.863967e-01 -3.057211e-01 -3.811225e-01 -3.958910e-01 -5.545561e-01 -2.693549e-01 1.193183e-02 1.682997e-02 4.497638e-01
<VARIANCE> 39
 7.812887e+00 8.495564e+00 1.109779e+01 1.372908e+01 2.326934e+01 1.602533e+01 1.634364e+01 2.203867e+01 1.700142e+01 1.372159e+01 1.090857e+01 9.643036e+00 5.080777e+00 1.741224e+00 1.727710e+00 1.273615e+00 2.441201e+00 3.239835e+00 2.011444e+00 2.375659e+00 2.425435e+00 2.036704e+00 2.346673e+00 1.890757e+00 1.356660e+00 1.077177e+00 1.803734e-01 2.008177e-01 2.696548e-01 3.339284e-01 4.187788e-01 3.143436e-01 2.635781e-01 4.221407e-01 3.608731e-01 4.139445e-01 3.217563e-01 2.671537e-01 1.169546e-01
<GCONST> 9.643216e+01
<TRANSP> 5
 0.000000e+00 1.000000e+00 0.000000e+00 0.000000e+00 0.000000e+00
 0.000000e+00 7.234570e-01 2.765431e-01 0.000000e+00 0.000000e+00
 0.000000e+00 0.000000e+00 2.058239e-01 7.941762e-01 0.000000e+00
 0.000000e+00 0.000000e+00 0.000000e+00 3.572156e-01 6.427845e-01
 0.000000e+00 0.000000e+00 0.000000e+00 0.000000e+00 0.000000e+00
<ENDHMM>
~h "u"
<BEGINHMM>
<NUMSTATES> 5
<STATE> 2
<MEAN> 39
 1.467458e+00 2.983127e+00 2.495361e+00 2.081005e+00 -3.850544e-01 -1.085497e+00 -5.640788e-02 -7.579792e-01 -2.094657e+00 -3.466300e+00 -2.017200e+00 -1.124949e+00 2.296631e-01 1.421039e+00 1.531062e+00 5.148536e-01 1.899807e-01 -8.187842e-01 -1.313693e+00 -1.120798e+00 -6.693160e-01 -7.567679e-01 -1.196327e+00 -7.224552e-01 -7.419459e-01 4.735945e-01 4.571413e-02 -5.563084e-04 -9.951618e-02 -1.094678e-01 -7.079740e-02 -8.505300e-02 -6.891701e-02 7.977475e-02 9.102730e-02 3.084530e-03 5.215575e-02 -4.799518e-02 2.788950e-02
<VARIANCE> 39
 1.688560e+01 1.928123e+01 1.713364e+01 1.394057e+01 1.968571e+01 2.890068e+01 3.219164e+01 2.045280e+01 2.427817e+01 2.605149e+01 1.373948e+01 1.153444e+01 7.479670e+00 1.311207e+00 1.791952e+00 1.450215e+00 1.387397e+00 2.149408e+00 1.915781e+00 2.096917e+00 2.774639e+00 2.547963e+00 2.371001e+00 1.564544e+00 1.426953e+00 3.435540e-01 2.199738e-01 3.498122e-01 2.158174e-01 1.896527e-01 3.484241e-01 4.038874e-01 4.806775e-01 3.507721e-01 4.439379e-01 5.478054e-01 3.039983e-01 2.409491e-01 6.987900e-02
<GCONST> 9.937231e+01
<STATE> 3
<MEAN> 39
 6.693607e+00 6.786245e+00 3.040468e+00 3.109890e-01 -6.207699e+00 -7.678272e+00 -3.430278e+00 -1.144543e+00 -2.458945e+00 -5.577561e+00 -5.025423e+00 -4.897046e+00 2.682616e+00 2.983067e-01 1.765161e-01 -1.393040e-01 -5.139722e-02 3.357156e-02 -1.373162e-01 1.111969e-01 1.392853e-01 -3.124361e-01 -3.460635e-01 -2.196995e-01 -3.698722e-01 1.379324e-01 -4.184744e-01 -4.133601e-01 -4.993517e-02 1.519387e-01 6.420246e-01 7.142348e-01 3.636926e-01 4.963231e-02 -4.988035e-03 3.123955e-01 3.060502e-01 3.568539e-01 -1.492787e-01
<VARIANCE> 39
 7.933568e+00 1.126610e+01 1.005139e+01 1.304432e+01 2.190749e+01 2.373904e+01 1.422781e+01 2.156950e+01 2.202190e+01 1.968468e+01 2.244967e+01 1.939346e+01 4.064533e+00 8.243515e-01 8.402082e-01 8.676190e-01 1.063881e+00 2.425240e+00 3.170801e+00 2.806990e+00 2.360526e+00 2.051625e+00 2.357674e+00 1.876441e+00 1.533297e+00 3.003803e-01 1.469663e-01 2.171817e-01 2.039718e-01 2.158295e-01 3.646288e-01 4.290872e-01 3.455199e-01 3.814301e-01 3.811561e-01 4.944293e-01 4.175838e-01 3.209033e-01 3.597626e-02
<GCONST> 9.403818e+01
<STATE> 4
<MEAN> 39
 3.257752e+00 5.642525e+00 2.410792e+00 2.300762e+00 -1.714922e+00 -4.311635e+00 -1.962492e+00 -3.661278e-01 -2.285542e+00 -5.078055e+00 -3.388885e+00 -2.626169e+00 4.347738e-01 -6.227280e-01 -5.649686e-01 -7.713146e-02 2.657173e-01 9.697317e-01 9.485373e-01 2.252170e-01 -1.063022e-01 -1.068854e-01 3.276328e-01 3.705332e-01 2.769180e-01 -2.607246e-01 -1.380359e-01 -2.547687e-01 1.637910e-02 -7.024313e-02 2.098441e-02 1.172325e-01 1.602088e-02 -3.722125e-02 7.007592e-02 1.986751e-01 1.264292e-01 1.228126e-01 7.249185e-03
<VARIANCE> 39
 1.255451e+01 8.955042e+00 9.735684e+00 1.214019e+01 1.686971e+01 2.092864e+01 1.490759e+01 1.870653e+01 2.619215e+01 2.381405e+01 1.456713e+01 1.261451e+01 6.640238e+00 6.443709e-01 7.046689e-01 7.775509e-01 7.382197e-01 1.293529e+00 2.296431e+00 2.453343e+00 1.594820e+00 1.616151e+00 1.577326e+00 1.543142e+00 1.361327e+00 2.572119e-01 1.143539e-01 1.449065e-01 1.255628e-01 1.245534e-01 2.234289e-01 2.781428e-01 3.373405e-01 2.934831e-01 2.884206e-01 3.897177e-01 2.966712e-01 2.158345e-01 2.396743e-02
<GCONST> 8.562614e+01
<TRANSP> 5
 0.000000e+00 1.000000e+00 0.000000e+00 0.000000e+00 0.000000e+00
 0.000000e+00 4.949392e-01 5.050609e-01 0.000000e+00 0.000000e+00
 0.000000e+00 0.000000e+00 5.826836e-01 4.173163e-01 0.000000e+00
 0.000000e+00 0.000000e+00 0.000000e+00 6.318408e-01 3.681592e-01
 0.000000e+00 0.000000e+00 0.000000e+00 0.000000e+00 0.000000e+00
<ENDHMM>
~h "v"
<BEGINHMM>
<NUMSTATES> 5
<STATE> 2
<MEAN> 39
 2.310317e+00 4.174636e+00 1.918504e+00 9.359043e-02 -2.488873e-01 -9.107146e-01 7.937932e-01 1.807478e+00 6.895461e-01 -1.571415e+00 -1.598222e+00 -1.492283e+00 6.193614e-01 2.043893e-01 5.244864e-01 2.492897e-01 3.118152e-01 -8.930939e-02 -5.349523e-01 -3.213142e-01 -9.914857e-03 1.646878e-01 -8.647579e-03 -8.887327e-02 2.612795e-02 -3.133464e-02 2.782323e-01 -1.462519e-01 -2.173737e-01 -3.266366e-01 -3.590572e-01 -2.966021e-01 -4.443597e-01 -5.228108e-01 -3.455048e-01 1.101338e-02 8.075418e-02 6.519926e-02 2.342302e-01
<VARIANCE> 39
 1.128524e+01 1.025377e+01 1.693884e+01 1.918176e+01 2.060813e+01 1.597655e+01 1.316843e+01 1.299328e+01 1.177380e+01 1.787275e+01 1.002130e+01 1.039100e+01 5.761336e+00 1.205345e+00 1.576531e+00 1.073263e+00 1.211583e+00 1.514809e+00 1.424368e+00 1.820941e+00 1.522478e+00 1.252953e+00 1.418236e+00 8.296884e-01 1.162303e+00 3.001742e-01 1.398881e-01 1.392593e-01 1.873008e-01 2.099384e-01 3.166093e-01 2.032389e-01 3.756271e-01 3.383577e-01 2.810268e-01 2.458366e-01 2.027733e-01 2.034667e-01 4.261338e-02
<GCONST> 8.592902e+01
<STATE> 3
<MEAN> 39
 3.944003e+00 4.932196e+00 1.119882e+00 -1.096635e+00 -2.788393e+00 -3.362118e+00 -1.498457e+00 -1.640837e-01 -7.575189e-01 -2.095927e+00 -1.736003e+00 -1.461057e+00 1.242822e+00 8.618170e-01 1.805964e-01 -3.919265e-01 -2.811739e-01 -5.764633e-01 -8.639560e-01 -1.060453e+00 -1.168687e+00 -7.323651e-01 -1.434274e-01 1.283401e-01 2.165324e-01 4.923843e-01 1.141328e-01 -3.063633e-01 -2.757769e-01 -1.782251e-01 7.574247e-03 3.616731e-02 -1.519382e-01 -3.523064e-01 -2.438549e-01 1.458807e-01 1.393041e-01 6.169954e-02 1.622720e-01
<VARIANCE> 39
 1.221038e+01 1.062732e+01 1.463175e+01 2.586533e+01 2.758663e+01 1.541359e+01 1.350570e+01 1.789404e+01 2.040836e+01 1.234767e+01 1.151050e+01 1.165311e+01 6.442730e+00 1.276621e+00 8.711318e-01 1.400305e+00 2.213050e+00 3.378234e+00 2.134915e+00 2.937080e+00 2.530300e+00 2.182597e+00 1.694586e+00 1.022900e+00 1.183770e+00 4.205477e-01 1.100074e-01 1.776813e-01 1.688680e-01 2.080965e-01 1.834215e-01 1.674886e-01 2.964438e-01 2.325160e-01 2.083243e-01 2.587289e-01 2.567732e-01 2.157822e-01 3.844351e-02
<GCONST> 8.964923e+01
<STATE> 4
<MEAN> 39
 6.521892e+00 4.736581e+00 -1.226985e+00 -2.630999e+00 -4.164004e+00 -5.677797e+00 -4.601950e+00 -3.347825e+00 -2.376246e+00 -2.292228e+00 -1.685774e+00 -1.064653e-02 2.848763e+00 7.454774e-01 -4.521594e-01 -7.001071e-01 -3.628400e-01 -9.319948e-02 -4.061893e-01 -8.855368e-01 -1.230938e+00 -8.455749e-01 1.232154e-01 2.303073e-01 3.837226e-01 5.547356e-01 -1.900135e-01 -2.005588e-01 2.895892e-02 1.329991e-01 2.981743e-01 3.295222e-01 2.074600e-01 1.021657e-01 9.692267e-02 1.702420e-01 1.290972e-01 -3.097812e-02 -7.069220e-02
<VARIANCE> 39
 1.888959e+01 1.412484e+01 1.751708e+01 2.568299e+01 4.540354e+01 2.347671e+01 2.514934e+01 2.894818e+01 3.085744e+01 1.386247e+01 1.305159e+01 1.739215e+01 8.643858e+00 8.143985e-01 8.600525e-01 1.484251e+00 2.024899e+00 2.819197e+00 1.965672e+00 2.769548e+00 2.529699e+00 2.001384e+00 1.633377e+00 1.812141e+00 1.511955e+00 3.840122e-01 1.157207e-01 1.937189e-01 1.544355e-01 1.766940e-01 3.730491e-01 2.904700e-01 3.238291e-01 3.482112e-01 3.308429e-01 2.882422e-01 2.530516e-01 2.412367e-01 4.524614e-02
<GCONST> 9.616791e+01
<TRANSP> 5
 0.000000e+00 1.000000e+00 0.000000e+00 0.000000e+00 0.000000e+00
 0.000000e+00 5.427529e-01 4.572471e-01 0.000000e+00 0.000000e+00
 0.000000e+00 0.000000e+00 6.679720e-02 9.332028e-01 0.000000e+00
 0.000000e+00 0.000000e+00 0.000000e+00 2.717212e-01 7.282788e-01
 0.000000e+00 0.000000e+00 0.000000e+00 0.000000e+00 0.000000e+00
<ENDHMM>
~h "x"
<BEGINHMM>
<NUMSTATES> 5
<STATE> 2
<MEAN> 39
 1.073365e+00 -4.089369e-01 4.065295e-01 1.295796e+00 1.396701e+00 -4.700604e-01 -2.064819e+00 -7.102254e-01 -2.595142e-03 1.087460e+00 1.941311e+00 -4.892919e-01 1.065843e+00 -9.349620e-01 -8.289015e-01 -6.636934e-01 -7.687664e-01 -3.509319e-01 -1.888457e-03 1.091458e+00 1.076848e+00 2.514287e-01 3.038930e-01 -6.759105e-02 7.891817e-03 -4.055482e-01 7.733230e-02 -1.808733e-02 2.311363e-02 -1.637553e-01 -3.119559e-01 -3.104043e-01 -7.830073e-03 -7.760114e-03 -2.284966e-01 -2.261057e-01 -1.742784e-01 6.457160e-02 8.045071e-02
<VARIANCE> 39
 7.224932e+00 2.133614e+01 8.792913e+00 1.714076e+01 2.449805e+01 2.914344e+01 2.226398e+01 1.858022e+01 1.816294e+01 1.384695e+01 2.111542e+01 1.855856e+01 4.373107e+00 5.914345e-01 9.349852e-01 1.165022e+00 1.260174e+00 2.089934e+00 1.942574e+00 1.341754e+00 1.716564e+00 1.881497e+00 1.396276e+00 1.994430e+00 1.617379e+00 2.138685e-01 5.815231e-02 1.636012e-01 1.532609e-01 2.514090e-01 3.594789e-01 3.259005e-01 2.739664e-01 3.235362e-01 2.711810e-01 3.396609e-01 3.372732e-01 2.531921e-01 4.762216e-02
<GCONST> 8.955348e+01
<STATE> 3
<MEAN> 39
 -3.082435e-01 -4.249494e+00 -1.794392e+00 -5.085990e+00 -3.173428e+00 -1.824440e+00 4.951637e+00 5.836176e+00 -3.029337e+00 -1.463004e+00 1.910000e-01 1.018828e+00 1.770715e+00 -4.684551e-01 -5.789030e-01 -4.727025e-02 2.642698e-02 3.762222e-02 -1.698365e-01 3.100354e-01 5.365281e-01 -2.734292e-01 -3.205416e-01 -6.659079e-02 2.048282e-01 -1.275738e-01 1.451028e-01 2.832808e-01 1.745601e-01 2.591436e-01 1.170724e-01 3.443068e-02 -3.281525e-01 -3.770554e-01 1.131989e-01 1.174530e-01 -6.395598e-03 -7.788064e-02 -5.213072e-03
<VARIANCE> 39
 4.673390e+00 1.886658e+01 1.181539e+01 3.118354e+01 3.477541e+01 3.006614e+01 2.859712e+01 4.885650e+01 3.042400e+01 1.970278e+01 1.929135e+01 1.378750e+01 4.917108e+00 5.667430e-01 1.078229e+00 1.120912e+00 1.443048e+00 2.216217e+00 1.748781e+00 2.125404e+00 3.627746e+00 3.367216e+00 2.427423e+00 1.700800e+00 1.628460e+00 1.856882e-01 1.335932e-01 1.652291e-01 2.482833e-01 2.209459e-01 3.840880e-01 3.757152e-01 3.455994e-01 5.841097e-01 5.128966e-01 4.779435e-01 4.218662e-01 2.956018e-01 4.116885e-02
<GCONST> 9.772386e+01
<STATE> 4
<MEAN> 39
 -3.137037e+00 -1.932980e+00 -1.172251e+00 -4.358436e-01 1.145462e+00 7.013955e-01 1.917472e+00 1.731964e+00 -1.290396e+00 -7.922618e-01 2.697893e-01 1.088082e+00 -1.617408e+00 1.787892e-01 3.717645e-01 2.898137e-01 1.068424e-01 -1.403924e-01 1.308810e-02 -6.104806e-02 -3.104063e-01 8.428029e-02 1.005633e-01 -2.529912e-01 -6.819580e-02 2.937165e-03 3.229542e-01 2.472720e-01 6.201459e-02 -7.757345e-02 -1.750678e-01 -1.358879e-01 -2.060996e-01 -1.929787e-01 -1.655574e-03 5.116596e-02 3.583364e-02 5.651917e-03 1.542344e-01
<VARIANCE> 39
 3.565228e+00 1.348688e+01 1.186896e+01 1.563253e+01 2.185642e+01 2.083159e+01 2.267430e+01 3.059001e+01 2.450516e+01 1.503261e+01 1.077215e+01 1.238254e+01 3.714476e+00 1.206819e+00 1.772697e+00 1.025901e+00 9.582015e-01 1.398079e+00 1.787934e+00 2.487404e+00 2.519772e+00 1.957508e+00 1.589677e+00 1.157962e+00 1.021246e+00 2.960756e-01 2.131634e-01 2.532693e-01 1.784624e-01 1.274291e-01 2.460598e-01 4.143389e-01 4.196421e-01 4.770525e-01 4.523237e-01 3.016466e-01 2.091343e-01 2.510428e-01 5.571749e-02
<GCONST> 9.071104e+01
<TRANSP> 5
 0.000000e+00 1.000000e+00 0.000000e+00 0.000000e+00 0.000000e+00
 0.000000e+00 5.380343e-01 4.619658e-01 0.000000e+00 0.000000e+00
 0.000000e+00 0.000000e+00 7.037248e-01 2.962752e-01 0.000000e+00
 0.000000e+00 0.000000e+00 0.000000e+00 7.367377e-01 2.632623e-01
 0.000000e+00 0.000000e+00 0.000000e+00 0.000000e+00 0.000000e+00
<ENDHMM>
~h "z"
<BEGINHMM>
<NUMSTATES> 5
<STATE> 2
<MEAN> 39
 9.831583e-01 7.573006e-01 8.047088e+00 -3.436792e+00 3.921130e-01 5.521145e+00 1.200200e-01 -2.279963e+00 -2.348238e+00 4.461044e-01 -3.085497e+00 -9.406279e-01 2.800966e+00 -1.375596e+00 -7.964647e-01 1.685040e+00 -4.853982e-01 5.386227e-01 1.117392e+00 1.455378e-01 7.094332e-01 1.037319e+00 9.663005e-01 3.404543e-02 4.775213e-01 -1.652609e-01 3.488578e-01 1.084477e-01 -5.400706e-01 1.426074e-01 -3.133555e-01 -7.401416e-01 -3.821779e-01 -2.443648e-01 -2.376557e-01 -2.039010e-01 2.477885e-01 8.822402e-03 5.793070e-02
<VARIANCE> 39
 1.619101e+01 1.085676e+01 2.049092e+01 3.116055e+01 3.439354e+01 2.840203e+01 1.293186e+01 3.422049e+01 2.818306e+01 2.757586e+01 1.792084e+01 1.519697e+01 8.619412e+00 6.816629e-01 1.446645e+00 1.943047e+00 8.124060e-01 2.050081e+00 1.995381e+00 1.500217e+00 2.218392e+00 1.824695e+00 1.389231e+00 9.093661e-01 9.709826e-01 2.754889e-01 1.386720e-01 1.640956e-01 3.388743e-01 2.719738e-01 3.161223e-01 2.506862e-01 2.381058e-01 3.559023e-01 3.223925e-01 3.009338e-01 2.612463e-01 2.229199e-01 3.375340e-02
<GCONST> 9.353410e+01
<STATE> 3
<MEAN> 39
 -1.497101e+00 -1.596125e+00 9.335218e+00 -3.597547e+00 9.429653e-01 5.211584e+00 -3.260305e-01 -8.122867e-01 -3.490919e-01 2.583001e+00 -1.522337e+00 5.251921e-01 2.389682e+00 1.689956e-01 2.892978e-01 7.855814e-02 4.673783e-01 -2.259848e-01 -6.822804e-01 -8.026312e-01 -4.594084e-01 -3.651120e-01 -2.383914e-01 4.612235e-01 1.035481e-01 -5.505051e-02 6.731867e-01 5.664658e-01 -7.230444e-01 3.958989e-01 -2.133657e-01 -5.419548e-01 -2.479445e-01 -4.268616e-01 -4.841983e-01 -6.057952e-01 4.272874e-02 -2.534921e-01 8.156447e-03
<VARIANCE> 39
 1.117182e+01 2.907520e+01 2.923080e+01 3.161138e+01 2.065300e+01 2.296614e+01 1.698806e+01 3.955830e+01 2.749863e+01 2.827090e+01 1.184082e+01 1.013438e+01 1.112510e+01 9.237989e-01 7.519029e-01 2.192995e+00 1.407688e+00 2.386115e+00 1.699993e+00 9.307036e-01 1.819569e+00 1.393654e+00 1.207687e+00 1.704057e+00 1.685735e+00 3.582126e-01 1.345322e-01 2.768021e-01 5.671766e-01 3.012555e-01 3.695911e-01 3.174388e-01 4.107089e-01 4.541206e-01 4.127114e-01 2.795309e-01 2.377426e-01 2.214168e-01 6.265416e-02
<GCONST> 9.729972e+01
<STATE> 4
<MEAN> 39
 7.663419e-01 9.245550e-01 8.232189e+00 -2.530161e+00 -6.781886e-01 2.789487e+00 -2.471915e+00 -2.865779e+00 -2.914268e+00 -1.013255e+00 -1.617058e+00 5.564579e-02 2.477238e+00 9.101912e-01 8.914900e-01 -1.169081e+00 8.389390e-01 -3.557353e-01 -1.058399e+00 -6.785259e-01 -8.864521e-01 -6.834149e-01 -9.309352e-01 3.530166e-01 -4.649080e-02 -1.167354e-01 2.711936e-01 9.756860e-02 -4.954493e-01 6.924108e-02 3.699997e-02 -1.226099e-01 1.340106e-01 -1.017448e-01 -1.776986e-02 -4.781151e-02 -9.482379e-02 -8.460646e-02 3.680816e-02
<VARIANCE> 39
 1.216863e+01 1.812606e+01 2.093982e+01 2.938138e+01 2.594534e+01 2.141881e+01 1.312582e+01 3.514821e+01 1.946512e+01 2.489267e+01 9.926126e+00 1.006638e+01 8.557691e+00 1.253103e+00 5.654135e-01 2.582843e+00 2.274882e+00 2.674140e+00 2.371616e+00 1.881827e+00 2.274645e+00 2.371115e+00 2.075926e+00 1.519625e+00 1.365185e+00 5.890595e-01 1.444942e-01 1.215355e-01 3.350369e-01 1.246906e-01 2.469341e-01 2.573252e-01 2.500107e-01 4.739264e-01 4.441586e-01 3.262106e-01 2.421528e-01 1.710211e-01 3.356314e-02
<GCONST> 9.478928e+01
<TRANSP> 5
 0.000000e+00 1.000000e+00 0.000000e+00 0.000000e+00 0.000000e+00
 0.000000e+00 6.071916e-01 3.928084e-01 0.000000e+00 0.000000e+00
 0.000000e+00 0.000000e+00 2.644924e-01 7.355077e-01 0.000000e+00
 0.000000e+00 0.000000e+00 0.000000e+00 2.510356e-01 7.489644e-01
 0.000000e+00 0.000000e+00 0.000000e+00 0.000000e+00 0.000000e+00
<ENDHMM>
~h "aa"
<BEGINHMM>
<NUMSTATES> 5
<STATE> 2
<MEAN> 39
 8.899173e+00 -4.887098e-01 -5.373777e+00 -7.111388e+00 -8.261234e+00 -5.400681e+00 -1.914581e+00 -2.198333e+00 -1.384775e+00 2.933676e+00 3.217454e+00 2.410118e+00 5.926879e+00 8.450042e-01 -7.855747e-01 -1.720511e+00 -1.973244e+00 -1.223727e+00 1.752433e-01 1.534948e+00 1.360718e+00 5.746349e-01 9.763049e-01 2.133065e-01 -8.066838e-02 6.254092e-01 -3.905521e-01 -1.256090e-02 2.037939e-01 3.207113e-01 4.928414e-01 4.789988e-01 3.648798e-01 1.809513e-01 -4.528071e-02 -4.147669e-01 -5.027061e-01 -3.154152e-01 -2.611893e-01
<VARIANCE> 39
 8.674612e+00 1.647377e+01 1.531906e+01 1.961606e+01 1.530138e+01 1.105409e+01 3.027812e+01 4.249171e+01 2.615183e+01 2.222885e+01 3.288066e+01 1.826182e+01 7.274029e+00 1.230806e+00 1.409904e+00 1.666076e+00 1.541709e+00 1.717764e+00 1.738524e+00 2.320018e+00 2.131907e+00 1.670684e+00 2.292145e+00 2.368917e+00 1.921376e+00 5.480702e-01 1.452312e-01 2.618040e-01 2.642314e-01 2.295436e-01 2.173712e-01 2.649079e-01 3.471396e-01 4.364909e-01 3.254721e-01 4.342588e-01 4.012407e-01 3.567540e-01 6.481559e-02
<GCONST> 9.837625e+01
<STATE> 3
<MEAN> 39
 9.296365e+00 -2.498516e+00 -9.474209e+00 -1.157351e+01 -1.048797e+01 -3.679648e+00 4.440902e+00 2.605186e+00 4.695037e-01 2.077907e+00 -1.408988e+00 -6.964982e-01 6.246826e+00 -9.681209e-02 1.570743e-01 -6.346151e-02 -1.816120e-01 -9.622149e-02 1.295117e-01 3.286515e-01 2.129992e-01 1.630353e-01 -9.806236e-02 -1.787172e-01 -1.780572e-01 -1.165694e-01 -5.301555e-02 1.305523e-01 1.920730e-01 1.963384e-01 1.333245e-01 -1.034815e-02 -2.274773e-01 -1.844315e-01 -4.227087e-02 -3.589982e-02 1.011891e-01 7.626940e-02 -5.091966e-02
<VARIANCE> 39
 5.715169e+00 1.026669e+01 9.162648e+00 9.849243e+00 1.420802e+01 1.001431e+01 1.990017e+01 2.123069e+01 1.519359e+01 1.783270e+01 2.422041e+01 1.140362e+01 4.411680e+00 1.477131e-01 5.812227e-01 5.705777e-01 6.034025e-01 6.351674e-01 8.249701e-01 1.536197e+00 1.523774e+00 1.148112e+00 9.891835e-01 1.357202e+00 1.133135e+00 1.281507e-01 3.595539e-02 8.711097e-02 1.119501e-01 1.090882e-01 1.453140e-01 1.724282e-01 2.035923e-01 2.182337e-01 1.948777e-01 2.039061e-01 2.101655e-01 1.657144e-01 2.361674e-02
<GCONST> 7.184857e+01
<STATE> 4
<MEAN> 39
 5.650498e+00 2.556193e+00 -6.007765e+00 -8.566710e+00 -7.064094e+00 -1.417696e+00 3.763638e+00 3.191902e+00 2.966743e+00 2.208293e+00 1.150651e+00 3.091018e-01 2.405738e+00 -6.772608e-01 2.022766e-01 5.868337e-01 7.903188e-01 8.207027e-01 3.682621e-01 -1.525319e-01 1.168436e-01 2.303717e-01 -9.148133e-02 9.135245e-02 3.967009e-02 -4.968683e-01 -1.113273e-01 -1.043102e-01 7.143006e-02 6.161470e-02 7.392470e-02 1.476916e-02 3.506970e-02 8.612250e-02 -5.093359e-03 4.140211e-02 -3.717875e-02 -3.581190e-02 -3.022092e-02
<VARIANCE> 39
 1.079149e+01 7.648787e+00 1.069167e+01 1.091994e+01 1.704272e+01 1.669857e+01 2.377681e+01 2.627622e+01 1.723413e+01 9.830176e+00 1.311485e+01 1.228224e+01 6.691527e+00 4.490513e-01 4.883956e-01 6.252769e-01 8.854648e-01 1.671425e+00 1.241815e+00 1.549464e+00 1.664043e+00 1.141319e+00 1.109348e+00 1.241156e+00 9.305585e-01 2.143050e-01 8.441542e-02 6.126828e-02 9.543787e-02 1.416972e-01 2.826901e-01 2.317505e-01 3.146605e-01 3.763707e-01 2.397362e-01 2.116258e-01 2.117008e-01 2.059598e-01 2.929927e-02
<GCONST> 7.939194e+01
<TRANSP> 5
 0.000000e+00 1.000000e+00 0.000000e+00 0.000000e+00 0.000000e+00
 0.000000e+00 6.126524e-01 3.873476e-01 0.000000e+00 0.000000e+00
 0.000000e+00 0.000000e+00 8.621891e-01 1.378109e-01 0.000000e+00
 0.000000e+00 0.000000e+00 0.000000e+00 8.216576e-01 1.783423e-01
 0.000000e+00 0.000000e+00 0.000000e+00 0.000000e+00 0.000000e+00
<ENDHMM>
~h "aw"
<BEGINHMM>
<NUMSTATES> 5
<STATE> 2
<MEAN> 39
 -5.887608e-07 1.698753e-07 -5.055199e-07 -1.318005e-06 -1.023765e-06 6.898192e-08 -1.158523e-07 -1.367573e-06 -2.174004e-07 -5.826070e-07 -5.898136e-07 4.461645e-07 7.465320e-08 5.253921e-04 -2.702139e-04 3.097651e-04 -1.285669e-03 7.201253e-04 3.143736e-04 6.395662e-04 -1.093175e-04 -1.536469e-03 -1.878627e-03 2.284285e-04 -3.290647e-04 1.190478e-03 -1.001548e-04 -1.624723e-04 -2.452281e-05 -5.790518e-04 -8.678192e-04 -1.842689e-04 -3.990431e-04 -3.524625e-04 -7.953874e-04 -3.248193e-04 -2.167321e-04 -4.696192e-04 6.840793e-05
<VARIANCE> 39
 3.725983e+01 2.248916e+01 2.938000e+01 3.223958e+01 3.577592e+01 2.905538e+01 3.335001e+01 4.401020e+01 3.105965e+01 1.881401e+01 1.787118e+01 1.696494e+01 1.861609e+01 1.141006e+00 1.111801e+00 1.289172e+00 1.442829e+00 1.776055e+00 1.620381e+00 1.799076e+00 2.037234e+00 1.702510e+00 1.472600e+00 1.291952e+00 1.243184e+00 4.911598e-01 1.540733e-01 1.713434e-01 1.978896e-01 2.267719e-01 2.986338e-01 2.873929e-01 3.179961e-01 3.520240e-01 3.128441e-01 2.813636e-01 2.441185e-01 2.327442e-01 6.922171e-02
<GCONST> 9.905293e+01
<STATE> 3
<MEAN> 39
 -5.887608e-07 1.698753e-07 -5.055199e-07 -1.318005e-06 -1.023765e-06 6.898192e-08 -1.158523e-07 -1.367573e-06 -2.174004e-07 -5.826070e-07 -5.898136e-07 4.461645e-07 7.465320e-08 5.253921e-04 -2.702139e-04 3.097651e-04 -1.285669e-03 7.201253e-04 3.143736e-04 6.395662e-04 -1.093175e-04 -1.536469e-03 -1.878627e-03 2.284285e-04 -3.290647e-04 1.190478e-03 -1.001548e-04 -1.624723e-04 -2.452281e-05 -5.790518e-04 -8.678192e-04 -1.842689e-04 -3.990431e-04 -3.524625e-04 -7.953874e-04 -3.248193e-04 -2.167321e-04 -4.696192e-04 6.840793e-05
<VARIANCE> 39
 3.725983e+01 2.248916e+01 2.938000e+01 3.223958e+01 3.577592e+01 2.905538e+01 3.335001e+01 4.401020e+01 3.105965e+01 1.881401e+01 1.787118e+01 1.696494e+01 1.861609e+01 1.141006e+00 1.111801e+00 1.289172e+00 1.442829e+00 1.776055e+00 1.620381e+00 1.799076e+00 2.037234e+00 1.702510e+00 1.472600e+00 1.291952e+00 1.243184e+00 4.911598e-01 1.540733e-01 1.713434e-01 1.978896e-01 2.267719e-01 2.986338e-01 2.873929e-01 3.179961e-01 3.520240e-01 3.128441e-01 2.813636e-01 2.441185e-01 2.327442e-01 6.922171e-02
<GCONST> 9.905293e+01
<STATE> 4
<MEAN> 39
 -5.887608e-07 1.698753e-07 -5.055199e-07 -1.318005e-06 -1.023765e-06 6.898192e-08 -1.158523e-07 -1.367573e-06 -2.174004e-07 -5.826070e-07 -5.898136e-07 4.461645e-07 7.465320e-08 5.253921e-04 -2.702139e-04 3.097651e-04 -1.285669e-03 7.201253e-04 3.143736e-04 6.395662e-04 -1.093175e-04 -1.536469e-03 -1.878627e-03 2.284285e-04 -3.290647e-04 1.190478e-03 -1.001548e-04 -1.624723e-04 -2.452281e-05 -5.790518e-04 -8.678192e-04 -1.842689e-04 -3.990431e-04 -3.524625e-04 -7.953874e-04 -3.248193e-04 -2.167321e-04 -4.696192e-04 6.840793e-05
<VARIANCE> 39
 3.725983e+01 2.248916e+01 2.938000e+01 3.223958e+01 3.577592e+01 2.905538e+01 3.335001e+01 4.401020e+01 3.105965e+01 1.881401e+01 1.787118e+01 1.696494e+01 1.861609e+01 1.141006e+00 1.111801e+00 1.289172e+00 1.442829e+00 1.776055e+00 1.620381e+00 1.799076e+00 2.037234e+00 1.702510e+00 1.472600e+00 1.291952e+00 1.243184e+00 4.911598e-01 1.540733e-01 1.713434e-01 1.978896e-01 2.267719e-01 2.986338e-01 2.873929e-01 3.179961e-01 3.520240e-01 3.128441e-01 2.813636e-01 2.441185e-01 2.327442e-01 6.922171e-02
<GCONST> 9.905293e+01
<TRANSP> 5
 0.000000e+00 1.000000e+00 0.000000e+00 0.000000e+00 0.000000e+00
 0.000000e+00 6.000000e-01 4.000000e-01 0.000000e+00 0.000000e+00
 0.000000e+00 0.000000e+00 6.000000e-01 4.000000e-01 0.000000e+00
 0.000000e+00 0.000000e+00 0.000000e+00 7.000000e-01 3.000000e-01
 0.000000e+00 0.000000e+00 0.000000e+00 0.000000e+00 0.000000e+00
<ENDHMM>
~h "ch"
<BEGINHMM>
<NUMSTATES> 5
<STATE> 2
<MEAN> 39
 -2.099832e+00 -4.867521e-01 1.603662e+00 1.505462e+00 1.630444e+00 2.200136e+00 1.203831e+00 4.315981e-02 -9.017394e-02 1.554135e+00 7.206851e-01 -8.057918e-01 -1.083393e+00 -1.151228e+00 -1.767804e+00 1.773948e+00 -3.031780e-01 -1.622358e+00 1.641513e-01 6.447176e-01 8.982062e-01 2.720779e-01 2.546066e-01 -5.673186e-01 -1.157825e-01 2.741989e-01 -1.109972e-02 -5.923849e-01 4.996235e-01 -8.393814e-02 -4.576504e-01 -1.246035e-01 -1.657671e-01 -8.025297e-02 -1.236751e-01 -1.582481e-01 -1.337343e-01 1.266269e-01 3.396867e-01
<VARIANCE> 39
 1.226568e+01 1.470880e+01 2.604009e+01 1.509825e+01 1.371409e+01 9.133511e+00 2.916652e+01 3.749862e+01 2.326215e+01 1.455577e+01 1.967701e+01 1.109292e+01 7.158955e+00 1.106407e+00 2.463484e+00 2.688606e+00 1.114262e+00 2.309328e+00 1.134134e+00 1.300527e+00 2.842729e+00 1.733551e+00 1.687397e+00 1.769656e+00 1.466436e+00 7.967409e-01 1.385411e-01 2.378969e-01 3.416272e-01 2.577253e-01 4.324802e-01 1.947017e-01 2.088406e-01 3.202675e-01 2.710429e-01 3.569463e-01 2.391880e-01 2.417403e-01 6.680258e-02
<GCONST> 9.510959e+01
<STATE> 3
<MEAN> 39
 -4.232035e+00 -9.685237e+00 1.336155e+01 3.334425e+00 -1.075400e+00 3.010024e+00 1.488293e+00 5.738724e-01 -2.268461e-01 3.894343e+00 -1.365888e+00 2.303732e-01 3.602101e+00 -3.713394e-01 -1.022948e+00 5.056539e-01 8.982918e-02 -3.286562e-01 -3.034831e-01 -2.712118e-01 1.922714e-01 -5.181498e-02 -2.523521e-01 -1.421822e-01 3.084614e-01 2.397178e-01 2.961030e-01 5.804425e-01 -6.640976e-01 1.526650e-02 3.753292e-01 -5.928225e-02 -2.180557e-01 -2.139008e-01 -1.050241e-02 -1.134951e-01 9.497082e-02 -6.885554e-02 -1.608957e-01
<VARIANCE> 39
 1.577259e+01 3.873678e+01 2.068911e+01 2.732369e+01 7.244196e+01 1.862708e+01 2.958174e+01 2.906560e+01 1.673992e+01 3.606951e+01 1.670880e+01 1.812806e+01 7.039396e+00 1.030759e+00 3.270876e+00 3.778968e+00 2.018658e+00 2.983616e+00 1.020064e+00 2.073282e+00 2.009498e+00 1.741550e+00 1.962288e+00 1.993967e+00 1.432040e+00 5.282390e-01 1.737363e-01 4.863862e-01 5.264690e-01 3.278366e-01 4.684117e-01 1.879316e-01 4.297524e-01 4.848579e-01 3.587514e-01 3.747900e-01 4.389239e-01 2.558562e-01 7.552487e-02
<GCONST> 1.048864e+02
<STATE> 4
<MEAN> 39
 -5.462778e+00 -1.144989e+01 7.508570e+00 3.146652e+00 -3.529206e+00 -1.870978e-01 -1.913699e+00 1.512694e+00 9.300124e-01 -7.228268e-01 -2.897258e-01 1.727705e+00 1.695310e+00 1.657959e+00 2.590874e+00 -1.865872e+00 -6.499628e-02 5.640232e-01 -6.156586e-01 -1.263071e+00 -1.334444e+00 -1.520737e-01 -5.221682e-01 5.703389e-01 -1.314985e-03 -2.760468e-01 5.831802e-01 5.857586e-01 2.035218e-02 -1.694869e-01 -1.701967e-01 -1.978953e-01 -1.662261e-01 -5.078518e-01 -3.321395e-01 7.137810e-02 8.387394e-02 8.435398e-02 2.054438e-01
<VARIANCE> 39
 7.758010e+00 3.303244e+01 2.119776e+01 1.278995e+01 8.864422e+00 1.069041e+01 2.298385e+01 2.322268e+01 2.342142e+01 1.411955e+01 1.726758e+01 1.417577e+01 9.363495e+00 1.932009e+00 1.949191e+00 1.197967e+00 1.019883e+00 1.195262e+00 1.413902e+00 3.147463e+00 2.639171e+00 1.715549e+00 1.584167e+00 1.074197e+00 1.345343e+00 3.524402e-01 1.582253e-01 3.783121e-01 2.972568e-01 2.389232e-01 2.418880e-01 2.422196e-01 5.558964e-01 5.044196e-01 4.222097e-01 2.797080e-01 2.186631e-01 1.652683e-01 7.804275e-02
<GCONST> 9.411246e+01
<TRANSP> 5
 0.000000e+00 1.000000e+00 0.000000e+00 0.000000e+00 0.000000e+00
 0.000000e+00 7.422433e-01 2.577566e-01 0.000000e+00 0.000000e+00
 0.000000e+00 0.000000e+00 8.487960e-01 1.512040e-01 0.000000e+00
 0.000000e+00 0.000000e+00 0.000000e+00 6.652780e-01 3.347220e-01
 0.000000e+00 0.000000e+00 0.000000e+00 0.000000e+00 0.000000e+00
<ENDHMM>
~h "dj"
<BEGINHMM>
<NUMSTATES> 5
<STATE> 2
<MEAN> 39
 3.852370e+00 2.942171e+00 3.523619e-01 5.472221e-01 2.206788e+00 2.166167e+00 -1.447701e+00 -4.554417e+00 -1.892850e+00 5.777061e-01 1.277554e+00 9.356773e-02 1.588656e+00 -8.260524e-01 -3.024746e-02 6.199259e-01 3.443117e-01 8.522301e-02 7.042804e-02 8.519529e-01 1.651883e+00 9.907672e-01 3.435639e-01 1.879771e-01 -1.109602e-01 -4.633154e-01 7.273327e-02 6.748124e-03 1.482233e-01 -6.017293e-02 -3.084122e-01 -2.614561e-01 -1.766895e-01 -2.623420e-01 -3.419559e-01 -2.550205e-02 4.603895e-02 -1.743717e-01 1.123257e-01
<VARIANCE> 39
 3.020515e+00 2.729823e+00 1.218236e+01 1.515477e+01 1.627197e+01 1.182601e+01 5.481798e+00 1.947985e+01 1.725589e+01 1.599268e+01 1.152581e+01 7.938488e+00 9.341385e-01 2.455989e-01 5.668676e-01 1.212234e+00 7.230014e-01 1.347481e+00 1.592656e+00 7.376099e-01 1.143103e+00 1.519894e+00 1.354605e+00 5.624723e-01 1.107890e+00 1.499200e-01 3.820663e-02 3.241330e-02 1.689959e-01 2.770161e-01 3.350956e-01 2.878127e-01 7.274824e-02 2.624449e-01 1.756476e-01 3.583911e-01 1.459282e-01 1.345223e-01 2.705169e-02
<GCONST> 6.948643e+01
<STATE> 3
<MEAN> 39
 1.108593e+00 3.187924e+00 4.375816e+00 4.644230e+00 2.661383e+00 1.674529e+00 2.381298e-02 -1.743173e+00 -2.183135e+00 -1.247019e+00 1.920736e-01 -2.194778e+00 1.632182e-01 -2.475937e-01 -5.318530e-02 5.272612e-01 6.652662e-01 -5.332193e-01 -6.105417e-01 -1.401131e-01 1.507816e-01 -5.710257e-01 -1.004766e+00 -7.367484e-01 -4.746524e-01 -1.182170e-01 2.153635e-01 -3.985021e-02 -1.435749e-01 4.465449e-03 7.906453e-02 -1.360558e-01 -4.317488e-01 -5.055572e-01 -2.330368e-01 -2.275039e-01 -2.208712e-01 2.469037e-02 1.321459e-01
<VARIANCE> 39
 1.808581e+00 3.442820e+00 1.953363e+00 5.766239e+00 1.509768e+01 7.221655e+00 7.063644e+00 1.310785e+01 5.050263e+00 8.902689e+00 8.173437e+00 7.708173e+00 6.833878e-01 2.841386e-01 2.626900e-01 4.892357e-01 6.715885e-01 7.288109e-01 7.094969e-01 1.480443e+00 7.622753e-01 7.023001e-01 9.701013e-01 7.649980e-01 6.520432e-01 1.574470e-01 3.964373e-02 6.636146e-02 5.552019e-02 5.819602e-02 1.939318e-01 9.028130e-02 1.066558e-01 1.495734e-01 1.515756e-01 1.860613e-01 1.375209e-01 1.922616e-01 1.495213e-02
<GCONST> 5.427828e+01
<STATE> 4
<MEAN> 39
 1.581428e+00 2.242559e+00 5.706100e+00 7.242305e+00 1.444155e+00 -2.484152e+00 -4.800448e+00 -5.314232e+00 -3.171441e+00 -3.490885e+00 -3.859158e+00 -4.640370e+00 7.398010e-01 3.946059e-02 2.326084e-02 -6.685895e-02 -4.541370e-03 7.759636e-02 -1.540057e-01 -2.418606e-01 -9.732948e-02 7.947373e-02 4.818863e-02 -6.985278e-02 -1.502449e-02 1.643457e-02 1.219086e-02 -1.630095e-02 -5.494196e-02 -7.626930e-02 1.295715e-02 8.762071e-02 9.542654e-02 3.765806e-02 4.386330e-02 1.318708e-01 1.156778e-01 9.790237e-02 9.814926e-03
<VARIANCE> 39
 5.180544e+00 3.742334e+00 4.721811e+00 3.492628e+00 1.364194e+01 2.309688e+01 3.002164e+01 1.862715e+01 8.596190e+00 7.602477e+00 7.107295e+00 6.898015e+00 3.275282e+00 1.673988e-01 3.054293e-01 4.538616e-01 6.686943e-01 5.389853e-01 9.818661e-01 1.173471e+00 1.186745e+00 5.966383e-01 1.001701e+00 6.983003e-01 7.657648e-01 5.954615e-02 1.922971e-02 5.807915e-02 7.434997e-02 1.031028e-01 1.403763e-01 2.112052e-01 1.750493e-01 1.767172e-01 1.056472e-01 1.763321e-01 1.322829e-01 1.489287e-01 7.120207e-03
<GCONST> 5.883244e+01
<TRANSP> 5
 0.000000e+00 1.000000e+00 0.000000e+00 0.000000e+00 0.000000e+00
 0.000000e+00 6.704608e-01 3.295392e-01 0.000000e+00 0.000000e+00
 0.000000e+00 0.000000e+00 6.856132e-01 3.143868e-01 0.000000e+00
 0.000000e+00 0.000000e+00 0.000000e+00 8.863097e-01 1.136903e-01
 0.000000e+00 0.000000e+00 0.000000e+00 0.000000e+00 0.000000e+00
<ENDHMM>
~h "ee"
<BEGINHMM>
<NUMSTATES> 5
<STATE> 2
<MEAN> 39
